-7.407175
0.805419
-0.034104
0.396513
-0.952190
7.772259
0.024831
-0.551410
0.107010
0.664134
0.938026
0.630932
-0.004962
0.814797
-8.494568
12.152291
-5.745011
-0.646339
-0.931514
-0.259841
-6.398140
-4.943399
0.942816
-8.043717
-0.565101
7.198514
-6.273346
-0.578782
-4.867719
7.856425
0.057751
-6.850594
-4.200728
-1.258826
0.860481
-0.030467
0.262618
-1.001973
-0.902843
0.308688
0.943053
-0.986673
0.432622
0.481227
0.535039
-1.293230
-7.471864
3.504824
-7.707269
-0.550272
-0.611424
-0.697964
5.625263
3.849678
-0.775560
0.399523
-0.467545
-1.388473
2.167649
-1.071915
1.669706
0.967927
0.463456
-4.534634
1.974857
-1.711305
-2.795167
0.692621
0.500650
0.320540
0.655529
-1.571607
0.158769
0.429071
-2.057532
-0.623348
0.650859
-2.181291
-8.217262
-6.152028
-3.211797
-1.145292
0.512609
-0.073764
-7.378126
-3.173266
-1.657551
6.066757
-0.297981
6.594836
0.025004
-1.683275
3.300993
6.329589
-5.143194
11.678077
1.876181
-2.203397
-2.678821
0.930664
-0.350589
-5.461009
0.091818
-1.396737
0.065621
-0.523530
-1.138219
-1.342875
-0.859372
-2.855126
6.440878
-3.104600
4.342618
-2.947370
-0.181659
-0.323160
8.588387
-7.307025
-1.822294
-7.196744
0.690440
-10.563095
-0.774714
-1.888753
1.189602
4.859693
-2.750261
8.105739
2.961360
0.209478
-1.276432
-0.199813
-0.011213
-2.276726
0.868963
-0.013604
0.975045
0.872441
-0.023346
-0.937725
0.200048
0.025233
-4.178239
5.174848
4.279371
-0.825637
0.165911
0.067751
4.669953
7.612225
-0.933403
7.683655
0.875256
-8.521174
-3.014865
-1.282630
-8.747218
2.496650
0.320670
-5.179103
-7.068686
0.272255
-0.174668
-0.679175
0.753832
-5.006499
-0.695364
0.033872
-0.755903
-0.368002
0.796157
3.690537
-0.177150
-1.332388
1.062213
-10.092419
6.146327
-0.052992
0.932180
-0.866150
-5.873183
-4.971004
-1.626430
-10.098490
0.323381
-12.151841
1.012163
0.093425
-4.411537
9.244164
0.255525
-10.191218
3.478665
-0.998416
-0.180875
0.661119
-0.005857
9.256060
0.922088
0.116098
0.978845
0.897868
-1.191251
-1.698270
-0.587073
-1.548381
1.444088
-4.184861
-10.851826
0.208946
-0.667386
0.076622
0.454219
-8.652889
-1.294723
-2.773718
0.419289
-8.001032
-1.203272
-0.358780
4.650962
-7.843564
0.344439
11.313555
-15.316269
-1.082145
-0.274861
0.600289
-0.571635
1.377375
0.597579
-0.630779
-0.217201
0.897839
-0.846635
-0.966452
0.667670
-0.853539
1.660807
-6.111767
-0.316137
-1.498115
0.483759
0.777563
-2.435665
5.625396
-0.387558
-2.054031
-0.584898
-5.597614
-1.196565
-0.172532
4.894033
-4.440414
-0.359021
10.907902
3.880293
-5.489887
-6.602920
-0.888393
0.010509
-9.208141
-0.104495
-5.584096
0.147483
0.821545
-5.500625
0.186790
-0.165363
-6.755410
7.946958
-9.493834
4.567221
-6.181809
0.405640
0.452323
-7.267519
-10.674857
-5.061330
-16.298211
-0.749228
6.972403
8.031719
-5.360182
7.483890
20.865953
-3.398306
-12.210878
2.992956
-2.595498
-2.645463
0.659465
0.160394
-2.071802
-0.169399
-1.823291
0.597898
-0.267674
-0.262662
0.655769
0.699009
-2.119452
5.950346
9.905601
-1.767723
-1.981187
-0.616464
-0.941660
-4.195289
-4.830897
-2.552624
10.392070
-0.489503
3.310156
2.691794
-2.750949
-7.493007
1.089331
-1.706939
-5.006708
4.433469
0.709530
0.971482
-0.800690
-0.431611
1.983146
0.799317
0.291371
-0.226066
0.569436
-9.422419
-0.060550
-0.000815
0.414744
3.593059
-0.627481
3.927174
0.695531
-0.374369
-0.412909
-7.299511
-4.578640
0.063428
9.827812
0.032309
-15.298323
0.328883
0.605484
-0.626623
-9.936342
-0.245802
-8.462132
4.450919
-3.567101
-4.072236
0.310951
0.510709
-2.404387
-0.909248
-4.172212
0.333563
0.610209
-4.338736
-0.490200
0.282725
-3.317863
-8.112246
-4.852647
7.289885
-4.079201
0.048342
0.254584
-6.446415
-4.962913
-5.015195
9.825039
0.464795
19.510295
10.850732
-4.989753
7.457045
4.018054
-11.159257
-8.870556
0.483607
0.187442
-1.968281
-0.962562
0.988551
4.160745
0.390358
0.407477
0.860247
-0.809293
-0.826085
2.539004
-0.173575
0.184726
0.757583
-5.698408
-5.781092
-0.004411
-0.633292
0.781804
-1.613687
13.487783
-0.475181
0.266224
0.742330
-0.979759
-1.479761
-0.504302
2.684755
-21.275144
-1.088164
-2.725187
-10.707684
1.281338
0.483743
-0.311966
0.195370
4.048497
-0.440424
0.931754
0.116481
-0.585737
-0.308135
-0.998495
-0.118943
-0.261923
-9.170155
6.428951
5.793038
1.240973
-0.391426
-0.477936
2.898014
-2.966309
-0.265808
-1.087993
-0.409021
2.509002
1.317427
0.819348
-1.804050
-14.774676
1.439487
-5.921481
-2.889149
-1.456573
-0.925329
-0.223954
0.809903
-6.152048
0.904000
-2.400935
-0.075883
-0.063922
-1.600204
-0.218882
-0.073087
-0.999369
0.053433
0.439444
5.008608
-2.361568
0.714331
-0.188073
3.479385
-3.461822
-1.322242
3.936064
-0.303724
-0.213651
-1.021882
-1.641374
-5.717427
-12.184941
-1.535637
21.298376
-14.411223
-0.405310
-0.752112
0.158910
0.843155
-0.516571
-0.905006
-1.186465
-0.282776
0.296950
-0.635847
-0.580052
0.139358
-1.938747
-1.219963
-8.086834
-0.860017
-0.749624
-0.872322
-0.707616
-3.780071
-5.414704
-1.364469
1.479356
0.836932
3.730435
-1.392446
-2.088076
7.552240
7.462409
-0.539250
-4.302081
-6.025635
-2.626554
-1.896643
-0.398007
-0.187642
-7.146984
0.331730
-12.029265
0.818039
0.787133
-2.077308
-0.950809
-0.422428
-2.591414
4.092700
-7.793715
4.211458
-2.690009
0.184716
0.032901
2.139313
-0.632660
-2.473925
-4.351766
0.234136
6.039436
-1.997022
-2.596007
3.004430
10.241149
-2.725264
15.031371
1.607518
-1.774137
-0.053166
0.616338
0.516042
8.781287
0.434427
-0.578885
0.180621
0.663058
1.727640
-2.055292
-0.971578
-1.897758
6.505709
-6.996233
-9.714916
-0.113344
-0.675178
-0.837746
-1.787964
1.148538
-0.583433
0.481434
-0.290597
-17.084357
-1.391997
-0.893840
1.323005
4.229401
-1.378544
-4.047380
-1.481160
-0.662445
-0.461003
0.830791
-0.104313
-3.356745
0.031719
-0.451086
-0.127088
-0.016530
-1.396573
-0.155338
0.818585
-0.850358
-4.655312
10.804880
3.406350
-1.738491
-0.578685
0.574669
7.167879
-2.707115
-1.856194
-2.319603
-0.555371
2.225103
-9.430946
-1.667194
1.984785
2.129791
-1.145950
8.950060
5.767173
-0.962703
-1.100264
0.139211
-0.922979
8.547178
-0.970449
-0.897657
0.706379
0.000446
-0.448138
-0.130344
0.241831
-1.442559
8.050853
-17.276201
-10.956789
-1.811626
0.442257
0.128325
-7.755557
-15.502762
-0.446926
-6.556718
0.669634
9.993947
-8.698300
-0.145638
6.652164
-9.296519
1.611072
-16.013075
3.413183
-1.514494
-1.528543
0.102195
0.727687
5.664851
-0.171540
-0.801060
0.461441
0.845015
-1.182725
-1.099675
-0.523946
-1.597161
8.627503
3.239553
-11.365866
-3.048555
0.172144
-0.541431
-5.152476
-0.695995
-3.102455
-10.286501
-0.898320
4.082679
-2.596718
-2.610176
-3.941145
9.785956
-0.617637
7.414767
17.918630
-5.968027
-6.183661
0.980760
0.297126
-12.228194
0.457335
-3.492337
-0.099236
0.508946
-4.678506
-1.146128
-0.435502
-6.136709
2.235423
7.048924
9.080059
-6.383307
-0.499839
-0.554928
-10.461767
7.990672
-5.898439
-7.412524
-0.692376
11.260808
0.996993
-5.385087
4.541273
2.950562
-3.715062
11.904996
-5.225802
-3.004649
-2.293747
-0.529685
0.718610
7.997028
0.363657
0.184331
0.448531
0.887447
-1.130382
-0.534269
0.493181
-2.725492
0.768077
-0.212104
3.327286
-1.583888
0.743897
0.247434
-3.966113
11.564227
-1.726349
5.306756
0.406855
-2.439604
-2.202261
-2.828342
4.550069
3.522775
-1.199225
-5.933037
2.698081
-3.506416
-2.793535
-0.789026
0.360251
-0.080987
0.673666
1.011802
0.512780
0.443877
-2.733301
-0.943860
-0.303008
-3.204638
6.713516
-6.648145
-2.970531
-3.129357
-0.361906
0.930409
10.121606
-4.687511
-2.173611
-3.076706
-0.949402
5.703048
0.595859
-2.972848
0.010432
3.729406
-2.138201
-3.681643
14.419964
-2.178068
-2.563905
0.404130
0.594085
-7.158051
-0.076636
-2.915095
0.374258
-0.002206
-2.061319
0.237303
-0.869800
-3.968340
3.537732
0.805900
0.375702
-2.434872
-0.556653
-0.334920
-1.397742
-0.466452
-3.384910
24.921587
0.392456
5.780426
-0.961877
-2.671144
6.939754
-22.662358
-2.511678
-10.582936
-1.524867
-0.608395
-0.728386
0.375267
-0.541500
-2.794207
-0.247148
-0.673908
0.974046
-0.564237
1.867590
-0.951317
-0.828254
-2.046995
0.121388
10.419976
0.010119
-0.592259
-0.160397
0.488461
-5.124599
-2.376739
-1.276923
-2.580845
0.476356
-11.325090
-0.219990
-0.835457
1.351706
1.478009
-1.191676
-3.459935
