0.459140
0.368695
-0.119718
0.654376
-0.297941
0.565024
0.031062
-0.257624
-0.027806
0.165778
-0.056716
0.017471
0.707309
0.937274
-0.859507
-0.684919
0.708175
0.850719
-0.766925
0.734629
-0.722477
0.760977
-0.108216
-0.572195
-0.386308
-0.276292
-0.807065
0.574473
-0.891280
0.605513
0.369066
0.567859
-0.025791
-0.750653
0.222235
0.676268
0.814371
-0.746703
-0.581356
-0.213435
0.419075
0.361928
0.804036
0.126384
0.299202
0.944529
0.441465
0.007377
0.795247
0.674540
-0.257993
-0.927230
0.435517
0.633791
-0.499426
-0.950791
-0.642501
-0.306491
0.623682
-0.533781
-0.700977
-0.007252
-0.965921
0.273231
0.242096
0.256314
-0.050501
0.056467
0.509611
0.368144
0.843032
-0.071314
-0.269928
0.647068
-0.944930
-0.970726
0.591596
0.496535
0.036652
0.386844
0.171075
0.778658
0.459613
-0.393408
0.412449
0.960188
-0.344199
0.769948
-0.346303
-0.720516
-0.763833
-0.047280
0.272232
-0.729754
-0.774049
-0.485673
0.526559
0.175451
0.570794
0.036170
-0.456406
0.413827
0.964856
0.273666
0.060894
-0.980074
0.302941
-0.347509
0.516460
-0.660408
-0.960666
-0.312465
-0.881750
0.498948
0.294128
0.530699
0.459136
0.949929
0.300647
-0.887167
-0.770587
0.536815
0.065553
0.501644
0.807060
0.291504
-0.984028
0.333620
-0.533045
0.586766
-0.630210
0.010550
0.000593
-0.665355
-0.715784
-0.938513
-0.645429
0.587157
-0.286022
0.871031
0.926749
-0.246688
-0.441433
-0.955001
-0.747740
0.852694
0.575699
0.711395
0.802623
-0.123654
0.824228
-0.967964
-0.586839
-0.110219
0.533680
-0.779779
-0.818714
0.549652
0.553841
-0.351759
0.136418
0.923630
0.658791
-0.862989
-0.741724
0.943007
-0.801502
-0.387153
0.530163
-0.087524
-0.516122
0.456912
0.665788
0.042444
0.501912
0.918048
-0.104861
0.077610
0.629443
-0.302238
0.953956
0.453671
-0.270203
-0.632883
-0.656547
-0.736523
-0.412662
-0.475262
0.813129
-0.858822
0.172979
-0.050453
-0.935192
-0.168230
0.086558
-0.676916
-0.225224
0.285056
-0.064070
-0.695060
-0.802468
0.419808
0.761852
0.863320
-0.537747
0.263764
0.781368
0.357392
-0.658626
0.410811
-0.944847
-0.704670
-0.135517
-0.215050
-0.337553
0.207935
0.048428
0.249785
0.732673
-0.138443
0.390963
-0.094347
0.811104
0.455771
0.737422
-0.102337
0.778855
-0.487801
-0.817281
-0.285215
-0.182861
-0.619748
-0.865406
-0.421009
-0.756428
-0.403153
0.842755
-0.975060
0.954238
-0.815871
0.435752
-0.990609
-0.520540
-0.699766
-0.205658
0.141907
0.508169
0.842770
-0.608309
0.240843
-0.295673
0.782654
-0.853505
-0.484569
0.238425
0.883917
0.413094
0.017279
-0.603884
0.595813
0.732064
0.213255
0.976064
0.866658
0.792246
-0.780363
-0.536495
0.635001
-0.755423
-0.582257
0.819131
0.680328
-0.572866
-0.701410
0.980562
0.221476
0.440497
0.488732
0.064245
0.832188
-0.270426
0.768572
0.614842
-0.123931
-0.715997
-0.146734
-0.240013
0.697096
0.870545
0.156103
0.292909
0.602610
-0.630642
0.268974
0.469268
-0.838396
0.488610
0.932772
0.796606
0.733187
-0.649485
0.615736
0.413515
-0.222351
0.914326
0.394078
0.999124
0.354823
-0.117191
0.063370
0.187011
0.612384
-0.168058
-0.198148
-0.511547
0.115944
0.655118
0.248440
-0.186959
0.525664
-0.595457
-0.894050
0.128273
-0.226099
0.374924
-0.402459
-0.064494
-0.136466
-0.469687
-0.267889
-0.403279
-0.119172
-0.652152
-0.989763
0.658476
-0.737826
0.404315
0.657601
0.616997
-0.712876
-0.279029
-0.195992
0.899508
0.552912
0.605860
-0.612039
-0.331143
0.260978
0.636401
0.481898
-0.213358
-0.959056
0.587848
0.914915
-0.185155
-0.037228
-0.487544
0.750351
0.826306
0.042769
-0.517538
-0.576972
0.923597
-0.169690
-0.566735
0.582073
0.092483
0.837579
0.239674
-0.290520
-0.875296
0.960644
0.513488
-0.975788
0.513556
0.119348
-0.587828
-0.817587
-0.619673
-0.951427
0.664311
0.166969
-0.910483
0.252158
0.081884
-0.095638
-0.785070
0.594340
-0.345287
-0.958763
-0.362891
0.137175
-0.535735
-0.439294
0.967484
-0.102471
-0.857222
0.059968
-0.264891
0.382452
0.769448
-0.140188
0.343096
0.282936
-0.115976
-0.143348
-0.597716
0.296196
0.039065
-0.217389
0.344770
-0.296624
0.949580
0.434287
0.955534
0.031464
-0.661351
-0.829535
-0.374196
-0.006639
-0.788299
0.262913
-0.869464
-0.324034
0.823618
-0.901979
0.573495
0.966397
0.157989
-0.691396
0.348849
-0.072563
0.168416
-0.308055
-0.789627
-0.947560
0.548597
-0.387343
0.348637
-0.412338
0.395268
-0.306594
0.291038
0.344848
-0.872307
0.246572
-0.623689
-0.533659
0.417037
0.002115
0.459703
0.628738
-0.734973
0.590239
-0.695296
-0.911354
0.688260
0.878200
-0.944958
-0.153752
-0.813196
0.403891
0.773685
0.355220
-0.904164
0.984058
0.407660
0.644433
-0.403285
-0.243703
-0.767905
0.991983
0.449703
0.523133
0.336831
0.577395
-0.230294
0.713142
-0.956263
-0.813257
-0.284743
0.503439
0.815481
-0.019716
0.093678
-0.879814
0.068930
-0.218062
0.998385
0.123973
0.628186
-0.814811
-0.472136
0.401871
0.540409
-0.376300
0.385930
-0.051931
-0.731867
0.982645
0.704366
-0.499772
0.974628
0.154069
-0.976639
0.311459
-0.268536
-0.206933
0.024602
-0.224799
-0.020190
0.739859
-0.721360
-0.204709
-0.279857
0.372318
-0.084523
0.789073
-0.845744
-0.086137
-0.086954
0.782443
0.099052
0.440909
0.184314
-0.360539
-0.935391
-0.429756
0.587530
-0.667258
-0.447112
0.291896
-0.167030
-0.472483
-0.554035
-0.143669
0.838976
0.177429
0.649399
-0.136422
0.952630
-0.370791
-0.396563
-0.768730
0.424500
0.323580
0.603588
-0.660023
0.112653
0.757844
0.253840
-0.974301
0.540287
-0.647109
0.466608
-0.275399
-0.007648
0.531217
0.294844
-0.420118
0.863959
0.847733
0.871778
-0.303071
-0.624750
-0.682257
0.553261
-0.785774
0.495172
0.202659
0.077804
0.447802
0.831868
0.681241
0.679072
0.256368
0.004820
0.282660
0.596345
-0.882527
0.040504
-0.149815
-0.856828
-0.419209
0.203076
0.609780
0.305392
-0.804572
0.140997
-0.399764
-0.224689
0.004956
-0.552031
-0.352911
0.701885
-0.176782
-0.035168
0.255146
0.037444
-0.539995
-0.542195
-0.884752
0.907807
-0.710327
0.796489
0.586879
0.546041
-0.198691
-0.130461
0.142386
-0.081218
0.910043
0.992571
0.061954
-0.509167
0.195647
-0.328266
0.796225
0.391075
0.812731
-0.603539
-0.833614
-0.182312
-0.155571
-0.186525
-0.480427
0.667648
0.778307
0.774719
-0.294908
-0.761688
-0.767476
-0.179660
-0.853881
-0.477803
-0.383172
0.732998
-0.931762
0.418137
-0.397464
0.210624
-0.663081
-0.487421
0.203195
0.398874
0.003412
-0.601158
-0.929392
-0.200363
0.789917
0.883339
0.196098
0.956302
-0.298973
-0.959473
-0.230223
0.220600
0.708175
-0.451916
-0.004681
-0.586733
-0.213604
0.227843
0.233606
-0.067485
0.750040
0.850434
-0.334488
0.818278
0.268572
0.268048
0.028902
0.605491
0.780627
-0.767903
0.004365
-0.215961
-0.369061
0.074973
0.583676
-0.579144
-0.041688
-0.220226
-0.622842
0.659339
-0.179698
0.146935
-0.120061
-0.471523
0.695019
0.875258
-0.058257
-0.518585
0.103101
-0.824651
0.413930
-0.146859
-0.974216
-0.920558
-0.328581
0.294355
0.347490
0.700321
-0.100154
0.128117
0.932418
0.904211
0.912157
-0.436643
-0.020816
0.495833
-0.015787
0.937496
-0.724393
0.361371
0.596835
0.095908
-0.491694
-0.523226
0.624385
-0.796675
-0.647968
-0.433872
-0.315260
0.455132
-0.258523
-0.901330
-0.691727
-0.232739
-0.821888
-0.020308
-0.938383
0.525602
-0.319988
-0.038537
-0.346280
-0.387569
-0.134326
-0.434124
0.175788
0.844858
-0.938291
-0.840000
0.782354
-0.662684
0.521371
0.379189
0.433224
-0.970323
0.855963
0.057609
-0.766998
-0.792005
0.623737
-0.082258
0.663128
-0.634785
0.016411
0.971401
0.132476
0.194523
-0.048908
0.194093
-0.279875
0.631105
-0.844444
0.373845
-0.756465
0.021230
0.939721
0.419323
-0.133912
-0.998570
0.579324
-0.351558
-0.661254
0.100695
-0.972368
0.771970
0.130372
0.883595
-0.170421
0.363373
-0.908410
-0.546683
-0.718885
0.754718
-0.181468
0.297526
0.726118
0.951008
-0.507951
-0.322789
0.145100
0.212174
-0.691685
0.300656
-0.413981
-0.448149
-0.678115
-0.474260
0.971174
0.187973
-0.472830
0.550497
0.836416
-0.134085
-0.348808
0.864047
-0.362115
0.781564
0.747642
0.467465
0.144937
0.839232
0.920781
0.426052
0.593950
-0.260687
-0.276422
0.320068
-0.309679
0.215627
0.997279
0.835421
-0.572199
-0.694405
0.136077
0.013820
-0.142555
0.457962
0.539559
-0.171381
-0.354065
-0.933271
-0.620884
-0.517649
-0.067356
0.030308
-0.653602
0.570530
-0.188128
-0.905960
0.037994
0.956809
0.933272
-0.041224
0.382861
0.527222
0.698089
-0.893561
-0.152709
-0.611590
0.322066
-0.155430
-0.776169
0.749867
0.150164
0.359907
-0.236314
-0.992391
-0.182131
-0.696754
-0.163772
0.463805
-0.630025
0.215345
0.946156
0.302619
-0.754347
-0.707446
-0.126851
0.057525
-0.613406
0.911143
0.014334
-0.680134
-0.130081
-0.602805
0.847088
-0.431992
-0.496367
-0.305622
-0.043582
0.825699
0.538948
0.180248
0.575566
-0.310888
-0.459844
-0.660748
-0.303278
0.358025
-0.357502
0.532950
-0.178170
0.012473
-0.251705
-0.232014
-0.684908
0.060540
0.188241
-0.948528
0.447133
0.099384
0.065806
0.766999
0.969303
0.463001
0.614087
-0.462689
0.966634
-0.691535
0.493728
0.792333
0.847413
-0.326023
0.367899
-0.463474
0.214132
0.707151
0.233247
-0.427842
-0.650351
-0.233802
0.393988
0.362122
0.514492
-0.838027
0.677214
-0.491560
0.222513
-0.134545
-0.440087
-0.330354
0.964839
0.625719
-0.563355
0.934142
0.088719
-0.949268
-0.528547
0.055353
-0.640802
0.965182
-0.152314
-0.793389
-0.360842
-0.784415
-0.256863
0.853291
0.922736
0.976384
-0.574552
-0.727614
-0.257418
0.819436
0.634508
-0.742926
0.981409
0.311723
-0.234486
0.203922
-0.822822
0.325427
0.873568
-0.857983
-0.048855
-0.689787
-0.923840
-0.960135
-0.639054
-0.452387
0.095218
-0.279857
-0.487206
0.942904
-0.073246
0.151952
-0.841510
0.669891
0.005243
-0.918774
0.646275
0.430691
-0.646388
-0.611143
0.250127
0.988120
-0.354069
0.231536
0.299842
0.411445
-0.564542
0.477020
-0.263128
-0.690974
0.619038
0.688017
-0.380760
0.695197
0.727882
-0.019815
-0.757190
-0.176900
0.700328
-0.244396
-0.233996
-0.372917
0.907557
-0.075506
-0.703026
-0.087200
0.005720
0.943249
-0.656509
0.359331
-0.667894
0.593618
0.347451
-0.021963
-0.174846
-0.352706
-0.610518
0.260612
-0.875686
0.126354
0.569638
0.743351
-0.185629
-0.811122
0.438549
-0.457746
0.169063
0.681359
0.365354
-0.130609
-0.563037
-0.868642
0.496474
-0.655481
0.055852
0.793448
0.257319
-0.938428
0.736696
0.600810
0.420903
-0.931198
0.194428
-0.231645
0.046839
-0.980418
0.415648
0.436321
0.280194
0.539962
-0.437325
-0.150167
0.283314
0.377046
0.038710
-0.278138
0.919300
-0.792227
-0.596779
0.284654
0.077165
-0.159817
0.416012
-0.426361
0.184703
-0.528136
-0.632914
-0.557978
-0.466564
-0.896217
-0.957168
0.954339
-0.827415
0.237260
-0.277306
0.219424
0.256842
-0.861658
-0.344256
-0.462964
0.678304
0.218419
0.386869
-0.038382
-0.404534
-0.574421
0.683480
-0.485234
-0.366647
-0.913299
0.799419
0.710517
-0.073116
0.215431
-0.715844
-0.888413
0.687295
-0.348758
-0.446392
-0.779269
-0.244976
-0.403560
-0.824930
-0.072391
0.833700
-0.102236
-0.852967
0.090542
0.036106
-0.197223
0.627578
-0.285590
-0.978803
0.014447
0.676028
-0.383338
0.440027
0.359508
0.131428
-0.926621
0.446209
-0.069152
0.783897
-0.626907
-0.853721
-0.931948
-0.515321
0.833574
-0.280706
0.038288
-0.945695
0.474318
0.634728
-0.770624
-0.598073
0.468427
0.127140
-0.451040
-0.441031
-0.836754
0.351737
-0.813453
-0.122343
0.372934
0.200995
-0.446315
0.989597
-0.358979
0.913193
0.121025
-0.285599
0.359402
-0.948128
-0.501703
0.732495
-0.801849
-0.433650
-0.782826
-0.968275
0.285643
0.255462
-0.913969
-0.240038
-0.109811
-0.684594
0.161889
-0.641384
0.442546
0.710849
-0.082415
0.605792
0.062587
0.104133
-0.516552
-0.564479
-0.694873
0.037133
-0.574882
-0.053851
-0.049674
0.546142
0.660550
-0.690272
0.598014
-0.841153
-0.957778
0.796166
-0.274804
-0.740604
0.827891
-0.989160
0.514858
0.913922
-0.229198
-0.594953
-0.770672
0.932691
-0.236336
0.671874
0.643540
0.681249
0.277665
-0.293873
-0.214618
0.761114
0.141648
0.090509
-0.201753
0.566766
-0.963342
0.748573
0.112908
0.697208
-0.941699
-0.289077
0.856055
-0.899477
-0.492912
-0.418749
-0.640081
-0.665021
-0.407909
0.874778
-0.751099
0.362893
-0.720175
-0.521771
0.295583
0.043489
-0.849898
-0.060876
-0.275262
0.427768
0.645251
0.510120
0.188881
-0.213100
-0.399371
0.987128
-0.646334
-0.362713
0.735701
0.466574
-0.665505
0.794002
-0.822503
-0.809450
0.894525
-0.315415
-0.228199
-0.745556
0.019565
0.363891
-0.870778
0.268466
-0.273216
-0.590953
0.746694
-0.977632
0.452536
0.896796
-0.038509
-0.822726
0.324564
-0.393257
0.687394
-0.486555
0.393643
-0.711977
-0.499426
0.747308
-0.074689
-0.763725
0.213883
0.259806
-0.969723
0.391379
0.450355
0.924802
-0.924035
-0.777844
-0.820754
0.095529
0.586048
-0.691532
-0.636005
-0.687168
-0.282485
-0.889311
-0.664801
-0.829949
-0.992514
0.296690
-0.652676
0.332050
0.903433
-0.965282
0.845495
0.297076
-0.677259
-0.653931
0.044384
0.248052
-0.417657
-0.741733
-0.492142
-0.387380
0.649646
0.958213
-0.462578
0.725611
-0.819631
-0.283332
-0.178860
0.766417
0.025136
0.185135
-0.920752
0.742651
0.295825
-0.585553
0.912701
0.303311
0.711138
-0.739974
-0.364640
0.614571
-0.705256
-0.519144
-0.088353
-0.382515
-0.173076
0.956031
0.865537
0.409268
-0.785702
-0.626605
-0.978112
0.863944
-0.668392
-0.440691
0.589555
-0.488023
0.275977
-0.589304
-0.721606
-0.698887
0.595831
-0.642358
-0.956236
-0.108344
-0.227910
0.956465
-0.805033
-0.516773
-0.783509
-0.169673
-0.902202
-0.488766
0.311183
0.009445
0.128720
-0.861893
-0.034523
-0.005743
0.547374
0.179775
0.367652
0.569262
0.043719
0.699260
-0.871429
-0.366726
-0.788763
0.404548
0.043970
-0.510369
0.705661
-0.360199
-0.152727
0.749425
0.531457
0.619363
0.705890
0.726424
-0.897410
0.922380
-0.443249
-0.799612
-0.566385
0.867934
0.209834
0.562334
-0.993960
-0.824689
-0.443409
0.553415
0.355085
0.924243
0.122677
-0.601196
0.623503
0.251248
0.032079
0.834740
-0.344204
-0.923951
-0.675630
-0.638542
-0.284150
0.171643
-0.889117
-0.752693
-0.208994
0.816772
0.973731
-0.106404
0.739153
-0.469518
0.093984
-0.827233
-0.601585
-0.696182
0.735102
-0.595545
-0.520871
-0.708307
0.957870
0.834214
-0.784064
0.080547
-0.766981
0.839439
-0.668205
0.265097
0.674178
-0.012409
0.341146
0.998549
0.349049
-0.943005
0.170192
0.459931
-0.695698
0.961198
0.276704
-0.721967
-0.145206
0.015856
-0.191486
0.948778
0.188624
0.206930
-0.747403
-0.076274
0.611385
-0.268274
0.215419
0.569255
-0.434060
0.431355
-0.350198
-0.201041
0.270794
-0.018404
-0.935944
-0.055028
0.969187
0.405201
-0.056479
0.318236
0.462197
-0.886287
-0.221833
0.766499
-0.925089
-0.945129
-0.955468
-0.070295
0.070727
-0.146954
-0.121517
-0.740649
-0.940024
0.131080
0.183077
0.671361
0.862806
-0.601505
0.240616
-0.571254
0.829850
0.890417
0.227705
0.100644
-0.127986
0.291760
-0.954384
-0.158799
-0.303038
-0.010864
-0.840563
-0.840842
0.102849
-0.062395
0.925657
0.177760
-0.007524
0.970189
-0.892535
-0.936797
-0.176765
-0.014052
-0.677446
-0.116789
-0.882972
0.505631
-0.445428
0.979834
0.904126
0.795188
-0.591420
0.733976
0.685605
0.636285
-0.165380
-0.442381
-0.071955
-0.119764
0.398820
0.625006
0.869372
0.558257
0.784165
-0.027779
-0.504138
0.709822
-0.850019
0.488338
0.680011
-0.742554
0.551541
-0.496754
0.243394
0.874095
0.386457
0.360422
0.379726
0.941029
0.340256
0.283852
0.736217
0.748836
0.017828
0.421822
0.385121
0.852448
0.979441
-0.686834
-0.267317
0.378261
0.938172
-0.397945
-0.063482
0.722337
0.574276
0.432380
0.432159
0.724257
-0.079282
0.112169
0.981703
-0.527740
0.615415
0.225097
-0.653645
0.001873
-0.414481
0.726081
-0.057098
0.925775
0.009933
-0.320882
0.674612
-0.972239
-0.899060
0.059733
0.880209
-0.919620
0.372898
-0.387107
0.458641
0.311070
0.214948
-0.604841
0.033407
-0.210776
0.827539
-0.534434
-0.486518
-0.251742
0.577735
-0.504815
0.220518
0.193151
0.720282
0.566873
-0.804977
-0.694199
0.292954
0.137925
-0.768424
-0.697112
0.817043
0.906188
-0.669351
0.917983
-0.034080
-0.789142
0.998363
-0.661181
-0.176249
0.457004
0.649889
-0.961301
0.852163
-0.316704
-0.172077
0.679702
0.148862
0.341404
-0.572040
-0.273403
0.836589
0.648478
0.919748
0.556871
0.215351
-0.885229
0.862672
-0.491695
0.252696
-0.905752
-0.188808
0.069739
-0.999564
0.141841
-0.012278
-0.033643
0.352700
-0.013915
0.305175
-0.823550
-0.556911
-0.044935
-0.784851
-0.704748
0.638361
0.043072
0.974954
-0.212777
-0.615524
-0.597085
0.513820
-0.778934
-0.948608
0.433568
0.777937
0.266743
0.548339
0.640609
0.775048
-0.198965
0.734857
-0.413759
0.870774
0.735293
0.728082
-0.141504
-0.298350
0.080782
0.844581
-0.993175
0.257232
-0.712330
-0.038110
0.472381
-0.417079
-0.399749
-0.484547
-0.442124
0.387474
-0.100070
-0.039209
-0.098706
0.120995
0.012183
-0.665137
-0.101068
-0.721074
0.883202
-0.460459
-0.946026
-0.315763
-0.725602
-0.359785
-0.444988
-0.990309
-0.631703
0.413507
-0.288660
0.449078
0.258088
-0.281834
-0.293690
0.545758
0.680056
-0.821308
-0.871321
-0.719694
-0.305855
-0.313445
0.667780
0.594074
0.647346
-0.430925
-0.284930
-0.340471
-0.096063
0.614002
-0.061545
-0.212861
-0.846458
-0.007571
0.471377
-0.572060
0.632644
-0.973612
-0.562370
-0.999060
0.439896
0.148971
0.450019
-0.302016
0.867137
-0.843671
-0.756259
0.547192
-0.664979
-0.627579
0.827499
0.029166
0.058976
0.495279
-0.376760
-0.293679
-0.935646
0.338310
0.365850
-0.031709
-0.047689
-0.695695
0.755431
0.105853
0.296734
0.226807
0.533793
-0.070623
0.253195
0.971423
-0.069682
-0.306909
0.120394
-0.619663
0.391075
-0.012469
-0.463334
0.634816
-0.465277
-0.128313
-0.992763
-0.637779
0.900853
0.066212
0.857500
-0.475907
0.772533
0.921854
0.862403
0.138383
-0.109855
-0.185286
0.442688
0.920567
-0.260579
0.872383
0.454360
0.668799
0.125578
0.425784
-0.400884
0.818669
-0.453822
-0.020547
0.209744
0.533709
0.516119
-0.155440
-0.931568
-0.612194
-0.148203
-0.569347
-0.711341
0.918009
-0.711847
-0.187248
0.690542
-0.789992
-0.324846
-0.171074
0.100153
0.489868
-0.728387
0.745729
0.410435
0.011035
0.618112
-0.135205
-0.320167
-0.256309
-0.709421
0.278949
-0.437640
-0.163244
-0.741598
0.772104
-0.629535
0.774521
-0.383336
-0.561103
-0.837673
0.468461
-0.130450
-0.549014
0.386469
0.157703
0.263737
0.077012
0.367711
0.938891
0.905937
-0.532136
0.428759
-0.822449
-0.786407
-0.160806
0.188585
0.831706
0.703989
0.868418
-0.424604
0.994568
0.147368
0.137756
-0.168676
0.405770
-0.090140
0.201789
0.180291
0.526524
0.640686
0.342618
-0.005015
-0.489765
0.793604
-0.618546
0.667939
0.057341
0.458466
0.035649
-0.003768
0.364403
0.503514
-0.575009
0.541954
0.717107
0.264185
-0.269461
0.548812
-0.031826
-0.401043
-0.875791
-0.037258
0.746325
0.261965
0.794066
0.152095
-0.828175
-0.004145
-0.667614
0.698349
-0.363459
0.675004
-0.306666
0.146776
0.468608
0.074788
-0.185285
-0.474052
-0.466747
0.850364
0.522180
0.897656
0.353878
0.947171
0.439610
0.070984
0.211356
-0.829852
-0.380203
-0.820470
-0.230894
-0.255994
0.142272
-0.484569
-0.994030
-0.063662
0.667526
-0.822205
0.932193
0.999912
0.876145
-0.431266
0.674916
-0.430522
0.715510
0.143523
0.644266
-0.469776
0.669472
-0.822481
-0.619412
0.191652
-0.924825
0.734466
0.138823
0.514785
-0.194550
-0.649821
0.684933
0.425247
-0.470290
-0.545961
-0.830748
0.671982
-0.030530
-0.824777
-0.391680
-0.363005
-0.646982
-0.459487
-0.363093
-0.770837
0.109246
-0.688177
-0.201359
-0.175244
0.455346
-0.557093
0.354980
0.124818
-0.379574
0.735568
-0.683530
-0.304399
0.470034
0.455293
-0.789614
-0.724516
0.805473
0.895320
0.700731
-0.664818
-0.650641
0.869983
-0.992836
0.318828
-0.954794
-0.384516
0.955824
-0.601776
0.155996
-0.407269
-0.372613
-0.734758
-0.095447
0.426028
0.089998
-0.640101
0.868935
-0.555022
0.484717
-0.510639
-0.819454
0.801187
0.184963
0.650579
0.256481
0.395349
0.926063
0.061953
0.290669
0.626794
0.397135
0.640028
0.496776
0.404299
-0.041144
0.541982
-0.980217
-0.085320
0.940206
0.175779
0.507410
-0.432407
0.441021
-0.588036
0.993621
-0.468981
-0.228137
0.862557
-0.024003
-0.743419
-0.648082
0.156543
-0.942232
0.536881
-0.192878
0.314249
-0.067770
-0.266815
-0.623798
-0.777101
-0.640021
0.773337
0.862927
0.856755
0.177636
-0.178216
0.398737
0.197419
0.736464
0.338944
-0.626802
0.243874
0.906537
0.814219
0.655838
0.900158
-0.654762
-0.572299
0.762715
0.321235
-0.315719
-0.885367
-0.522222
-0.257951
0.651514
0.284900
-0.943702
-0.416256
-0.981915
-0.567500
-0.193356
-0.621936
-0.794163
-0.330429
-0.765181
0.383473
0.491354
0.633556
-0.419108
0.227818
-0.027500
-0.045910
-0.528308
-0.120963
-0.231691
-0.872470
-0.220805
0.113547
-0.444770
-0.458090
-0.565217
0.239512
-0.343456
-0.087439
0.981561
-0.691942
-0.802539
-0.962141
-0.108198
-0.784454
-0.529641
0.698446
-0.406390
-0.323804
-0.631984
-0.171572
-0.940331
0.859371
-0.538015
-0.359439
0.087189
0.434485
0.594651
0.558881
-0.686479
-0.637041
0.686410
0.092717
0.476507
-0.758359
0.634627
0.911289
0.481153
-0.708830
-0.176150
0.462714
-0.400772
0.021311
0.500573
0.491030
0.236856
0.970932
0.189476
0.830466
-0.352872
0.557492
-0.341106
-0.293203
0.416863
0.120879
0.347358
-0.495948
-0.444637
-0.057992
-0.937067
-0.131115
0.304968
0.749343
0.961601
-0.218525
0.990984
0.596228
-0.307236
0.472136
0.887399
0.516614
-0.065150
-0.513373
-0.462075
-0.564577
0.977657
0.774781
-0.593644
0.167132
0.605247
0.053484
-0.275376
-0.735859
0.760281
-0.858513
0.385019
0.107639
-0.354461
0.940383
-0.950353
-0.291528
-0.190733
0.354615
-0.542186
-0.229131
-0.863911
-0.551202
-0.632903
-0.171146
0.920934
-0.745504
-0.654533
-0.144216
-0.258878
-0.116608
0.291207
-0.281221
-0.341827
0.697563
0.885911
-0.736581
-0.248953
-0.389465
-0.472440
-0.488672
-0.247978
0.912579
0.618966
0.397562
0.852962
0.668613
-0.893967
-0.337770
0.023228
-0.436152
0.433098
0.159318
0.012646
0.800195
0.988171
-0.066420
-0.945309
-0.666361
0.789364
-0.204187
0.217031
0.080571
0.514592
0.875203
-0.221866
0.400503
-0.861377
0.529181
-0.988962
-0.333817
-0.959492
-0.236940
-0.421238
0.659475
-0.839378
-0.568276
0.328088
-0.733345
0.093954
-0.648684
-0.169497
-0.472948
0.510634
0.843148
-0.672752
0.498805
-0.223272
-0.618061
0.832444
-0.433908
0.177752
0.049475
0.646664
-0.307657
-0.075322
-0.575202
-0.907154
0.063301
0.953979
-0.896116
0.729483
0.994487
-0.133055
-0.691755
0.653962
0.027567
-0.260030
-0.017950
0.294222
0.833923
0.333366
-0.875276
-0.639024
-0.156000
0.967873
-0.311777
-0.657195
-0.255399
0.070162
-0.824751
0.310693
-0.752086
0.224724
-0.042643
-0.059743
-0.850598
0.382155
0.033103
0.212703
0.336134
0.136988
-0.057814
0.330621
-0.996068
0.250432
-0.015417
0.031499
0.990401
0.966633
-0.674280
0.824325
0.299999
-0.549555
-0.814699
-0.856000
-0.581682
-0.126476
-0.513195
0.162919
0.943686
-0.337946
-0.526388
-0.808400
0.886778
0.430969
0.131857
-0.963820
-0.186875
-0.835040
0.248883
-0.850741
0.301948
-0.808930
0.479880
0.305880
0.441501
-0.535537
-0.662621
0.431903
-0.568904
-0.336901
0.256227
0.731096
0.113544
0.441528
0.875095
0.531862
-0.684948
-0.638100
-0.305220
-0.741262
0.023955
0.168392
-0.549662
-0.089267
-0.400638
0.582195
-0.053086
0.412487
0.747155
-0.804203
0.561745
0.049103
-0.613133
0.041625
-0.645017
0.828368
0.506089
-0.307639
0.260271
0.937185
0.355461
-0.483502
0.668281
-0.530995
0.958026
0.543376
-0.999134
-0.726922
0.905276
-0.304354
-0.468184
-0.070769
0.864039
-0.017846
0.839964
-0.536599
-0.435651
-0.213122
0.875887
-0.688496
-0.017325
0.437633
0.360607
0.369541
-0.520742
0.715590
0.197909
0.985347
-0.592049
-0.541821
0.922532
0.763412
-0.025323
0.590813
-0.767583
-0.067297
0.134189
-0.766717
0.205781
0.039465
-0.071071
0.737598
0.968697
-0.207032
-0.280248
0.808661
0.256369
0.284101
-0.404461
0.132256
0.595605
0.578213
-0.430112
-0.043787
-0.052246
0.049147
-0.328197
-0.854337
0.034493
0.079754
-0.396157
-0.042975
-0.156834
0.578520
-0.452162
0.075583
-0.488776
0.682027
0.308866
0.717005
-0.278508
-0.762205
0.454603
-0.309811
0.030763
-0.825645
-0.501150
-0.712869
0.458456
0.094388
0.419387
0.054061
-0.327398
0.989276
-0.989726
0.620356
0.038422
-0.317923
0.766019
-0.927084
0.761831
-0.630138
0.029941
-0.395003
0.948382
0.577779
0.680580
-0.540394
0.259806
-0.010555
-0.823389
0.981298
0.227240
0.631214
-0.328513
-0.741997
0.805569
0.170337
-0.454866
0.264025
-0.735274
0.964521
-0.681914
-0.062673
0.953797
-0.671640
-0.442317
-0.007781
0.010437
-0.676297
0.065135
-0.227733
-0.306435
-0.904924
0.377264
-0.358053
0.672855
0.057844
0.101553
-0.067340
-0.952710
0.278163
-0.086041
0.274530
-0.090623
0.585446
0.532533
-0.285054
-0.244217
-0.922333
0.978970
0.020509
-0.957811
-0.702944
0.957837
0.995986
-0.374584
-0.484480
-0.011795
0.635853
-0.160777
-0.946660
-0.591880
0.532787
-0.851585
0.785385
-0.825266
0.821270
-0.156771
0.276287
-0.246070
-0.109481
-0.445550
0.667889
-0.834951
0.463827
0.253335
0.697582
-0.821227
-0.990881
0.775249
-0.842257
0.029628
0.817437
-0.545200
-0.012535
0.813423
0.080216
0.502985
-0.198372
-0.283931
-0.657792
-0.145032
0.124189
0.874995
0.003384
-0.090426
-0.950271
-0.175346
0.752803
0.326016
0.578584
-0.356679
0.880467
0.246473
-0.191630
0.344294
-0.500192
-0.494049
0.523067
-0.491073
-0.718800
0.680811
0.538555
-0.901362
-0.864390
-0.473980
0.912061
0.215826
-0.970995
-0.286311
0.931894
-0.628788
0.568657
0.056083
-0.753793
-0.427959
0.965657
-0.704063
0.396694
0.718460
0.621953
-0.024722
-0.638219
0.502420
-0.778249
0.170151
-0.153286
-0.278440
0.676102
-0.630219
0.230487
0.957302
-0.949408
-0.230958
-0.944060
-0.813798
0.295061
0.968001
0.402028
0.324066
-0.318310
0.333923
0.695278
-0.749653
-0.609994
0.941486
-0.177612
-0.644337
-0.762577
-0.780918
-0.925878
0.859376
0.194361
-0.564097
0.361796
0.416112
0.606054
-0.791490
-0.862328
0.282156
-0.421708
0.368159
0.239459
-0.371116
-0.862800
0.295399
-0.184914
0.432262
0.263400
-0.782886
-0.243672
0.945090
0.551037
-0.548394
-0.804563
0.941042
-0.606908
0.017825
-0.703295
-0.369485
0.236907
-0.629172
-0.510109
-0.568732
-0.193269
0.851687
0.847380
-0.587215
-0.939803
0.985052
0.694942
-0.361512
0.353210
-0.065600
0.267372
0.490411
-0.770201
-0.917542
-0.077327
0.493199
-0.700428
0.679001
0.438288
0.850608
-0.869393
0.633725
0.791651
-0.476301
-0.348450
-0.911644
0.154214
0.888457
-0.540816
0.644104
-0.680275
0.265915
0.495791
-0.832896
0.678701
0.555988
-0.847844
0.373642
-0.805524
0.505366
-0.691957
0.461848
-0.004223
-0.462158
0.918450
-0.968960
0.843878
0.597451
0.469329
0.694487
0.728058
0.103054
0.486137
-0.748243
0.754604
0.574494
0.405971
0.643060
-0.966322
0.050075
0.962785
0.299593
-0.454134
-0.870111
-0.021706
-0.898146
-0.717955
-0.648064
-0.703670
0.787412
-0.340021
0.758179
-0.216811
0.197821
0.302485
-0.298361
0.228861
0.146363
-0.700909
-0.301810
-0.159150
-0.972851
0.801243
-0.673013
-0.721094
0.555847
0.901481
0.684876
0.198908
0.935159
-0.265049
0.161693
0.234752
0.280817
0.291582
-0.786954
0.382671
0.573627
-0.435018
0.679002
0.361039
0.224961
0.437181
-0.855772
-0.577219
-0.260334
-0.154132
0.651642
0.886029
0.144958
-0.650168
-0.273121
0.172107
-0.848925
0.053866
0.451013
0.706923
-0.044653
0.135889
-0.094170
-0.109494
0.870840
-0.932477
-0.874742
0.151657
0.359105
-0.661697
-0.465671
-0.067268
-0.096715
-0.786670
-0.706229
-0.871754
0.650511
-0.562001
-0.448973
-0.609823
0.283867
-0.797330
-0.723794
-0.571175
-0.447498
0.003085
0.600932
-0.296423
-0.943049
0.051945
-0.589500
0.012298
-0.812167
0.316330
0.902804
-0.941327
0.383852
-0.971939
0.210330
-0.257043
-0.633636
0.744659
0.675689
0.269650
0.957989
0.969459
0.397895
0.608500
-0.592542
0.948923
0.998677
0.691325
-0.848408
-0.725117
-0.879850
-0.295906
0.277968
0.721082
0.407671
0.334919
-0.226973
0.818171
-0.652783
-0.039140
0.134500
-0.749979
0.019533
-0.481647
-0.721918
-0.770136
0.261310
-0.355553
0.974523
-0.063002
0.914096
0.932512
-0.093542
0.311992
0.541013
0.313916
0.260915
0.539690
0.005242
0.412507
0.814574
0.125392
-0.883399
0.092542
-0.153526
0.524272
-0.572539
0.619501
0.342443
-0.225321
-0.419638
-0.523057
0.024700
0.599895
-0.004704
0.302782
0.829759
-0.743394
0.947229
0.804282
0.193604
0.861325
0.736794
-0.899938
0.173317
0.277807
0.413978
-0.565768
-0.182503
-0.580780
0.846739
-0.367929
0.544612
0.963339
0.724612
-0.608914
0.487611
-0.847926
-0.989413
-0.169946
-0.073247
-0.409051
0.306997
0.951453
-0.809156
-0.697707
0.254235
-0.979397
-0.441102
0.201464
0.824885
0.752502
0.062789
0.561679
0.852564
-0.763894
-0.160514
0.266542
-0.329662
0.656983
0.685762
-0.482923
-0.710946
0.230373
-0.519584
-0.986334
0.621459
0.968027
-0.834260
0.632047
-0.201919
0.092493
-0.777004
-0.894922
0.043945
-0.586160
-0.592630
-0.701820
-0.565557
-0.033732
0.499644
-0.740672
-0.281229
-0.437567
0.821008
-0.428665
-0.201461
-0.339506
0.837877
0.468877
-0.682523
0.523639
0.985954
-0.393470
-0.245988
-0.533630
-0.379803
-0.624529
-0.565603
-0.214063
-0.992482
0.232478
0.878429
-0.769486
0.337556
-0.077626
-0.355646
0.744926
0.220554
0.078797
-0.288806
-0.279802
0.338126
0.429965
0.282631
0.159133
-0.998701
-0.918830
0.819627
0.839176
0.550048
-0.862897
0.362815
0.536001
-0.256366
-0.883173
-0.997629
0.363830
-0.507702
-0.563232
-0.850233
-0.500184
0.669246
-0.971804
-0.269670
0.006801
-0.049430
0.374685
-0.248273
-0.828876
-0.546518
0.462922
-0.108678
0.791607
-0.107114
-0.826047
-0.049260
-0.105814
-0.744876
-0.229633
-0.266638
0.805171
-0.092530
-0.903823
0.341172
0.651104
-0.786997
0.343543
0.014934
-0.294699
0.780311
0.164701
0.205118
0.449557
0.192897
0.935448
-0.543641
-0.856533
0.310133
0.208086
-0.685408
0.763615
-0.328992
0.205914
0.555222
0.563894
0.379868
-0.494038
-0.541920
0.634991
0.276329
0.191442
0.440163
-0.816201
0.287618
-0.218665
0.834903
0.500621
-0.875121
-0.150162
-0.794077
0.905190
-0.985461
0.411041
0.354747
0.207436
0.346489
0.811106
0.350904
-0.343378
0.019192
0.665496
-0.579764
0.690199
-0.128590
0.975458
0.254093
-0.748722
-0.518580
0.712173
0.886269
0.757749
-0.096386
0.326432
0.941548
-0.808768
-0.892233
0.776452
0.691854
-0.767355
-0.373710
0.897777
-0.862165
-0.359171
0.308817
0.492582
0.848265
-0.344694
0.303688
0.199169
0.311927
-0.677120
-0.135335
0.732163
-0.986921
0.736075
0.707621
0.267173
0.987352
-0.810959
-0.020655
0.873621
0.946790
0.882960
0.200053
0.888339
-0.925808
0.307820
0.664791
0.766046
0.540465
-0.708920
0.663823
0.678300
-0.068091
-0.027360
0.170883
-0.219826
0.627945
-0.525429
0.979343
-0.060127
-0.202549
-0.155992
-0.327964
-0.189470
-0.419918
-0.620342
-0.922297
-0.432565
-0.431301
0.057048
-0.558944
-0.484510
-0.059992
0.641109
-0.596172
0.014200
-0.051071
-0.931381
-0.219754
-0.510606
-0.640301
-0.555931
-0.832305
0.291608
0.416708
0.338577
-0.928218
0.044654
0.813148
-0.948875
0.984527
-0.389401
-0.104867
-0.343437
0.421129
0.475215
0.036221
0.498832
-0.957350
0.604920
-0.444120
-0.516294
-0.879591
0.495888
-0.875184
-0.475762
-0.489912
0.073745
-0.407143
0.290335
0.563139
-0.047444
0.734403
0.730834
-0.755836
0.151112
0.069411
-0.684054
-0.804235
-0.117441
-0.632929
-0.819708
0.493158
0.262204
-0.163145
-0.085713
-0.262581
0.873076
-0.586881
-0.219931
0.477996
-0.031001
0.263775
0.598405
-0.535113
0.388591
-0.877357
-0.025025
-0.537664
-0.284501
-0.734690
-0.974525
0.668055
0.999713
0.756308
0.912218
0.150824
-0.174281
-0.771836
0.346590
0.708278
-0.404765
0.526882
0.201436
0.857439
-0.636263
-0.884277
-0.405143
-0.763188
-0.471159
0.374926
0.714808
0.497840
-0.361298
0.313213
0.962727
-0.972708
0.435856
-0.062298
-0.510372
-0.848645
0.203012
-0.484897
0.819410
0.202725
-0.728589
0.731628
-0.646451
0.097130
0.959793
0.700139
-0.194592
-0.444972
0.227021
-0.993156
-0.587534
0.590757
-0.877433
0.007324
0.827570
-0.348592
-0.617750
0.542378
-0.850752
0.020951
-0.144409
-0.888025
0.048244
-0.708554
0.049677
0.537872
-0.557199
-0.747311
-0.947026
-0.737789
0.455414
-0.675615
0.993840
0.808963
0.421515
0.953632
0.509102
-0.773076
-0.491340
-0.263878
-0.766232
-0.078874
-0.673121
-0.643665
0.928449
-0.845551
0.007743
-0.689301
0.696827
0.156991
0.331651
-0.447583
0.268966
-0.620105
-0.156136
-0.681356
0.917766
0.286665
-0.428667
0.970741
0.548876
-0.973254
-0.704874
0.542716
0.835709
0.716641
0.496348
0.344810
0.943565
-0.994992
-0.919067
-0.822667
-0.073866
-0.592188
-0.466332
-0.145416
-0.437739
0.541411
0.165283
-0.740912
-0.301598
-0.503066
-0.188495
0.967369
-0.123171
0.655369
-0.713988
-0.205405
-0.057966
-0.142655
-0.234665
-0.509090
-0.115909
0.060461
-0.966374
-0.280200
-0.222898
0.529974
-0.935389
-0.279333
0.534982
-0.854457
-0.102000
-0.538884
-0.446645
0.431668
0.315700
0.115616
-0.026921
-0.519017
0.374704
0.671481
-0.022083
-0.813791
0.638849
0.854746
0.841578
0.924862
-0.350660
-0.216389
-0.217793
0.414676
0.274521
0.666298
-0.524863
0.308147
-0.613902
0.252239
-0.161879
-0.549292
0.972906
-0.626896
-0.403749
-0.129094
-0.165780
0.149607
-0.697426
-0.850080
-0.734777
0.275653
-0.369097
0.639927
-0.052866
0.608820
0.826136
-0.414017
0.463565
0.667713
-0.489155
-0.887094
-0.548675
0.293052
0.527582
0.725846
-0.040651
-0.997281
0.033993
0.345447
0.254958
0.872114
0.796156
0.227864
-0.754783
-0.607593
-0.901229
0.079437
0.542014
-0.598655
0.229357
0.807236
0.676998
0.860260
0.447163
-0.375869
0.469080
0.273299
0.210115
-0.067355
-0.058988
0.720960
0.045551
0.392337
0.014011
-0.426867
0.118182
0.973360
-0.424148
-0.847825
0.318808
0.830810
-0.975711
0.114963
0.058674
-0.730494
0.507370
0.157444
0.348944
0.049384
0.558789
-0.421699
-0.143380
0.235787
-0.561439
-0.696217
0.859918
0.907641
0.577082
0.070033
-0.159713
-0.481906
-0.209008
0.885838
0.910430
0.805003
-0.541029
0.028613
0.778364
0.034823
0.180788
0.097171
-0.134368
0.205076
-0.787865
0.924306
0.474583
0.719505
0.081751
-0.176474
-0.231112
-0.359460
0.401827
0.625509
0.876327
0.840388
0.929292
0.736245
0.748030
0.506374
-0.193722
-0.411684
-0.975532
0.597270
-0.525846
0.934898
0.402273
-0.066875
-0.036489
0.180637
0.967948
-0.855702
-0.722192
-0.166419
0.349375
-0.510057
-0.242113
-0.176043
-0.790552
0.839638
0.647483
-0.021664
-0.519822
0.049310
-0.396155
-0.643496
-0.110301
-0.466864
-0.907251
-0.362272
-0.960490
-0.100973
0.226044
-0.936022
-0.503704
0.700199
0.998876
0.898570
-0.366676
-0.037613
0.079207
-0.398728
0.106685
0.357015
0.434853
-0.543941
0.846958
-0.807260
0.280017
-0.943595
-0.967622
-0.072500
0.034741
-0.487444
0.976810
0.638586
-0.130940
-0.133492
-0.828278
-0.038191
0.504237
-0.788767
0.860835
-0.269719
-0.724789
-0.642868
-0.569521
-0.725913
-0.744299
0.063803
0.236473
0.334908
0.665076
-0.656842
-0.308077
0.099929
-0.200782
-0.461120
0.292669
-0.920766
-0.404715
0.325047
0.006734
0.630027
0.837603
-0.016456
0.268613
-0.293338
0.850052
0.440335
0.668471
0.354289
0.651567
0.529306
-0.915430
0.926778
0.886438
-0.484951
-0.799135
-0.857861
0.578852
0.437338
0.477047
0.243928
0.780496
-0.831031
-0.656143
-0.420286
-0.292150
0.636526
-0.341052
0.303135
-0.038427
0.665682
-0.066838
-0.200824
-0.350774
-0.798226
0.505838
-0.500722
0.642109
0.174309
0.853567
0.293677
-0.296385
0.938136
0.220455
-0.409947
0.421319
-0.267808
-0.967962
-0.141343
-0.790761
0.275966
-0.360847
-0.621791
0.619823
0.218867
0.086058
0.256349
0.877815
-0.610807
-0.782078
0.543496
0.322355
0.017098
-0.807278
0.524130
-0.477064
-0.308000
0.166239
0.697245
-0.454434
-0.540084
-0.599140
-0.516298
0.680371
-0.009087
-0.063113
0.101690
0.723105
-0.031075
0.960347
0.932345
-0.755109
-0.400500
-0.689447
0.864714
0.818367
0.396611
0.121063
0.696181
0.785805
0.338985
0.239678
0.108160
-0.643917
0.432399
-0.367710
-0.120981
-0.875601
0.798529
-0.423736
-0.330035
-0.741555
-0.022876
0.153668
0.938816
0.968037
-0.909445
0.040506
0.691143
0.059480
0.000853
0.623487
0.304371
0.600353
0.934040
0.169085
0.418720
0.330652
-0.709852
0.114901
0.116457
0.629133
-0.645421
-0.775383
0.985216
0.786978
-0.143093
-0.135765
0.911377
-0.344564
0.440499
-0.418657
-0.086119
-0.582377
0.735010
-0.147303
-0.614339
0.825565
0.893203
-0.923196
-0.114955
-0.105945
0.700291
-0.810584
-0.505592
0.634331
0.358501
0.913128
-0.035017
0.648648
0.028030
-0.918560
0.277781
0.382609
-0.693943
0.262997
0.169587
0.162964
-0.872768
0.080965
0.818400
0.567732
0.662307
-0.267719
0.985355
0.397317
0.584978
-0.628984
0.222883
0.478181
-0.552180
-0.892072
-0.627764
-0.851889
-0.702656
-0.133355
0.782442
0.655845
-0.220227
-0.252575
0.304493
0.807803
-0.171135
-0.417725
0.190411
0.134922
0.845272
-0.640002
-0.702114
0.972504
0.440963
-0.883714
0.540236
0.103270
-0.151432
0.525591
-0.499412
-0.566454
0.896607
0.723470
0.911726
-0.655573
0.831398
-0.716037
-0.507463
-0.871258
0.150607
-0.725021
0.784587
0.930380
0.022404
0.089081
0.738183
0.851269
0.671355
-0.071406
-0.013808
0.516627
0.288593
0.284078
0.489131
-0.270444
0.400364
0.029367
0.832826
-0.751068
-0.445042
-0.666586
-0.317523
-0.548435
-0.943116
-0.405796
-0.204008
0.888283
-0.121834
0.288529
-0.982975
-0.971226
0.563508
0.801613
0.959154
-0.414088
-0.109307
0.697337
-0.562819
-0.437951
-0.374068
0.423373
-0.921324
0.914524
-0.292550
0.567807
-0.355920
-0.892186
-0.402825
-0.523093
-0.643254
0.152133
-0.189679
0.039223
0.603698
-0.132795
0.633427
-0.600310
-0.244512
-0.488407
0.688219
-0.227487
-0.459633
0.251727
-0.425874
-0.500479
0.837639
0.464819
-0.803142
-0.725180
-0.973132
-0.177211
0.698193
-0.894456
-0.262686
-0.594357
0.673351
0.381394
-0.486542
-0.729474
0.858301
-0.129796
0.422659
-0.331379
0.909427
0.026357
0.535827
0.542854
0.426047
-0.708686
-0.945553
0.114266
0.063828
-0.405186
-0.634007
0.637954
0.094334
-0.796368
0.102773
0.291192
-0.521548
0.129641
-0.886019
-0.823356
0.235186
-0.148705
-0.417713
-0.091463
-0.767311
0.095745
0.179063
-0.909010
0.965949
-0.398278
-0.240388
0.875376
0.628079
-0.704562
0.418229
0.054126
-0.413247
0.472676
-0.831608
0.650580
-0.932510
-0.465615
0.288534
0.161824
-0.261983
-0.608693
-0.546984
0.216469
0.520949
-0.433002
0.393113
-0.243865
0.418293
0.975400
0.664671
0.650982
0.071145
-0.156266
0.741972
0.037094
0.445456
-0.498416
-0.087531
0.073535
-0.202978
-0.669301
-0.872339
0.383774
0.803375
-0.703946
0.034355
0.870865
-0.169561
-0.677111
0.032689
0.568456
-0.285804
0.485705
-0.215075
-0.764855
-0.947297
-0.821963
-0.008720
0.470996
-0.846562
-0.344049
0.121978
0.224583
0.499686
-0.136050
-0.738324
-0.054858
0.365534
0.174146
-0.981323
-0.837445
0.504844
-0.853662
0.546330
0.308219
-0.557609
-0.419316
0.179084
0.272830
-0.096427
-0.788228
-0.158714
0.617769
0.697478
0.626211
0.852915
0.750180
0.804248
-0.155806
0.221176
0.957686
0.500146
-0.656846
0.182268
-0.000169
0.207104
0.443945
0.944973
-0.427363
-0.381910
0.963650
-0.264807
-0.877066
-0.890012
-0.718478
0.431153
-0.447621
-0.137793
-0.389763
0.825209
0.765780
-0.177991
-0.333504
0.383549
-0.480513
-0.707293
0.236463
-0.730332
-0.903045
-0.919342
0.490844
-0.945360
0.580804
0.833997
0.236909
-0.419365
0.041101
-0.319147
-0.474392
0.613739
0.298944
-0.510742
-0.651069
0.421878
-0.400755
-0.369546
-0.146969
0.151624
0.492660
0.463268
-0.023166
0.258440
-0.714722
0.643329
-0.358011
-0.195235
0.936036
0.878452
0.074432
-0.967009
0.959110
-0.434724
-0.912369
0.539914
-0.600727
0.324540
-0.879451
0.440374
-0.994607
-0.353844
0.054113
0.304337
0.135414
0.403044
-0.273785
0.734659
-0.966502
0.579246
-0.113716
0.526158
0.042514
0.863117
-0.215402
0.327792
0.506447
0.426587
-0.867444
0.442483
0.305039
0.206988
0.475473
0.264149
0.772264
0.563104
-0.195937
-0.828463
-0.112356
-0.075388
0.611911
-0.106963
0.570768
-0.333976
-0.802626
-0.293818
-0.930932
-0.076412
-0.559159
-0.897434
-0.497166
0.327125
0.628724
0.545348
0.190242
-0.586678
-0.126860
-0.303311
0.839909
0.005696
-0.860828
0.144948
-0.787316
0.614645
-0.590903
0.984948
0.177749
0.213160
-0.843515
-0.934607
-0.862228
0.768396
-0.041570
0.708540
-0.565580
0.155804
-0.585278
-0.496512
-0.920608
-0.144437
-0.393946
-0.417774
-0.817312
-0.765223
-0.872425
0.372930
-0.351901
0.000714
-0.930381
-0.511992
-0.993590
-0.791209
0.632955
-0.780906
0.823436
-0.957948
-0.795958
0.001185
0.255213
-0.639474
0.066578
0.392984
-0.871078
-0.974992
0.101524
-0.436658
0.180812
0.516246
0.066830
0.260204
-0.628190
0.672883
0.842430
-0.445502
0.907661
0.970005
0.927428
-0.444240
-0.029281
0.997047
0.043768
-0.022871
-0.794162
-0.323277
0.196223
-0.970726
-0.281224
0.400265
0.030459
0.973988
0.760791
-0.902963
0.366973
0.889713
-0.877955
-0.531503
-0.546945
0.302857
0.984744
0.519884
-0.436939
-0.643447
0.192768
-0.594509
-0.088949
0.100429
-0.624504
-0.161521
0.656189
0.346215
-0.164473
-0.300043
-0.676656
0.041365
0.376680
0.519567
0.070639
-0.904544
-0.080168
-0.898902
-0.930556
-0.319377
-0.801866
0.436417
-0.429664
-0.679821
0.904914
0.023390
0.623035
0.889657
-0.456725
-0.813904
-0.753789
0.736043
-0.408413
0.157262
-0.163528
-0.032917
0.995741
-0.507340
-0.686701
-0.168732
0.192617
-0.363357
0.872633
-0.430703
-0.843789
-0.056728
-0.335248
0.076043
0.044369
-0.265804
0.756665
0.242503
-0.829387
-0.672999
0.562682
-0.924473
0.350391
0.185718
0.965184
0.893666
0.371814
-0.788605
0.629709
0.963401
0.368657
-0.533820
-0.069516
0.364397
-0.041159
0.243783
-0.804335
-0.848542
0.880426
-0.931702
-0.279245
-0.963363
0.011570
0.385507
0.112679
-0.944061
-0.880296
-0.130655
0.298442
-0.709683
0.196346
-0.138875
-0.634156
-0.453263
-0.953158
-0.668972
-0.559597
0.418656
-0.457577
-0.929889
0.382057
0.911079
-0.463709
-0.687458
0.275477
0.495132
0.556325
0.471142
0.646590
0.436751
0.539440
-0.632656
0.473388
-0.448990
0.752852
-0.413933
-0.393051
0.872555
0.455412
0.905391
-0.837128
-0.348243
-0.233484
-0.471285
0.198494
-0.186642
-0.140257
0.638896
-0.767985
0.402166
0.709008
0.614072
0.313245
-0.754701
0.926614
-0.411278
0.740431
0.482939
-0.940136
0.387021
-0.080310
0.599304
0.754366
-0.606923
-0.849687
0.507217
-0.020856
-0.242738
0.379772
-0.565444
-0.337347
0.542644
0.086313
0.429169
-0.928641
-0.715194
-0.757473
-0.068898
0.923703
-0.525458
-0.666732
0.632710
-0.911386
0.646514
0.878009
-0.984773
-0.764764
0.618441
0.498166
-0.704900
0.005462
-0.582145
0.894403
-0.240173
-0.189067
-0.955283
-0.732955
0.790077
-0.198021
0.646817
-0.775368
0.464632
0.189461
0.310945
-0.106199
0.260820
0.595751
0.136328
-0.808077
0.519454
0.610869
-0.474809
0.152164
0.699483
-0.828296
0.030174
0.714710
-0.593060
-0.351386
0.212876
-0.297961
0.654076
0.630731
-0.403557
-0.586096
-0.558336
-0.358840
-0.319052
-0.768260
0.443139
-0.672235
-0.543627
-0.092229
0.517226
0.767318
0.801571
-0.221954
0.363069
-0.062101
-0.030031
-0.117477
-0.451232
0.495160
-0.965313
-0.751749
0.666864
0.064861
0.962961
-0.926196
0.713475
0.175836
-0.224156
0.367551
-0.193432
0.372287
0.781455
0.248231
-0.986554
-0.537597
0.479972
0.456585
-0.209831
0.936344
-0.635644
-0.692605
0.703662
-0.834073
0.085441
0.066730
0.103826
-0.944590
0.949253
0.652594
0.550570
0.983940
0.900845
0.217435
0.048801
0.863805
0.291239
-0.237724
0.039642
-0.932917
-0.870172
0.846209
0.439370
0.911283
0.094441
0.452816
-0.626314
-0.425588
-0.090599
0.163855
-0.489244
0.273757
0.471250
-0.785582
0.439684
-0.443309
0.281148
-0.456491
-0.387898
0.230401
-0.803897
-0.837328
0.214341
-0.903052
0.380107
-0.736858
0.960753
-0.328654
0.025418
0.000395
-0.261571
0.155246
-0.153396
-0.822201
0.066529
0.941045
0.630615
0.440215
-0.484543
-0.459984
-0.395930
0.026213
0.813773
-0.924680
0.240630
0.253456
-0.367989
-0.478221
0.796966
0.244113
0.752180
0.993069
0.406785
-0.033479
-0.909983
-0.213108
0.229664
-0.949230
0.458238
-0.744918
0.051165
-0.803333
0.410328
0.897769
-0.625534
-0.523143
0.838813
-0.994919
0.917072
-0.645730
-0.454903
-0.478858
0.380483
-0.641131
-0.403538
-0.378887
0.612326
0.228474
0.142892
0.409292
-0.527414
-0.104929
0.402361
0.861593
0.492377
-0.333737
0.091256
0.543147
-0.875499
0.346338
-0.405688
-0.678832
-0.243334
-0.507920
-0.304366
0.233524
-0.669106
-0.299285
0.150596
-0.314837
0.245812
0.671738
-0.934354
0.604681
-0.731799
-0.313241
0.217007
0.496674
0.829651
-0.373702
0.969261
-0.275278
-0.971341
0.848632
-0.413685
0.521036
-0.485105
0.677571
0.064183
-0.360604
0.023909
0.658495
-0.039436
0.780576
-0.849425
0.656199
0.014099
-0.518531
-0.643086
-0.835305
0.166633
0.602725
0.836434
0.232279
0.207406
-0.895366
0.919038
-0.575587
0.601309
0.748688
0.050711
0.570569
-0.526589
0.079370
0.419201
0.059725
-0.399594
0.934096
-0.262704
0.664589
-0.426508
0.761205
0.323084
0.534057
0.541781
0.473660
0.190256
-0.444120
0.955129
0.547169
-0.279425
0.121761
0.149894
-0.442991
-0.645960
-0.642700
-0.338357
-0.726922
-0.218287
-0.737048
-0.978234
0.832424
0.833522
-0.504823
-0.088206
0.252723
0.554902
0.512200
0.186819
-0.707802
0.176789
0.760312
-0.946596
-0.500127
0.294369
0.595185
0.973533
-0.515376
-0.848935
0.928662
-0.968206
-0.128359
0.050423
0.181688
0.428650
0.404463
0.538989
-0.909707
0.677541
-0.679298
-0.646755
0.699307
-0.846874
-0.813233
-0.805516
0.064920
0.439490
0.749386
-0.422881
-0.373691
-0.958415
0.753908
-0.613379
-0.905011
-0.746219
0.680990
0.690174
-0.772686
-0.834386
0.841239
-0.844024
-0.802592
-0.287120
0.206399
0.379096
-0.858471
-0.389138
-0.081915
-0.768178
-0.711597
0.238786
-0.414932
0.987711
0.391912
-0.228166
-0.817805
-0.543168
-0.788676
0.931581
0.033951
-0.162367
0.973166
-0.212141
0.224254
-0.931846
0.041639
-0.094756
0.758328
0.268953
0.070858
0.599567
0.424929
0.268266
-0.687553
-0.368672
-0.352638
-0.546024
0.242190
0.565446
-0.314201
0.530593
-0.195768
0.270866
0.518304
-0.803855
-0.957300
0.700499
-0.347024
-0.745975
0.632080
0.686927
0.091658
0.605246
-0.525215
-0.684088
0.673400
0.516425
0.221155
0.431728
-0.214622
-0.707987
0.031295
-0.789693
0.560279
0.343742
-0.158365
-0.792359
0.797718
-0.916175
0.773087
-0.516483
0.614418
-0.422681
0.754383
0.132722
-0.226536
0.797084
-0.166779
0.426440
-0.948892
-0.534698
0.113367
0.142766
-0.929452
0.588153
0.458678
0.743948
0.104577
-0.320167
0.175676
0.889956
-0.028154
-0.793028
-0.899737
-0.467875
0.550714
-0.058103
-0.260234
0.348433
0.025722
-0.487147
0.831950
-0.359860
0.090172
0.586333
0.772863
0.863636
0.383417
-0.393916
0.290076
0.434525
0.071386
-0.596557
-0.422709
0.141934
0.991596
-0.964032
-0.114119
0.096173
-0.284199
-0.938442
-0.013871
0.687647
-0.731470
0.086391
-0.780228
0.819244
-0.971711
-0.040462
0.167676
0.054011
0.472391
-0.000374
0.694151
-0.437437
-0.414041
0.467014
-0.573801
0.969375
-0.926901
0.716275
0.403900
0.144484
-0.880282
0.981191
-0.713582
-0.888686
-0.982841
0.172299
0.207487
-0.267040
0.233857
-0.806384
-0.579393
0.502387
0.280007
-0.359621
0.321631
0.308296
0.599918
-0.510693
-0.637693
0.072309
0.488933
-0.943542
0.634872
-0.925108
0.523472
-0.938929
-0.955733
0.596571
0.777346
0.448167
-0.258945
0.897065
0.429358
0.027473
-0.991621
0.446517
-0.800228
0.215866
-0.820524
0.433630
0.409482
-0.399917
-0.063983
-0.310511
0.240463
-0.742353
0.997785
-0.159619
-0.253046
-0.639908
0.912689
-0.764112
-0.583450
0.547561
-0.689220
0.940022
0.608633
-0.644953
0.536592
0.385979
0.803214
-0.722353
0.283044
0.232572
0.305120
0.291423
-0.320911
0.504892
-0.492711
-0.141435
-0.061478
0.916772
0.458649
0.874538
-0.393739
-0.300889
-0.867814
-0.395954
0.539492
-0.120860
-0.035862
0.452181
0.115028
0.380687
-0.000257
0.425807
0.320709
-0.391625
0.780854
-0.142699
0.994355
0.584069
0.134948
0.277399
-0.183359
-0.559932
-0.431178
0.495730
0.944960
0.076111
-0.645705
-0.116518
-0.007117
0.812944
-0.241979
0.599144
-0.487945
-0.109794
-0.796810
-0.948453
0.769346
0.167328
0.503729
-0.115626
-0.451985
-0.496529
-0.689818
0.868724
0.111847
-0.908964
-0.273975
0.106201
0.675104
0.860973
-0.616400
-0.508255
-0.698959
-0.047578
0.987475
-0.753999
-0.971467
-0.658230
0.129483
0.021416
-0.845286
0.887504
-0.379440
-0.333231
-0.222290
-0.176250
-0.281684
-0.452944
0.991078
-0.777955
0.431430
-0.460907
-0.274484
0.741612
-0.592183
0.837363
0.832648
0.133841
-0.056436
0.507752
-0.005186
0.327164
0.999497
0.295855
-0.720414
0.986972
0.541856
-0.691881
-0.671258
-0.328661
0.329535
-0.516545
-0.441158
0.950095
0.150224
0.336552
-0.226156
0.868540
0.883608
-0.235078
-0.909416
0.315038
0.304015
-0.183900
0.056650
0.711832
-0.346537
-0.110702
-0.154327
0.597028
-0.602950
0.840487
-0.075808
-0.603453
0.136342
0.203778
-0.616481
-0.321803
0.511896
-0.287739
0.349536
-0.158569
0.195716
0.908378
-0.208474
-0.654060
0.244930
0.565370
-0.785520
0.128538
-0.669708
-0.694936
-0.556423
0.634307
0.121164
0.500227
0.346139
0.774628
-0.610475
-0.808188
0.371655
-0.213426
-0.967701
-0.704153
0.183121
0.168641
0.499625
0.566640
0.846838
0.011521
-0.721100
0.196374
0.852952
0.474616
0.104752
-0.355522
0.820556
-0.650317
-0.790152
-0.964965
0.478221
-0.459860
-0.659901
0.921798
-0.825552
0.461264
0.422025
0.520587
0.235891
0.811549
0.712399
-0.392454
-0.401877
0.744697
-0.096607
0.781245
-0.086662
-0.596982
0.347885
-0.239824
0.414539
0.626785
0.956550
0.267491
0.101401
0.061302
0.911969
-0.078043
0.410985
-0.878183
-0.043008
-0.110794
-0.338042
0.297092
-0.188997
-0.163594
-0.241645
-0.766972
-0.643008
0.994247
-0.955423
-0.930609
-0.398207
-0.357300
0.814088
0.505187
-0.576055
-0.272574
0.908205
0.771830
0.487602
0.322744
0.398615
0.444152
-0.409765
-0.499984
-0.494545
-0.497796
0.421973
0.916440
-0.375979
-0.621035
-0.194355
0.285979
0.676057
0.616649
-0.877615
-0.565588
0.849677
-0.520623
-0.571341
0.894254
-0.451233
0.030453
-0.463046
-0.637145
-0.464361
-0.039101
0.090282
-0.556156
-0.267271
-0.422116
0.766587
-0.868657
-0.977964
-0.643178
-0.368641
-0.472509
-0.140974
-0.946668
-0.556070
0.483047
-0.567703
0.249576
-0.230974
-0.891646
-0.133776
-0.108589
-0.457234
-0.284099
0.370788
-0.028575
-0.389845
0.919555
-0.998122
0.147109
-0.717590
-0.462483
-0.891992
0.372692
-0.018639
-0.159263
0.950576
-0.252052
-0.027920
0.972612
0.104771
0.603439
-0.499898
0.963797
0.656771
-0.055967
0.446844
-0.910932
-0.806392
-0.784129
-0.802579
0.059833
0.107282
-0.259813
0.775734
-0.521931
0.711613
-0.614112
-0.602376
0.713490
0.532997
-0.319965
-0.748993
0.641005
-0.947273
0.232368
-0.518258
-0.996698
0.980316
0.453822
0.975914
0.085087
0.057261
-0.523983
0.048884
-0.285968
0.420049
-0.504272
-0.196900
0.613658
-0.288401
0.000522
-0.326510
0.818881
0.740709
-0.550776
-0.703050
0.452322
-0.164888
-0.305425
0.165812
-0.631891
0.374609
0.416819
-0.990886
0.427336
-0.350813
-0.509144
0.430639
-0.370496
0.944679
0.406553
0.714590
0.001940
0.882569
-0.236526
0.715973
0.302619
0.259202
-0.480927
-0.083724
0.970801
0.519594
0.589767
0.789682
0.260303
-0.961009
-0.913368
-0.287375
-0.125897
-0.218794
0.878437
0.242212
-0.844184
0.295256
0.251327
0.583152
0.944443
0.742183
0.013791
-0.426053
0.686862
-0.579657
-0.711463
-0.311198
-0.697087
0.052012
-0.595226
0.605531
-0.688786
-0.076153
-0.478192
-0.717985
-0.556559
-0.888426
-0.928304
0.703745
-0.849435
-0.841672
-0.583630
0.024668
-0.060466
-0.705193
-0.733120
0.095350
0.590063
0.518207
-0.321498
0.534507
0.260390
0.692293
-0.891546
-0.052748
-0.887364
-0.603009
0.636053
-0.584451
0.449003
-0.959172
-0.978920
0.760216
-0.035325
-0.457112
-0.957769
0.408116
-0.345538
-0.886073
0.111861
-0.194973
-0.727745
0.528231
0.829695
0.211789
0.823038
-0.903424
-0.692861
0.413101
0.614783
-0.014359
-0.052392
-0.124827
-0.322066
0.056062
0.822424
-0.209430
0.453054
0.458478
0.206119
-0.097944
0.499305
0.227199
-0.337727
-0.536020
0.770087
-0.295496
0.872096
-0.575451
-0.181569
-0.016044
0.229576
0.090686
-0.487813
0.059272
-0.697525
-0.664775
0.155847
-0.390385
0.748327
-0.229370
0.595256
-0.304065
0.645803
-0.726810
0.751997
0.468227
0.063760
0.205051
-0.073295
-0.730121
-0.892893
-0.573990
0.497078
-0.230620
-0.110010
0.267165
0.473884
-0.237914
0.691715
-0.707685
0.746042
-0.078709
0.383001
-0.741771
0.980563
0.685476
-0.406545
0.136410
-0.704909
-0.658219
0.907040
0.890347
0.037717
0.552843
-0.836463
-0.210286
0.021070
0.227297
0.994765
0.947775
0.497176
-0.898128
-0.626215
-0.005746
-0.128748
0.263775
-0.738580
-0.654864
-0.974140
0.953134
-0.362549
0.771902
-0.125575
-0.979548
-0.969868
-0.145012
0.705928
-0.376414
0.991398
-0.998981
-0.034632
0.898438
0.891365
-0.996916
0.451281
-0.945098
-0.207202
-0.527649
0.282199
-0.212437
-0.579874
-0.220625
-0.110565
-0.206089
0.773629
0.760687
-0.942315
-0.964951
-0.894177
-0.916455
0.988183
-0.256727
0.855448
-0.137392
-0.236275
0.885579
0.717596
-0.530347
-0.490835
0.708994
-0.529329
0.607432
-0.637963
0.477617
0.058713
-0.583061
-0.729584
0.531064
0.699138
0.057979
0.951190
-0.521487
0.947413
-0.254900
-0.747857
0.708100
-0.197214
-0.712808
0.813923
-0.113669
-0.724625
-0.442803
-0.258221
0.137983
0.320922
-0.372642
-0.144421
0.790574
0.136524
-0.435426
-0.738754
-0.388943
-0.827994
-0.376717
-0.911326
0.230719
0.040222
-0.640910
-0.238217
-0.260640
0.417068
-0.287027
0.217873
0.364482
0.458074
0.470016
0.072582
-0.739141
0.757208
-0.113495
0.147191
-0.967418
0.443702
0.888969
0.170566
-0.235376
-0.483672
-0.973855
-0.444802
0.652851
-0.409282
-0.183556
-0.736092
-0.237276
0.439727
-0.647418
0.993443
-0.520051
-0.288329
-0.244774
0.219309
-0.871261
0.468199
-0.562817
0.493221
-0.073727
0.907199
-0.434197
0.187132
0.664406
0.452308
-0.665677
0.696989
-0.103990
-0.776708
-0.132446
0.660634
-0.260380
-0.106301
-0.784168
-0.607529
0.484418
0.032276
-0.343622
-0.752858
-0.527997
0.008960
-0.759415
-0.048048
0.720631
-0.004189
-0.828739
0.849371
-0.535990
-0.391556
0.342592
0.390283
-0.484357
0.908395
-0.422585
-0.819951
0.360703
-0.088262
0.877038
-0.743286
0.135030
-0.255408
0.917347
0.874650
0.638291
-0.866821
-0.732880
0.122709
0.165455
-0.076501
0.369850
0.637458
0.932459
0.610435
-0.410590
0.653090
-0.393754
-0.239329
0.502461
0.070257
0.369115
-0.154947
-0.539460
0.884757
-0.246552
0.037955
-0.935194
-0.885848
0.949693
0.941844
-0.629135
0.084723
-0.313564
-0.711788
-0.040627
-0.675273
-0.578608
0.226493
0.447435
0.586847
-0.850008
-0.182714
0.224305
-0.917549
-0.572279
0.813715
0.735542
0.033967
-0.425614
0.238003
-0.895777
0.943501
-0.916944
-0.435237
0.828258
-0.163496
0.602719
0.893064
-0.049344
0.552412
0.834908
0.321521
-0.362865
-0.478656
0.609734
0.596508
-0.153929
-0.968875
-0.176999
-0.706494
0.617972
-0.027006
0.110792
-0.157723
0.055445
0.538512
-0.344008
-0.209013
-0.427521
0.230378
-0.971010
-0.323297
0.173878
-0.887954
0.241466
0.002137
-0.051450
-0.155816
-0.104799
0.899206
-0.603404
-0.269891
0.220727
0.033731
0.251453
-0.169539
-0.369761
-0.902476
-0.138414
0.453241
-0.608970
-0.520442
-0.573766
0.501822
0.321835
0.481680
0.040334
0.977827
-0.727334
0.612813
0.208204
-0.698344
-0.710484
-0.617917
-0.586298
0.530981
0.384219
0.362252
-0.624834
-0.720580
0.261458
-0.228238
0.009530
-0.517815
0.805493
-0.739017
0.312646
-0.564267
-0.641493
-0.825769
0.888973
-0.250463
-0.346211
-0.684792
-0.748642
0.975624
0.796887
0.291692
0.953451
-0.930447
-0.095495
0.161656
-0.628791
0.194021
0.543739
-0.215089
-0.274998
-0.072042
-0.852837
0.100168
0.207378
0.408620
0.871930
-0.783092
0.890805
0.677423
-0.522109
0.203451
-0.886844
-0.163602
0.377682
-0.997871
0.585935
-0.968528
-0.682663
0.837293
-0.992904
-0.885776
0.128985
0.960548
-0.816222
-0.966510
0.122203
-0.445013
0.227511
-0.334058
0.339898
0.952513
0.593900
0.487060
0.052681
-0.198722
-0.104319
-0.075389
0.018186
-0.213514
-0.397966
0.496077
0.989937
-0.284810
-0.667525
0.367620
-0.282681
0.918409
0.399091
0.034656
0.755702
0.406188
0.148880
-0.115313
0.366736
0.332658
-0.081823
-0.511061
0.887645
-0.854312
0.154881
0.227543
-0.901800
-0.251219
-0.285397
0.150881
0.550059
0.610284
-0.924509
-0.431755
-0.603230
-0.322475
-0.935678
-0.613293
0.392715
-0.603203
0.754327
-0.889965
-0.684794
0.153418
0.144691
-0.929092
-0.440394
-0.706429
-0.044405
0.926341
0.626229
0.873772
-0.584720
0.513874
-0.980541
0.570161
-0.258584
-0.882341
-0.681059
0.456019
0.268540
0.869000
0.066303
0.344031
-0.562755
0.463073
-0.978443
-0.498433
0.849780
0.414272
-0.101637
0.604107
0.524307
0.213569
-0.242475
-0.331002
0.284477
0.317131
-0.037431
-0.759928
0.243472
-0.411202
-0.886157
0.658752
-0.897328
-0.866697
0.228913
-0.155912
-0.749038
0.547855
-0.699892
0.519502
0.416855
0.366411
-0.136467
0.854100
-0.170516
-0.114910
-0.644334
-0.320736
-0.700638
0.254030
-0.716629
0.823669
-0.532402
0.040896
-0.507333
0.752075
-0.641973
0.455236
0.992147
0.601499
-0.955966
-0.894010
0.260251
-0.853294
-0.760707
-0.510836
-0.009206
-0.509745
-0.962981
0.290902
-0.990244
0.453874
-0.342687
-0.126710
0.307973
0.486798
0.758380
0.663640
-0.833938
-0.942258
-0.082331
-0.550567
0.881411
0.385267
0.490329
-0.625923
0.137343
0.848356
0.829313
0.129489
0.449855
0.873347
0.235479
-0.289894
-0.979947
0.474772
0.199270
0.010847
0.965027
0.236289
-0.698251
0.974783
-0.309838
-0.040938
-0.151927
0.998135
-0.554140
-0.393548
0.661775
-0.388078
-0.335806
-0.420556
0.061355
-0.454395
0.964711
-0.448316
-0.080318
0.102054
-0.599960
-0.251005
-0.768457
0.849895
-0.377658
0.467023
-0.440000
-0.357605
-0.058205
0.759270
0.653242
-0.093179
-0.004441
0.954992
-0.118395
0.685721
-0.085946
0.729677
0.683856
0.359914
-0.663870
0.345631
0.971836
0.000324
0.925075
0.033191
0.545928
0.889787
0.584875
-0.534390
-0.008159
0.984915
0.214606
0.223384
0.834810
0.836948
-0.309593
-0.605189
-0.520657
0.632202
-0.845919
-0.867414
-0.460976
0.149640
-0.912423
0.420628
-0.164639
0.001631
0.150305
-0.480783
-0.638455
0.486435
0.864848
-0.666619
-0.513242
0.789924
0.366572
-0.967313
0.679710
-0.048553
-0.501703
-0.328449
-0.063638
0.712903
0.894935
-0.228827
0.549851
-0.414657
0.165983
-0.970806
-0.782455
0.320064
-0.838220
-0.243432
-0.530296
-0.750643
-0.822804
0.305065
0.250988
0.327502
0.824282
0.612533
-0.186063
0.689130
0.945914
0.300695
0.479053
0.312485
0.333382
0.158764
-0.736068
0.831678
0.830315
0.200295
0.544581
0.725250
0.971467
0.094432
-0.689407
0.137451
0.123626
-0.471863
-0.542485
0.285405
0.284706
-0.072781
0.534762
0.461902
-0.767717
-0.214250
-0.210596
-0.943435
-0.601717
0.603340
0.745695
-0.655803
-0.095965
0.224748
0.656683
-0.762583
-0.616488
0.920615
-0.930905
-0.786174
0.120909
0.613676
0.939076
0.092377
-0.291892
-0.750331
-0.770172
0.831733
-0.222194
-0.312657
0.117138
-0.937488
0.614561
-0.348099
0.524414
0.846845
0.437651
-0.686183
0.903410
0.835934
0.917157
0.649105
-0.819869
-0.178808
-0.126147
0.836814
0.058609
0.257365
0.757429
0.127704
0.471191
-0.121662
-0.258620
0.410268
0.970715
0.449487
0.659937
-0.799458
0.281221
-0.562257
-0.112115
-0.601641
-0.499745
-0.497554
0.050259
-0.975331
-0.650709
-0.512090
-0.661514
-0.747299
-0.676156
-0.744356
0.901806
-0.496024
0.076836
-0.224341
-0.659211
-0.864555
-0.966976
-0.901782
0.263149
0.504215
-0.023444
-0.995471
-0.085517
-0.052729
0.454016
-0.425581
0.147813
-0.264763
0.012162
-0.964302
0.133596
0.512417
-0.461855
-0.816145
0.537086
-0.112564
-0.328234
0.875572
0.140137
-0.004390
-0.868784
0.041943
0.499586
0.208052
0.817602
0.840375
0.343497
0.850626
0.938593
-0.393354
0.354841
-0.084851
-0.388825
-0.730677
0.862420
-0.934808
-0.156258
0.010233
-0.199571
0.855905
0.045931
0.934025
0.368322
0.584076
-0.882120
-0.094592
-0.528488
-0.210354
-0.219019
0.611649
0.785256
-0.087803
-0.346408
0.284841
-0.879751
-0.528806
0.125216
0.463746
-0.678180
0.063809
-0.929608
0.676660
0.978958
-0.318433
0.945983
0.841378
-0.253241
-0.210274
-0.148389
0.547187
-0.354369
0.897543
0.481212
-0.986047
0.481619
0.599092
-0.080639
0.953130
-0.611262
0.700342
0.564779
-0.826006
-0.387461
-0.781628
0.458835
-0.267212
-0.310434
-0.415948
-0.803466
0.011385
0.647861
-0.733074
-0.311954
0.626819
-0.051507
-0.365971
0.468197
0.695252
0.423755
-0.680191
0.242440
-0.930614
-0.782649
-0.276348
-0.916661
0.698970
-0.677256
0.002700
0.652100
-0.288518
-0.296958
0.216880
-0.114524
0.315581
0.435251
-0.655689
-0.951631
-0.875183
-0.071637
-0.755097
0.136202
-0.423776
-0.488171
0.824248
-0.796957
0.460323
-0.541722
0.671241
0.155575
0.882033
0.991049
-0.601986
0.951418
-0.791600
0.121666
-0.965243
0.907370
0.444410
0.037457
0.559470
-0.844108
0.740499
-0.223650
0.041368
0.056080
-0.788399
0.385679
0.104449
-0.663582
-0.685959
0.349352
0.472621
-0.109735
0.861182
0.296869
0.093308
0.321504
0.755147
-0.235451
-0.522921
0.637179
-0.244402
-0.124907
0.588598
-0.036002
0.996760
0.623355
-0.128631
0.441170
-0.339189
-0.569161
0.597062
-0.598690
0.207189
-0.361571
0.457390
0.418791
-0.975892
-0.438160
0.755209
-0.661850
0.911192
0.227830
0.228415
0.772374
-0.475301
-0.678277
0.093878
-0.720154
0.086272
0.570957
0.917025
0.841870
-0.553949
0.505623
-0.194131
-0.557190
0.128978
0.677237
0.883980
0.789789
-0.891923
0.481042
-0.808900
0.315266
-0.880529
0.648490
-0.265943
-0.856421
-0.789670
-0.510734
-0.518271
-0.878478
0.717096
0.710144
0.893896
-0.758205
-0.968133
-0.012226
-0.478359
0.118140
-0.441268
-0.561333
-0.039990
0.004782
0.944290
0.765879
0.447593
0.073268
0.443116
0.331573
-0.136943
0.551193
-0.187386
0.054156
-0.133541
-0.067915
-0.297354
0.600515
0.075664
-0.087024
-0.910219
0.557393
0.034498
0.806877
0.267537
-0.071606
-0.951328
0.916169
-0.429687
-0.582456
-0.525100
0.008980
0.377554
0.479683
-0.046730
0.143433
-0.072724
-0.973463
-0.413451
-0.741152
-0.110406
-0.862258
0.071462
0.943751
0.004200
-0.996453
-0.353603
-0.395285
0.079212
0.559373
-0.305504
-0.363395
-0.406128
-0.498627
0.904142
0.522266
-0.449954
0.203547
0.438435
0.120359
0.621091
0.913335
-0.870661
-0.001355
0.393018
0.082609
-0.857922
-0.679706
0.109146
-0.271373
-0.420858
0.998741
-0.133631
0.650604
0.942491
0.870569
0.654151
-0.411112
-0.524715
-0.266638
-0.851739
0.169781
0.369967
-0.257867
0.671155
0.274110
-0.735601
-0.778800
-0.522344
0.702834
0.341559
-0.901252
0.616169
0.470898
0.097393
0.009187
-0.446493
0.239471
0.329481
0.662653
0.968099
0.908622
0.661394
-0.165532
0.559226
0.603885
-0.294963
0.213377
-0.807227
0.180322
0.946739
-0.658965
-0.649897
0.316707
0.083168
-0.978742
-0.409184
0.347567
-0.757542
0.068473
0.050400
0.584017
0.167220
-0.333431
0.054916
-0.735387
0.675756
0.608423
0.504084
0.005236
0.271076
0.472183
-0.086141
-0.067530
-0.693350
-0.526915
-0.463645
0.011688
0.686462
-0.270872
-0.807990
0.633201
0.070163
-0.457887
-0.050092
-0.846670
-0.436629
0.540724
0.500897
-0.194171
-0.390803
-0.448703
-0.610154
0.776417
0.217866
0.444762
-0.958970
-0.106378
0.053184
0.545114
0.898859
-0.675740
0.017297
-0.187283
0.256730
0.323947
0.285802
0.793085
-0.664365
-0.027737
-0.477787
-0.472356
-0.394536
0.592376
0.069757
0.555372
0.745706
0.633128
0.096096
0.246603
-0.561043
0.705293
0.797900
-0.171197
0.481710
0.015766
-0.726435
0.522739
0.909388
0.326749
0.067854
0.808247
0.651010
-0.914850
-0.379036
-0.092260
0.409098
0.906766
-0.299175
0.744732
-0.120971
0.223038
-0.727624
0.484493
-0.184586
0.342134
0.039865
-0.438880
-0.024739
-0.864039
0.807723
0.414218
0.841254
0.605623
-0.756979
0.322964
-0.378611
-0.483414
-0.154297
-0.469222
0.843335
0.913557
-0.660976
0.494345
0.998707
-0.040012
-0.597915
0.407805
-0.133246
0.102910
0.152537
0.745783
-0.674052
0.424913
0.230277
0.141362
-0.232953
-0.729858
0.702482
0.742308
-0.593896
0.510205
0.156526
-0.752642
0.115829
0.399547
0.570322
0.737218
0.916133
-0.583975
-0.732004
0.759469
-0.670419
-0.392980
0.253814
-0.671712
0.567009
0.655898
0.736093
-0.566237
-0.241192
-0.111370
-0.820454
0.084756
-0.686457
0.409823
-0.773882
0.080590
0.679965
0.928601
-0.177102
-0.913931
0.438806
0.979425
-0.666573
-0.445365
0.378972
0.903748
-0.708147
0.295105
-0.680227
-0.440151
0.054574
-0.350646
0.166869
-0.691613
-0.022357
-0.266122
0.964286
-0.286264
0.167641
-0.276906
0.602366
0.347187
0.807851
0.915909
-0.242990
-0.966031
-0.003501
-0.563025
0.962570
0.819397
-0.476957
0.401376
0.798822
-0.143530
0.956010
0.177794
-0.239782
-0.752137
-0.527101
0.079991
-0.192288
0.527473
0.729345
0.974581
0.835860
-0.293013
-0.291542
0.800146
0.420723
0.876099
-0.476760
0.023089
0.223285
-0.668909
-0.061003
0.980295
-0.634940
0.935496
-0.582730
-0.672370
0.754894
-0.059687
0.729006
0.553715
0.796783
0.685016
-0.268491
-0.442999
0.932880
0.204408
0.636992
-0.259409
-0.268120
0.366337
-0.284828
-0.432259
-0.926676
0.423630
-0.632113
0.494047
0.299728
-0.108873
-0.482864
-0.476986
0.222218
0.456133
-0.496691
0.587279
0.391630
-0.079421
0.914909
0.146523
0.860892
0.643915
-0.299762
0.657675
0.328932
0.431747
-0.785324
0.261811
-0.363845
0.851668
-0.997598
0.368036
0.218005
-0.282426
0.935776
0.291329
-0.858796
-0.696337
-0.214624
0.440933
0.194790
0.302512
0.963946
-0.582991
-0.241354
-0.532745
-0.995712
-0.849725
0.387834
0.919197
0.296798
0.248726
0.563112
0.997037
-0.093599
-0.107957
0.428784
0.121077
-0.846145
-0.935061
-0.027255
-0.843743
0.432975
-0.809250
-0.126169
0.368751
0.482079
0.015035
0.672414
-0.732544
-0.544032
-0.132795
0.569968
-0.580086
0.284213
-0.671387
-0.112831
0.288501
-0.521111
-0.724997
0.207698
0.775687
0.523728
-0.229191
0.772724
-0.569871
0.662853
0.201508
0.551206
0.816707
0.266448
-0.476049
0.972964
-0.300577
-0.285299
-0.153205
-0.931826
-0.803219
0.861830
0.740589
-0.535764
-0.682202
-0.392207
-0.965796
-0.262288
0.892007
-0.637182
0.624881
0.180508
-0.158294
0.899884
-0.611795
-0.382607
0.423613
0.159015
-0.609883
0.853742
-0.178132
0.591626
0.404948
-0.361425
-0.141927
0.928899
-0.388461
0.557496
-0.356400
0.458334
0.625670
-0.159619
0.320165
0.366259
0.304617
0.637963
0.974052
0.338821
-0.624325
0.866059
0.701639
-0.999444
0.046567
-0.456655
0.900441
0.434772
0.160738
0.324053
-0.406213
0.550855
0.177795
0.415655
0.142481
-0.417257
-0.945770
-0.999445
-0.488358
-0.334231
0.558051
0.155242
-0.875897
0.183721
0.995623
0.444268
-0.450020
0.300240
0.082230
-0.475968
-0.360939
0.457905
-0.609909
-0.659301
0.458462
0.436658
-0.115956
0.358902
-0.128570
-0.955218
-0.317044
0.465217
0.595638
0.860751
-0.119128
-0.261881
-0.556506
-0.064899
-0.261327
-0.044864
0.600870
-0.703276
-0.889622
0.724973
0.480445
-0.894000
0.169240
-0.969575
0.406240
-0.748529
-0.445542
-0.954699
0.709376
-0.055451
-0.614000
0.167837
-0.618793
0.270045
-0.473260
0.252637
0.314827
0.209695
-0.282146
-0.089536
0.070446
0.598726
0.648583
0.513940
-0.466172
-0.612744
-0.530925
-0.865303
-0.316020
-0.420547
0.859670
-0.835575
-0.314547
0.028911
-0.805150
-0.908306
0.280381
-0.250692
-0.863005
-0.010243
0.693857
-0.477005
-0.842405
-0.924936
0.793040
-0.315666
0.327701
0.107867
0.894029
-0.954445
-0.981669
-0.035525
0.644281
0.666914
-0.521585
-0.821892
-0.945830
-0.052510
-0.687194
-0.261850
0.526943
-0.827524
-0.097425
-0.787603
0.201387
0.097425
-0.695909
-0.518232
0.846733
-0.558915
0.471525
0.540590
-0.035920
0.629119
0.615653
-0.242880
-0.686546
-0.056646
0.864987
-0.792517
-0.011091
0.883318
0.171958
-0.366810
0.550231
0.650374
-0.188702
0.604401
-0.402136
0.124104
-0.657449
-0.875193
0.296580
0.245126
-0.662796
-0.502033
-0.657449
-0.358705
-0.020265
-0.810716
0.082380
-0.548741
0.729873
-0.953539
-0.919621
0.345527
-0.196419
-0.606167
-0.711119
-0.331432
-0.398684
0.277789
-0.448115
0.773274
0.910979
-0.897883
0.423648
-0.277723
0.706518
-0.978488
0.846381
-0.950931
-0.853681
0.142961
0.294194
-0.516477
0.640928
0.636745
0.124818
-0.379337
0.826029
-0.792802
0.071922
0.555902
-0.746342
0.152301
-0.098571
0.057239
0.546134
0.190309
0.725807
-0.852551
-0.531901
-0.722308
0.920723
-0.620922
-0.620191
0.344371
0.101355
-0.913673
0.365882
-0.052264
-0.864604
0.512201
-0.909302
0.429590
0.995724
0.731626
0.066335
0.120542
-0.647712
-0.107636
0.327740
0.424210
-0.551734
0.581398
-0.423489
0.349695
-0.361362
-0.877355
-0.459996
-0.635555
-0.729906
0.008103
-0.357863
-0.809183
0.387181
0.021946
0.535188
-0.511464
0.108273
-0.098930
0.436273
0.243668
-0.586728
0.526970
-0.326742
-0.591004
0.258596
0.739593
0.529538
0.610884
-0.368043
-0.142722
0.035094
0.080223
-0.561324
0.611606
-0.570082
0.077314
0.734251
-0.030079
0.441759
-0.995655
0.978024
-0.916104
-0.804838
0.365205
0.105841
0.730350
0.853741
-0.785886
-0.368580
0.290014
0.457782
0.044692
-0.183016
-0.868960
0.453687
-0.924420
0.870634
-0.016775
0.686464
-0.497409
0.840503
-0.278441
0.582814
-0.720820
-0.666836
-0.987269
0.356494
-0.932585
-0.017347
-0.201748
-0.928240
-0.039323
-0.117852
-0.733078
-0.674118
0.987989
0.997272
-0.820376
-0.797897
-0.371308
0.469638
0.659885
0.673383
-0.713378
0.790925
0.127071
-0.637798
0.661559
-0.889704
-0.951334
-0.835850
0.950799
-0.229775
0.746964
-0.770021
0.103389
0.759695
0.586473
0.170804
-0.257652
-0.615275
0.242564
0.703025
0.266873
0.509486
-0.971093
0.254862
0.506757
-0.791469
0.456965
-0.864551
0.678169
0.116850
0.808832
0.964791
-0.092224
-0.064097
-0.673007
-0.430665
0.046199
-0.624341
-0.266515
-0.003001
0.145883
-0.519552
0.226978
-0.750728
-0.759857
-0.186550
0.420077
-0.017509
0.198176
-0.337359
-0.314485
-0.534951
-0.827873
-0.285578
0.719911
0.678884
-0.077047
0.176876
0.814333
-0.398878
-0.706273
0.623165
-0.434087
0.201503
-0.440932
-0.107094
0.770837
0.605267
0.268564
-0.495678
-0.397734
-0.585552
-0.015230
0.829244
-0.336280
0.224913
-0.357306
-0.916203
-0.792596
0.840870
-0.253562
-0.107081
-0.694082
-0.081436
0.607341
-0.974171
-0.402552
-0.469705
0.202705
-0.588219
0.131417
0.496432
-0.965054
0.697330
-0.302065
-0.405986
-0.409765
-0.531228
-0.800719
0.858800
-0.026906
-0.198453
-0.726752
0.957864
-0.369209
-0.063032
0.182777
0.273486
0.020765
0.390181
0.114355
0.767203
-0.716900
0.420274
-0.314233
0.890441
0.446103
0.283215
-0.579264
-0.351191
0.694996
0.552153
-0.854759
0.729942
0.249483
-0.156825
-0.676044
0.839718
0.311947
-0.476763
0.698518
-0.714959
0.324785
0.971766
-0.757094
0.955576
-0.091266
0.425683
0.229061
0.929499
-0.184136
-0.656583
0.696702
0.098964
0.763691
-0.617531
-0.010594
0.665684
0.410142
0.858602
0.360681
-0.037705
-0.996157
0.090623
-0.788222
-0.152981
0.414578
-0.948504
-0.841034
0.937816
0.750013
-0.555992
0.262600
0.721779
-0.313087
0.218176
-0.369487
-0.887404
-0.552763
-0.439988
-0.071540
-0.209346
-0.743287
-0.972576
-0.445655
-0.360818
0.016830
0.764139
-0.695133
-0.573028
0.622741
0.665547
0.389267
0.626584
-0.243830
0.601044
-0.526397
-0.829252
0.652540
-0.367431
-0.891436
0.402553
0.076577
0.371164
0.124332
0.763490
-0.410660
0.754845
0.876086
0.036577
-0.685144
-0.195453
0.827231
-0.428430
-0.168029
-0.618424
0.210752
0.848801
-0.854285
0.515619
-0.724227
0.768456
0.181166
0.665039
0.395041
0.937336
0.266083
0.868644
-0.891915
-0.081377
-0.498787
-0.783351
-0.678824
0.577790
0.587813
0.445508
0.341280
-0.822847
0.200353
0.217367
0.213730
0.515210
-0.978087
0.040961
-0.913221
-0.146116
0.422538
0.297532
-0.297315
0.568253
-0.186849
-0.021542
0.336709
0.994317
-0.356503
-0.268250
0.931654
0.909581
-0.399606
-0.960262
-0.171796
0.101607
-0.743613
0.149380
-0.320603
0.844200
-0.405112
-0.979323
-0.978647
0.795241
0.238044
0.235083
0.310451
0.259957
-0.723956
0.397230
-0.886158
0.698582
-0.305238
-0.183473
0.266835
0.507913
0.794985
-0.396456
0.502230
-0.561517
0.335294
0.433884
-0.651937
0.935687
0.473622
0.176267
0.037295
0.730010
-0.674353
0.716692
0.574210
-0.079465
0.737369
0.595563
-0.284224
-0.024587
-0.169355
-0.973773
-0.764629
0.106690
0.423458
-0.650788
-0.194728
-0.881780
0.165739
-0.927894
0.626133
-0.039276
-0.324350
0.128363
0.399207
-0.989056
-0.437753
0.747270
0.946631
-0.964131
-0.076463
-0.016074
0.765878
0.249184
-0.299383
0.340088
-0.830281
-0.562014
-0.064349
-0.114504
0.413400
0.766296
-0.088277
0.648770
-0.127014
-0.664819
0.997982
0.678257
-0.546599
0.163721
0.750364
-0.920467
-0.875554
-0.573986
0.207896
0.523653
-0.563043
0.770143
0.270923
-0.616412
0.806012
-0.805540
0.367514
0.571890
0.443644
-0.931869
-0.088022
0.613363
-0.493882
0.847629
-0.501141
0.919517
0.613925
0.410582
0.568287
-0.513089
0.745763
0.566270
-0.834832
-0.800836
-0.270009
0.915532
-0.721303
-0.145563
-0.658455
0.486594
-0.621910
-0.221497
0.256737
0.649012
0.162091
0.062749
0.843472
-0.470395
-0.365361
0.287117
-0.402263
0.546617
-0.099520
0.103854
0.394247
0.399339
0.023372
0.008172
-0.190078
-0.408341
0.495082
-0.444315
-0.842071
0.660251
-0.245152
-0.112080
0.575782
0.033546
0.742357
0.917327
-0.479861
-0.879553
-0.304170
0.776876
0.769459
0.857921
-0.160375
0.612931
-0.612474
0.474264
-0.099952
-0.014737
0.020881
0.800528
-0.910883
-0.584872
0.199867
0.112489
0.423299
-0.990211
0.704148
-0.081618
-0.434527
0.862077
-0.421368
0.320322
-0.250003
-0.845586
-0.646133
-0.507646
-0.928258
-0.125993
-0.387199
-0.232428
-0.349117
-0.617740
-0.374507
0.490507
0.995191
0.013019
-0.035229
-0.104761
0.998281
0.985652
-0.304234
-0.912602
-0.599220
0.895633
0.199887
0.824079
0.905422
-0.095965
-0.257539
-0.529105
-0.233888
0.321093
0.791217
0.516109
0.475507
-0.854916
-0.991537
0.547249
0.019091
-0.378736
-0.685179
0.669974
0.003524
-0.059687
0.160481
-0.001285
0.953332
-0.874748
0.893953
0.951614
-0.889096
-0.410280
-0.960988
-0.488316
-0.514647
0.238899
-0.664237
-0.609225
-0.857065
0.078223
-0.138330
-0.090953
-0.600684
-0.347113
-0.574844
0.874823
-0.202029
-0.566381
0.422072
0.817062
0.054883
0.736892
0.487036
-0.941593
-0.322794
-0.352482
0.057121
-0.369462
-0.227230
-0.048926
-0.417848
-0.116326
0.540794
-0.378836
0.395358
-0.973853
0.860063
0.731121
-0.583078
-0.997002
-0.190655
0.278593
-0.087956
0.208661
0.931480
0.337200
0.083484
-0.270548
0.770819
-0.494444
-0.453486
-0.174298
-0.757552
-0.966450
-0.115892
-0.080346
-0.318932
0.941229
0.550192
0.453838
-0.107696
-0.867656
-0.662487
-0.566902
-0.246493
0.732871
-0.540755
-0.386430
0.463992
-0.123832
-0.383432
-0.726663
-0.845240
0.528612
0.481998
-0.913759
-0.134188
-0.434518
-0.184308
-0.363369
0.071038
0.362206
0.462333
0.313486
0.395756
-0.653559
-0.766860
-0.923176
-0.712329
0.783332
0.530663
0.179974
0.915675
0.868175
0.613072
-0.330817
0.601046
-0.927683
0.282753
0.065039
-0.051515
0.899321
0.338376
0.103245
0.427933
-0.179626
0.189486
-0.706255
0.385855
-0.994822
-0.069624
-0.543107
0.367384
-0.607291
0.770379
-0.236860
-0.260850
-0.996481
-0.160035
0.026820
0.786850
-0.629372
-0.793205
0.702525
-0.761197
0.819867
-0.628292
0.839849
0.892184
0.654461
-0.095113
-0.159331
0.553782
-0.756737
0.943914
-0.018285
0.063637
0.133400
0.275460
-0.550508
0.138578
-0.794164
-0.093615
-0.494038
-0.401455
-0.323236
0.269102
0.337694
-0.319718
-0.890933
-0.635485
-0.532867
-0.520305
-0.428690
-0.830342
-0.281503
-0.608824
-0.458634
-0.441654
-0.716639
-0.804173
0.463233
0.124029
0.749609
0.706496
0.067944
-0.268677
-0.229867
-0.798657
-0.993217
0.219625
0.339921
-0.787381
-0.873990
0.845883
-0.188836
-0.197226
0.114985
-0.851142
0.483057
0.224053
-0.486627
0.950189
0.703747
0.084683
-0.880153
-0.577755
0.475859
-0.338787
-0.019409
0.759220
-0.142960
-0.556176
-0.116751
-0.393351
-0.849679
0.951193
0.337972
-0.079546
-0.847464
0.344755
-0.859921
0.492457
0.557374
-0.733911
0.338341
-0.631462
0.068864
-0.546674
-0.482604
-0.448080
0.677379
0.030769
-0.497890
0.381126
-0.884548
-0.378043
0.803371
0.591311
0.283170
-0.216038
0.350530
-0.859789
0.227786
-0.766221
-0.253141
0.378107
-0.815028
-0.915168
-0.701440
-0.662492
0.429587
-0.561361
0.829966
-0.013039
-0.295271
0.168306
0.355499
0.773592
0.621632
0.872895
-0.674487
0.299011
-0.096336
-0.172378
-0.319863
0.019116
0.449579
-0.516492
-0.389574
-0.267250
0.267470
0.960957
-0.127040
-0.504744
-0.805264
0.619820
0.873362
-0.620292
0.704651
-0.828077
-0.282784
0.134238
-0.389438
-0.452818
-0.878801
0.315291
0.715488
0.476698
0.088884
0.337120
0.349593
0.414396
-0.363869
-0.746743
-0.757982
0.316269
0.272372
0.691598
0.799777
0.882799
-0.575653
0.067246
0.843755
0.297307
0.562502
-0.961509
-0.082873
0.435864
-0.581801
-0.378222
0.607787
0.135415
0.756016
-0.781650
0.682597
0.877215
0.533641
0.398085
0.353913
-0.377476
-0.264794
-0.296494
-0.963080
0.371337
-0.043237
-0.721061
-0.312394
-0.770864
0.970536
-0.512618
-0.888066
-0.605117
0.554629
0.955690
0.692191
0.117131
0.994181
-0.390683
-0.447005
-0.587620
0.231095
-0.839218
0.547795
-0.012888
-0.620868
0.230392
-0.135673
0.912772
-0.371523
-0.781760
-0.464704
0.363682
-0.078254
-0.427783
-0.264981
0.878510
-0.148845
0.422625
-0.892355
-0.178308
0.910007
-0.780420
0.216575
0.464636
-0.824731
-0.091235
-0.418234
-0.830550
0.518083
0.134761
-0.418171
-0.250822
0.295543
-0.870376
0.736290
0.674675
0.360016
-0.399383
0.587447
0.988493
-0.181143
-0.877256
0.352175
0.740603
-0.305040
-0.912806
0.619112
0.546116
0.509819
0.726758
-0.632193
0.419827
0.946337
0.584382
-0.115538
-0.878394
-0.506852
0.466229
-0.708944
-0.988770
-0.399010
-0.127115
-0.239591
0.896533
0.002509
-0.503301
0.571208
-0.637475
0.097315
0.158655
-0.648982
0.916172
0.281399
0.703193
0.656775
0.976359
0.790388
0.275887
0.522474
0.300207
0.002645
0.890282
-0.279966
-0.051018
0.474664
0.604496
0.070589
0.967811
0.070725
0.361645
0.979042
0.671715
-0.765470
-0.260550
0.568248
0.237040
0.236149
0.139456
0.599565
-0.666536
-0.701889
0.950583
-0.750364
0.579509
0.653776
0.906411
0.555868
0.444164
0.182298
0.078342
-0.255629
-0.815057
-0.031376
0.464405
0.133925
-0.556712
0.068901
-0.795487
-0.588901
-0.860375
0.566158
-0.609860
0.811340
0.800688
0.129590
0.379588
0.037727
-0.634261
-0.480957
-0.362708
-0.300797
-0.182846
-0.412125
-0.051161
-0.603337
-0.758349
-0.144750
0.952531
0.685815
-0.962453
0.030874
-0.569814
-0.777510
0.999498
0.894590
0.356415
-0.557215
-0.036509
0.560928
-0.146116
0.103116
0.127086
0.244024
-0.085544
-0.072226
-0.626385
-0.705956
0.965501
-0.260646
-0.186912
-0.397207
0.438557
0.630242
0.190668
-0.612604
-0.973095
0.432320
0.242646
0.979436
0.118134
0.280193
0.010310
0.548320
0.502683
0.009808
0.442910
-0.140902
0.452593
-0.593599
-0.579975
-0.693523
0.509517
0.547111
0.550501
-0.576026
-0.525115
0.924116
-0.281982
-0.559614
-0.336531
0.531105
0.043179
-0.897973
0.161347
-0.766152
-0.510577
0.188252
0.666167
0.732069
0.167689
-0.215698
0.012262
-0.822001
-0.667378
-0.485055
0.187807
0.775532
0.374043
-0.359601
-0.818067
0.794068
-0.053124
0.691450
0.341179
-0.502623
-0.884576
0.816064
-0.578507
-0.166559
-0.743550
0.084962
-0.635453
0.299629
0.186989
0.525894
0.533477
0.676412
-0.285854
0.199645
0.408480
0.881835
0.983946
-0.579258
-0.940166
-0.683432
-0.064313
0.247640
-0.907900
-0.690270
0.888040
-0.725967
-0.896202
-0.165084
0.965483
0.444977
0.332293
-0.919093
0.261041
0.753786
-0.085652
0.517491
-0.161252
0.278895
-0.182880
-0.195211
-0.649403
0.702148
0.518935
0.550242
0.110629
0.400770
0.534188
0.531371
0.460604
0.850756
-0.532941
-0.291755
0.942856
-0.223211
-0.403715
-0.783111
-0.119414
0.431201
-0.817628
-0.674437
-0.236506
-0.736721
0.586604
-0.482720
0.177627
0.104095
0.356027
-0.543478
0.921215
0.381764
0.261311
-0.728187
0.083913
-0.219754
0.822054
-0.805458
-0.818983
0.356242
0.725913
0.641621
0.206999
-0.807028
-0.650134
0.149855
-0.030240
-0.053850
0.366744
0.850347
-0.622649
0.549117
-0.824090
0.140844
0.812395
0.762514
0.658124
-0.009978
-0.133391
0.014151
0.446544
-0.212176
-0.604084
-0.292146
0.059637
0.479828
0.488100
-0.118309
0.674370
0.669117
-0.762066
0.400283
0.310738
0.444932
0.593255
0.660603
-0.405213
-0.436985
-0.393246
0.961532
-0.586638
-0.015896
0.510649
-0.410729
-0.875051
0.323044
-0.648215
0.783073
-0.686934
0.218394
-0.202776
0.759610
-0.993782
0.193140
-0.532536
0.065855
-0.327032
0.955565
0.947546
-0.652662
0.624682
-0.814520
0.747621
-0.064581
0.630412
0.340875
-0.403977
-0.774801
0.903890
0.202776
-0.813269
-0.682748
-0.813119
0.697380
-0.093477
-0.688170
0.020424
0.258309
-0.905098
0.333490
-0.523297
-0.107874
0.093100
-0.517079
-0.914734
0.560564
0.548777
-0.241766
0.516129
0.496323
0.105572
0.140810
0.681803
-0.146807
-0.923770
0.312215
-0.805932
-0.327748
0.537414
-0.902041
0.875029
0.724146
-0.584789
-0.938090
0.421526
0.321734
-0.626261
-0.558050
-0.419957
-0.531359
0.775440
0.056746
0.360768
-0.131460
0.539667
0.446034
-0.570896
0.088444
-0.795732
0.945233
-0.415233
0.309839
0.086043
-0.733431
-0.836968
0.162273
0.578784
-0.642900
0.834525
0.116198
-0.544941
0.709554
-0.159657
-0.129731
0.771463
-0.738131
-0.807997
-0.854798
-0.296181
-0.227954
-0.386156
-0.520742
0.828791
0.974611
0.347798
0.368459
0.420645
0.776902
-0.543098
0.624912
0.722135
0.041669
-0.065248
-0.191822
0.308238
0.097784
0.970450
-0.112978
0.454884
0.804975
-0.996780
0.909942
0.514529
-0.156437
-0.219789
0.285992
0.105432
-0.027785
0.431195
0.809250
0.744260
-0.954962
-0.711491
0.573052
-0.980351
0.636307
-0.058490
0.440294
0.413209
0.398413
0.065207
0.135344
-0.559918
0.999958
0.943522
0.748320
0.097742
0.913973
-0.364659
-0.447374
0.718948
-0.361439
-0.537432
0.233477
0.482124
0.242780
-0.480531
-0.412444
-0.785006
0.950664
-0.603194
0.959255
0.995702
-0.314685
0.532307
-0.984649
-0.678378
-0.526183
0.455645
0.734832
0.872230
-0.479148
-0.129824
-0.687689
-0.479190
-0.186302
-0.939369
0.618552
-0.272329
-0.304027
-0.828822
-0.553381
0.334534
-0.366254
0.680096
-0.183342
0.876526
-0.800435
0.404214
-0.908479
-0.849771
0.801020
-0.949225
-0.854069
-0.513665
0.583082
-0.838717
-0.192042
-0.943101
0.616928
-0.457210
0.929129
-0.862221
0.412966
-0.758560
-0.341410
-0.773336
-0.697929
-0.722858
-0.045665
-0.001956
-0.551680
0.400954
-0.667423
0.082066
0.081050
0.149235
-0.041408
0.280615
-0.446552
0.050113
0.430844
-0.645531
0.100888
0.576776
-0.159196
-0.316030
0.738058
0.648762
-0.259131
0.354986
-0.808448
-0.330002
0.492766
0.604517
-0.088562
-0.848645
0.831181
0.213509
-0.571503
-0.214484
-0.788448
-0.123183
-0.813531
-0.455871
0.958883
0.267519
0.693364
-0.082525
-0.451866
-0.753187
0.967588
0.978978
-0.398719
0.068476
0.555754
0.442085
0.752446
0.293812
0.090847
-0.506685
-0.351202
0.282399
0.163313
-0.858436
-0.113084
-0.925249
-0.707081
-0.281903
0.288259
-0.278584
0.503613
0.499812
0.598233
0.690082
-0.956059
0.557115
-0.042400
0.737305
-0.525409
0.505734
0.984118
-0.557821
0.484713
-0.414601
0.510655
0.040467
-0.972516
0.263102
-0.665721
0.118331
0.756417
-0.016923
-0.599270
-0.080270
0.124641
0.287646
-0.005519
0.417560
-0.994257
-0.717260
-0.861024
0.509356
0.782552
0.737209
0.199437
0.826493
0.294324
-0.842962
0.563798
0.768915
0.662772
0.547916
-0.788906
0.147485
-0.866686
0.721749
-0.812048
-0.839201
-0.015150
-0.477769
0.279130
-0.258733
0.505308
0.679860
0.660998
-0.370051
-0.032493
-0.344522
-0.952490
-0.026750
-0.061781
-0.813514
-0.517395
-0.279230
0.923695
0.682043
-0.452737
0.218020
0.839080
-0.888939
-0.013065
0.501853
0.658977
0.198029
-0.350663
0.792291
-0.080223
-0.162711
0.953090
0.904628
0.359519
0.232220
-0.354105
-0.135172
-0.087919
-0.693107
0.494777
0.879587
-0.037629
0.542287
-0.147163
0.900590
0.728773
0.335442
-0.378639
0.652469
0.017485
0.168624
-0.129512
-0.143435
0.279685
0.857423
-0.641582
-0.061339
0.055451
0.007755
-0.269048
0.975229
0.845044
-0.315958
0.879857
0.204563
0.916262
-0.474248
-0.930609
-0.171657
-0.167355
0.564168
-0.292070
0.795017
0.106455
0.560767
0.695607
-0.164772
-0.103791
-0.683033
-0.512303
0.913694
0.485591
0.358185
-0.229741
-0.234724
0.215608
0.128677
0.703937
-0.728941
-0.863568
-0.565111
-0.753712
0.981476
0.118931
-0.873855
0.186039
0.035194
-0.348103
0.255430
0.863536
0.484543
-0.180402
-0.428534
0.279559
0.926053
-0.867767
-0.024834
-0.238719
0.028442
0.292133
0.248978
-0.057864
-0.222276
-0.392837
0.712394
0.543000
0.822770
-0.158929
0.246937
-0.906170
-0.022497
0.681827
-0.659882
-0.041022
-0.199242
-0.533737
-0.854983
0.835952
0.118161
0.400447
0.699488
-0.397296
-0.779955
-0.729046
0.882263
-0.853902
-0.596813
-0.142571
-0.092622
0.431629
-0.850437
-0.843644
-0.626235
-0.072713
-0.236481
-0.913841
-0.529713
-0.413711
-0.072770
0.717225
-0.319881
0.904733
0.399051
0.020237
-0.136289
-0.800190
0.486500
0.008729
-0.964238
-0.395339
-0.590824
0.735250
0.207365
-0.370779
-0.993796
0.089628
-0.224681
-0.590608
0.947057
0.682697
0.841021
-0.903381
0.839053
-0.785214
0.023906
-0.397428
-0.699055
0.494194
0.188861
0.228175
0.211418
0.868980
0.132908
-0.389530
-0.110783
0.996619
-0.189721
-0.624283
0.005348
-0.153959
-0.019622
0.414524
-0.418709
-0.812257
-0.956255
-0.412505
0.277371
-0.180937
-0.003114
0.224427
-0.498240
-0.162093
0.321047
-0.659186
0.052693
-0.655047
-0.056615
0.353637
0.839147
-0.867754
-0.418188
0.050565
-0.998775
0.714720
0.661035
-0.109558
0.711339
-0.528686
0.266159
-0.283313
0.317355
-0.753463
-0.868789
0.898646
-0.565720
-0.825044
-0.513859
0.711650
-0.005981
0.483027
-0.063922
0.495780
-0.679065
-0.742876
0.836593
0.373627
-0.397922
-0.220022
-0.272735
-0.558776
-0.087776
0.309077
0.491790
-0.086550
0.023798
0.152825
0.803892
-0.264863
0.624139
0.070050
0.451824
-0.058506
0.316587
0.583035
-0.159860
0.750867
0.757991
0.326281
0.462518
-0.247989
-0.190691
-0.601405
-0.752210
0.130243
-0.344280
-0.915616
-0.496129
0.257797
-0.135638
0.231135
0.699022
0.776587
-0.459787
0.190811
-0.309964
0.564010
-0.656364
-0.506072
-0.700853
0.967775
0.563978
0.750972
-0.090731
-0.119434
0.334007
0.749410
-0.368567
0.091999
0.075691
-0.906049
0.844009
0.884999
-0.507454
-0.908200
0.015243
0.148266
-0.823816
0.519113
-0.593937
0.040546
-0.249751
-0.894915
-0.182867
0.290462
0.295896
0.507169
-0.145528
0.639532
-0.998903
0.153619
0.607307
0.565075
-0.095409
-0.483424
-0.554359
-0.761402
-0.734014
0.077074
0.330597
0.341676
0.171025
0.174606
0.226676
0.663571
0.266406
-0.758081
-0.188163
0.442590
0.761032
0.217900
-0.516864
-0.488719
0.322985
0.300268
0.801742
-0.381119
-0.192563
-0.343786
-0.741587
-0.191466
0.809833
0.865720
-0.626391
-0.285576
-0.617704
-0.180751
-0.046977
-0.351719
0.896324
-0.716381
0.989958
0.067348
0.458226
0.216634
-0.269080
-0.275368
0.458552
0.542756
-0.832779
0.219584
-0.239343
-0.349643
0.730865
-0.916358
0.950625
0.532607
-0.297477
-0.241938
-0.811179
-0.039064
0.566595
0.998655
-0.173345
0.940204
-0.286921
0.208951
-0.240547
0.666102
0.857233
-0.344223
0.949721
0.847190
0.723125
0.407947
0.063824
-0.545955
-0.867422
-0.477623
0.996801
-0.700201
0.741961
-0.242542
-0.049844
0.472826
-0.158901
-0.099219
0.005433
0.543622
0.658842
0.194255
-0.495443
0.225438
0.192910
0.331213
0.165641
0.905989
-0.459836
0.925094
0.572091
-0.602604
-0.419129
0.521812
-0.755413
-0.696004
-0.070242
0.308411
-0.241959
0.062337
0.830788
-0.245158
0.362136
0.572749
0.512300
-0.687708
0.045575
-0.646601
0.213073
-0.948992
0.897021
-0.128085
0.245263
-0.598422
-0.902648
-0.561827
0.732791
0.262994
-0.655838
-0.727045
0.188088
0.916253
-0.329649
0.768959
0.438065
-0.085062
-0.927044
-0.632177
-0.776651
-0.169003
0.430160
-0.945864
0.585839
-0.207705
0.626885
0.098139
0.104587
-0.327540
0.451538
-0.682340
-0.276532
0.348559
0.189575
0.968731
0.750137
0.286927
-0.593096
0.482928
-0.450079
-0.248934
0.755883
0.738009
-0.332681
-0.573766
0.506968
-0.894616
0.341172
0.579924
-0.526793
0.564520
-0.589080
0.903366
0.618657
0.996759
-0.304338
0.245542
0.094898
0.800249
0.918001
-0.453564
-0.882091
-0.358530
0.894995
0.307484
-0.389799
0.645132
-0.405589
0.017105
0.128060
0.144331
0.768172
-0.116057
-0.117660
-0.564509
0.310177
-0.459126
-0.348651
0.969232
0.014081
-0.784131
-0.619848
-0.082553
0.834525
-0.623088
0.613109
0.080067
0.471809
0.413358
-0.001932
-0.981755
0.531267
0.639538
0.913240
-0.161250
-0.750261
0.558372
0.433161
0.266844
-0.313568
-0.422508
0.035016
0.570375
0.459832
0.470507
-0.119448
0.849140
-0.988619
0.531901
0.818372
0.025462
0.747770
-0.801475
0.942909
0.582295
-0.424564
0.556018
-0.337638
-0.952754
-0.030625
0.660431
-0.934509
-0.499358
0.299969
0.978731
0.339392
0.549708
0.537103
-0.227448
-0.183448
-0.776464
0.350044
0.851568
0.793911
-0.190123
0.322075
-0.325536
-0.340983
0.333456
-0.793635
-0.522611
-0.641082
0.954135
-0.324086
-0.698174
0.536430
0.251350
0.857844
-0.801208
0.298596
-0.172781
0.859223
0.364087
0.327861
0.159192
0.342818
-0.332747
-0.291101
-0.120078
0.439805
0.525451
0.103457
-0.210150
0.377019
-0.102631
0.599726
-0.300906
0.571832
-0.741257
-0.967451
0.778197
-0.263867
-0.608533
0.732332
0.412047
-0.306707
0.268761
-0.336603
-0.448863
0.467554
0.961993
0.378357
0.326776
0.326080
-0.293782
-0.514032
-0.331101
0.373471
0.194867
0.548821
-0.186724
-0.279682
-0.347722
0.603126
-0.902662
0.549647
0.202853
-0.203569
0.121479
0.461596
-0.171019
-0.100324
-0.802271
0.220448
-0.367993
0.609775
0.913741
0.900769
-0.726827
-0.535121
0.368322
-0.764834
0.843235
-0.304901
0.561246
-0.450547
0.181067
-0.769855
0.922924
-0.624066
0.778966
-0.263800
0.096252
-0.568756
-0.660673
0.193590
0.980890
0.542179
0.990022
0.102369
0.003775
-0.180998
-0.997955
0.201504
-0.960550
-0.365948
-0.188720
0.953192
-0.465179
0.084452
-0.581930
0.903143
0.319618
-0.738694
-0.401758
-0.119136
-0.189241
0.779309
0.111009
-0.266317
-0.844757
-0.110025
0.469884
0.251495
0.321219
0.809210
-0.554914
0.302109
0.351390
-0.564893
-0.595521
-0.644835
0.254110
-0.593476
0.556669
0.293560
0.040576
-0.632051
0.246752
0.575397
0.452401
0.664822
0.478541
-0.227981
0.926128
-0.923217
0.652884
-0.263113
0.856092
-0.236107
0.470570
-0.988665
0.653868
-0.059546
0.262830
-0.024913
-0.250336
0.707916
-0.722804
-0.898947
-0.856977
-0.318325
-0.543782
0.397133
0.088199
-0.987112
-0.309307
-0.871225
-0.619163
0.937444
0.704172
0.833238
0.602266
0.182713
-0.394743
0.528394
0.259496
-0.741859
-0.734719
0.115588
0.022033
0.735851
0.126923
-0.324099
-0.323695
-0.610246
0.650988
0.425969
-0.902331
0.928185
0.527022
-0.759307
-0.390140
0.983240
0.637825
0.698059
0.996128
-0.671482
0.826834
-0.623035
-0.734038
0.531006
-0.789798
0.868229
-0.286281
-0.184541
0.396623
0.973215
0.073600
0.661904
0.088803
-0.904367
0.397755
-0.784274
-0.228465
-0.925940
-0.394520
-0.577477
0.500029
-0.296851
-0.649292
0.027051
-0.056158
-0.039432
0.010291
-0.418333
-0.341374
0.006419
-0.089815
-0.514540
0.383384
0.176147
-0.983534
0.593586
0.044376
-0.269815
-0.590955
-0.559001
-0.296600
0.482645
-0.897098
0.792203
0.578279
0.500658
-0.992071
-0.650187
0.574718
-0.386591
-0.227664
0.074746
0.316558
0.123044
-0.898203
-0.739600
-0.916388
0.112088
-0.157933
-0.257762
-0.881493
0.752252
0.227698
0.501891
-0.071601
0.244163
0.095477
0.972774
0.974348
0.504522
-0.586227
-0.322253
-0.012833
-0.483324
-0.530050
-0.434554
-0.982667
-0.522121
-0.084741
0.592051
0.091288
0.687596
-0.333203
-0.592155
-0.189360
-0.231406
-0.331755
-0.105749
0.880682
0.510312
0.636489
0.999189
0.262563
-0.135813
0.501080
-0.809038
-0.891650
-0.403444
-0.836263
-0.917302
-0.898921
-0.422490
-0.239555
0.088246
0.094185
0.230395
0.653692
0.111518
0.708274
-0.431049
-0.296431
-0.200438
-0.743453
0.370366
0.207407
0.067187
-0.861040
0.875652
0.961438
-0.980359
0.385964
0.597927
-0.981170
-0.351472
-0.537886
0.519910
-0.160510
-0.429535
-0.883534
0.003226
-0.346837
-0.782455
0.580736
0.413608
0.305791
-0.325079
-0.355997
-0.040517
0.786439
-0.647722
0.528435
-0.509992
0.151839
0.784982
0.860374
-0.640753
-0.147832
0.999334
-0.765101
-0.186394
-0.981025
0.620863
-0.588466
-0.962194
-0.730609
-0.126352
0.557716
0.108881
0.444113
0.674182
-0.887893
-0.902724
0.891727
0.692843
0.510883
0.197518
-0.632236
-0.845113
-0.842999
-0.845797
-0.492836
0.685436
-0.355789
0.659004
0.470417
-0.495414
-0.981749
-0.677415
-0.496081
-0.746850
0.136192
-0.477105
0.874013
0.547726
-0.439300
-0.856596
-0.578626
-0.881584
0.252285
0.865487
0.792598
0.364392
0.962762
0.684325
0.057235
0.473646
-0.118157
0.424998
0.628533
0.038844
0.579202
-0.864303
-0.275721
-0.776587
0.794701
-0.805304
-0.272001
0.812952
-0.482718
0.231918
-0.933899
0.653474
0.754813
0.940115
0.201199
-0.684487
-0.916481
0.622573
-0.566071
0.335804
0.488060
-0.773473
-0.299804
0.450822
0.910852
0.757430
-0.075532
-0.207306
0.182429
-0.446999
0.831538
-0.238370
-0.311302
-0.444183
-0.014957
-0.516601
-0.249486
0.713042
-0.703650
0.267796
-0.055040
-0.637548
-0.078731
-0.300228
-0.697434
-0.877532
0.015285
-0.613915
0.745041
0.449215
0.721889
0.233101
0.675741
-0.577915
-0.316076
0.586593
-0.820485
0.608392
-0.620713
0.361943
-0.838607
-0.789175
-0.876426
-0.149909
-0.233357
0.108617
0.333490
0.517156
-0.178341
0.629840
-0.215048
0.766618
0.992292
0.706221
-0.533609
-0.705142
0.828690
0.481676
-0.319056
0.573731
-0.069109
-0.597167
-0.193167
-0.393368
-0.175083
0.490756
-0.806775
0.004432
0.099149
-0.427488
-0.633625
0.260542
-0.216662
-0.510051
-0.889368
0.549980
0.598565
0.444122
0.067137
-0.579776
0.073962
0.852089
-0.813158
0.066254
0.558310
-0.346767
0.361112
0.387000
-0.865091
-0.957944
-0.039269
0.065799
-0.555111
0.767564
0.672431
0.269806
0.258320
0.865656
-0.725762
-0.642531
-0.561831
-0.359387
0.618010
0.221506
0.130561
0.728643
-0.228513
-0.270873
0.172765
0.838624
0.149351
-0.753273
0.690713
0.336193
0.312981
0.249023
0.989426
-0.325906
-0.363977
-0.875665
-0.283850
0.596754
0.190134
0.161038
0.364318
-0.137434
-0.569156
-0.377361
-0.271778
-0.294919
-0.019892
0.166391
0.345694
-0.401882
-0.612103
-0.523744
-0.673239
0.159384
0.205383
0.499526
-0.001992
-0.645267
0.746253
-0.311279
0.690927
0.059235
0.937744
0.680352
0.733328
-0.426233
0.804687
-0.550522
-0.829478
-0.005178
0.610516
0.534840
0.857387
-0.958640
-0.842521
-0.414391
-0.253559
0.137586
0.752000
-0.907865
0.735704
-0.860103
-0.431609
-0.937535
0.299282
0.773773
0.561991
-0.702710
-0.871493
0.308244
-0.013989
0.819433
-0.632521
-0.076245
0.499786
-0.899193
0.497522
0.304473
-0.449714
0.668043
-0.700705
-0.839198
0.202883
-0.843318
-0.797838
0.360362
-0.257709
-0.051397
-0.502052
-0.505709
0.040738
-0.766348
-0.365811
0.609129
-0.703882
0.933470
0.382903
0.858109
-0.769240
0.511410
0.166353
0.216771
0.330843
0.533832
-0.859475
-0.169371
0.634640
0.638047
-0.864898
-0.815075
0.306090
-0.565603
-0.654273
-0.491026
-0.408921
-0.452112
0.869336
0.333370
0.496491
-0.632716
0.827661
-0.462770
-0.399063
-0.538150
-0.853641
-0.102946
-0.604680
0.529262
-0.244837
-0.373920
0.040671
0.921516
0.842851
-0.628485
0.455348
0.983376
0.202144
0.089987
0.621423
0.337246
0.274913
-0.072487
0.771643
0.620639
0.436487
-0.637278
-0.831472
0.305823
0.696092
0.665019
0.673107
0.523754
-0.797751
-0.725956
0.985604
-0.651392
0.171098
-0.619076
0.877870
0.926260
0.007004
-0.081459
0.847776
-0.150145
0.290055
0.303124
-0.166769
-0.507801
-0.606889
-0.545345
0.829445
0.668024
0.382168
0.601088
0.288663
-0.181345
0.963810
0.457191
-0.875522
0.659902
0.122210
0.797585
0.183656
0.324459
-0.928371
0.169259
0.673067
0.242726
0.550183
0.550936
0.168987
-0.442812
-0.530523
0.016763
0.407043
0.759533
-0.680113
-0.759725
-0.748268
-0.287002
-0.305071
-0.918823
-0.618978
-0.922903
0.682265
0.669686
-0.104248
0.646075
0.126877
0.020230
0.305977
-0.750913
-0.182185
-0.510367
0.573546
-0.110557
0.658892
0.246613
-0.867830
0.209075
-0.202450
0.301156
0.766263
0.267027
-0.682081
0.173306
0.026560
-0.362194
0.413581
0.278291
0.350804
-0.891490
0.359468
0.731826
-0.814393
0.041733
0.401512
0.081359
-0.312193
-0.471611
-0.898411
0.993784
-0.222524
-0.080597
-0.516583
-0.648977
0.808847
-0.857691
0.597636
0.941017
0.351384
-0.604815
0.242173
0.117647
0.662212
0.560092
-0.709047
-0.311228
-0.802103
0.704534
0.967063
0.548701
0.813043
0.326531
0.280528
0.998650
-0.631736
-0.317960
0.080009
0.056071
0.210429
0.181597
0.049855
0.987906
-0.898999
0.533272
-0.661072
0.909847
0.675581
0.936564
0.850864
0.026965
-0.668250
0.093037
-0.855388
0.993962
-0.346872
-0.564435
-0.317266
-0.148974
-0.859901
-0.350203
-0.600273
0.953142
0.976329
0.680255
0.951792
-0.655407
-0.637705
0.031801
0.400664
0.572724
-0.786602
-0.549481
0.560630
-0.685601
0.983792
0.899558
-0.775754
0.659373
0.836122
-0.924890
-0.313662
-0.832128
0.168147
-0.169050
-0.838167
0.821275
0.266515
-0.155433
-0.327699
0.406614
0.494365
0.072028
0.470693
-0.247717
0.311549
0.815286
0.114578
-0.656650
0.215949
-0.312697
-0.443252
0.666469
-0.752067
-0.128854
0.650260
-0.852509
0.095392
0.309633
0.983613
0.170503
0.995971
-0.848515
-0.661351
-0.173080
-0.686682
-0.840076
-0.906565
0.157885
-0.167775
0.500049
-0.347750
0.904253
-0.140195
-0.877057
-0.343464
-0.828646
0.938229
0.771115
-0.485297
0.154178
-0.541582
0.071451
-0.179353
-0.293649
0.942597
-0.529093
-0.146159
0.037990
0.780540
-0.162546
-0.791508
0.776511
-0.011061
-0.452858
-0.396569
0.302257
-0.292934
-0.303134
-0.539857
0.539291
-0.803085
0.112393
0.443544
0.056720
0.235336
-0.899919
0.228073
0.173564
0.871196
0.742776
-0.672258
-0.670387
-0.185773
0.148389
0.035964
-0.243175
0.619297
0.889805
0.794814
0.399837
-0.272740
-0.996693
0.176348
0.716199
-0.449551
0.779779
0.018456
0.257514
-0.523355
0.478598
-0.203194
-0.326440
-0.409009
-0.759650
0.730279
0.826327
-0.659570
-0.041647
-0.000109
-0.788374
-0.298871
0.327634
-0.458761
0.515356
-0.523977
0.577203
-0.727819
-0.904680
0.467008
-0.933005
0.495157
-0.805732
-0.929698
-0.328495
0.910466
-0.379249
-0.548716
-0.071078
0.878265
-0.072071
-0.592479
-0.324929
0.601489
-0.001488
-0.084580
0.331769
-0.175162
0.255851
-0.709879
0.824730
0.467477
-0.008750
0.152363
-0.991284
-0.493394
0.628386
0.585919
-0.221213
0.723706
0.052927
-0.154217
0.218863
0.247194
-0.083915
0.890368
0.157661
0.536836
-0.658348
-0.913417
0.415101
0.269582
-0.505897
-0.909829
-0.128929
0.492615
0.005592
-0.797160
-0.682547
-0.738558
-0.507039
-0.857817
0.728919
0.484211
0.294546
0.737635
0.990818
-0.077068
0.323554
-0.230395
-0.353362
-0.623520
0.615388
0.865501
0.623675
-0.468527
0.755869
-0.218665
-0.931692
-0.902479
-0.132082
0.483409
0.367103
0.362021
0.573580
-0.761826
-0.145364
-0.420828
-0.558986
0.172089
-0.159386
-0.066025
0.314272
-0.430467
-0.581814
-0.391182
-0.692832
-0.590996
0.531750
0.630722
0.178609
-0.821611
-0.992798
-0.206004
-0.956110
0.630877
0.325469
0.799759
-0.587788
0.393777
0.897280
0.280130
-0.122814
0.264383
-0.357849
-0.549234
0.502557
0.496787
0.029937
0.943570
-0.331124
0.870551
-0.122455
0.983148
-0.559915
0.295731
-0.408034
-0.252747
0.704735
-0.876283
-0.622026
-0.116657
-0.697895
-0.614824
0.677340
-0.654005
-0.983947
0.002809
-0.854246
-0.571735
-0.603414
-0.956966
0.708394
0.273771
0.307417
-0.649455
0.724537
-0.190026
0.847331
-0.245526
-0.246456
-0.483793
-0.374974
0.631089
-0.500645
0.065110
-0.073180
0.091321
0.812363
-0.368446
0.215038
-0.809662
0.514898
0.517143
-0.424486
0.192237
0.863138
-0.408433
-0.804954
-0.991108
0.019832
-0.408368
-0.948075
-0.271774
0.865403
0.359342
0.078771
0.589940
-0.830684
-0.073898
-0.655586
-0.077140
0.442309
-0.030560
-0.446051
0.941664
-0.965450
0.480769
0.032986
0.846913
-0.887677
-0.751976
-0.962749
0.627221
0.765167
-0.387235
-0.180542
0.628305
0.204332
0.014504
0.637197
-0.775837
0.606136
0.689122
-0.047611
0.471539
0.048464
-0.968840
0.061478
0.217780
-0.042739
0.405893
-0.859361
-0.600429
-0.624668
-0.305412
-0.658765
-0.590117
-0.824644
0.374221
-0.743204
-0.712320
0.622244
-0.705953
0.914900
0.387411
-0.093188
-0.265641
0.015716
-0.888856
0.748863
-0.347087
-0.664693
0.354998
-0.657966
0.287696
-0.173463
0.390498
0.318856
0.888016
-0.391722
-0.723883
0.293908
-0.251083
-0.324312
0.669241
0.443505
0.016923
-0.920877
0.618861
-0.608857
-0.664081
0.906541
-0.986613
-0.370034
0.821441
0.400799
0.536778
-0.444200
-0.583485
0.647922
-0.695337
0.069427
0.983229
0.659661
0.411461
0.270925
-0.513802
-0.198040
-0.410220
-0.625786
0.410238
-0.134103
0.668122
-0.840845
0.541585
0.337362
0.602660
-0.441492
0.416486
0.221521
-0.050349
0.752405
0.128062
-0.036962
-0.617629
-0.050497
-0.636163
0.919148
0.505303
-0.219648
0.567070
0.809966
0.849779
0.550299
0.469627
0.261240
-0.178777
0.955825
-0.936800
0.411004
-0.669961
0.473438
-0.723099
0.998161
0.632592
0.818486
0.335523
0.235252
-0.623006
-0.247991
-0.543227
0.326645
-0.495587
0.584835
-0.710316
-0.113216
-0.465662
-0.346479
-0.194068
-0.960359
0.433872
-0.626998
0.849607
0.283651
0.923301
0.319234
-0.455109
-0.255476
0.275058
-0.391909
-0.844472
0.605097
-0.918472
-0.567571
0.603258
0.714121
-0.749085
-0.061219
-0.050627
-0.372091
0.690789
0.406146
0.954554
-0.804797
-0.009019
-0.755762
0.081987
0.525319
-0.102242
0.887919
0.564961
-0.668369
-0.739078
0.414567
0.615281
-0.815777
-0.266199
-0.839828
-0.071253
-0.991141
-0.231737
0.084275
0.613957
-0.150209
0.516704
0.217214
-0.436088
0.767619
-0.844005
0.513285
-0.604471
0.846785
-0.080569
-0.649917
-0.958013
0.910412
-0.405679
0.123974
0.435732
0.492079
0.011894
0.000692
0.823710
0.272815
-0.584740
0.438991
0.457038
0.149061
0.599163
-0.614215
0.157920
-0.632574
0.470060
-0.228123
0.217217
-0.013236
0.989091
0.781129
-0.245617
-0.854914
0.294415
0.149912
0.991871
-0.786154
0.499995
-0.966142
-0.875742
-0.905685
0.157833
0.559990
0.586395
-0.830274
-0.439318
0.410104
0.442541
-0.024058
-0.150905
-0.100421
-0.874998
-0.551742
0.285364
0.282923
-0.184316
-0.244576
-0.945201
-0.967098
0.742188
-0.956109
0.814031
-0.503429
-0.811023
0.108445
0.646483
-0.819152
0.322291
0.146477
-0.785294
0.446549
0.240793
0.372539
0.006539
-0.172813
0.542265
0.567221
-0.762708
-0.015193
-0.456838
0.086387
0.884386
-0.331835
0.534645
0.169751
0.951087
-0.649671
0.925175
-0.994113
-0.616769
0.667363
-0.950223
-0.802738
-0.836066
-0.761246
0.305707
0.810417
-0.580398
-0.372001
-0.043105
-0.365691
-0.925452
-0.802313
-0.993152
0.081087
0.024875
0.549113
-0.351692
0.262166
-0.466080
0.191470
-0.651447
-0.581694
0.859635
0.883198
0.588056
0.810722
-0.766473
0.513231
0.816609
-0.383242
0.180594
0.866386
-0.185980
0.344528
-0.894859
-0.880272
0.154945
-0.475257
-0.252273
-0.888160
0.159052
-0.177725
-0.690473
0.165899
0.903361
0.334402
-0.284988
-0.448331
-0.403432
0.248932
0.743139
-0.054879
0.667238
0.602774
-0.171681
0.255294
0.413497
0.061846
-0.231475
0.230106
0.678605
0.949119
0.096492
-0.507375
0.293647
0.201633
-0.387647
-0.551407
0.726376
0.360079
