-1.250759
-0.250866
-0.012272
-0.587247
-0.258450
-2.181350
1.290233
1.183324
0.619156
-0.672765
0.282358
-0.388536
-1.110173
-0.285501
-0.686055
0.977433
-0.329850
0.951223
-0.401536
0.189340
0.459445
-0.078035
0.327377
0.352884
1.301316
-0.051914
1.397379
0.602720
-1.603404
0.032964
0.416358
0.737291
-1.228641
-0.346332
1.293129
2.764695
-0.387232
-1.179659
-0.413276
0.594992
0.330821
0.397168
-0.966485
0.136140
-1.545249
-1.770693
-1.367247
-0.147360
-0.116757
0.798330
0.542734
-1.153158
0.403007
0.958750
1.174438
0.610666
-0.695816
1.487895
-1.203914
-0.048008
0.778549
-1.386814
0.176492
0.261069
0.717407
-0.448229
-0.274532
0.879699
0.869328
-0.444222
0.907519
-0.331411
-0.391279
-0.839013
-0.956624
-0.113220
0.135414
-0.423207
-0.211874
0.031075
-0.733918
0.509885
0.430003
-0.889742
0.240619
0.063491
0.913851
0.188011
-0.046293
0.365360
0.458376
-0.824227
0.895289
-0.708961
0.854717
0.612697
-0.157190
-0.419815
0.492395
-0.287862
0.135963
0.399915
0.380727
0.744684
0.560902
0.424102
-0.368536
-0.303684
-0.999104
0.419591
0.727391
-0.733022
-0.070524
0.157394
-0.622764
-0.829905
-0.779115
-0.708913
0.358106
0.174592
0.656447
-0.183518
0.350365
0.551736
0.107521
0.205082
0.164433
0.950331
-0.329442
-0.320087
-0.062265
-0.933143
-0.921345
-0.271797
0.650129
0.539420
0.300070
-0.677143
0.475318
-0.269021
-0.952835
0.740941
0.649016
0.193220
-0.834405
0.837405
0.444948
-0.586426
0.213273
-0.335868
-0.931103
1.013737
0.996352
0.658622
0.132448
0.206940
-0.172131
0.112266
-0.003408
0.480717
0.725721
0.874284
0.512631
0.762808
-0.441550
0.139438
0.251499
0.842791
0.460109
-0.235741
-0.417441
0.514548
-0.550814
-0.780953
-0.306256
-0.455976
1.013958
-0.890109
-0.028152
0.176223
-0.318056
0.006417
0.171927
-0.350320
-0.293316
-0.626426
0.861996
0.464127
0.425586
-0.210380
-0.087433
0.105384
-0.688436
-0.221087
0.082679
0.418891
-0.999144
-0.097861
-0.159822
-0.309006
0.438568
-0.697183
0.116303
0.621443
-0.035799
0.654021
0.620857
0.045216
-0.404766
-0.205083
0.720453
0.596388
0.960105
-0.659723
-0.790780
-0.776057
-0.890229
0.598163
0.536761
-0.185799
-0.579955
-0.438971
0.374799
-0.268391
0.339942
-0.542522
-0.849500
0.340798
0.359617
-0.009322
-0.968208
-0.201814
0.293495
0.148096
-0.580372
-0.742304
-0.197883
-0.959515
0.302912
0.397350
-0.164598
0.023365
-0.006262
-0.204493
0.363642
0.202958
0.019450
0.473413
-0.198878
-0.443789
-0.712386
0.221167
0.117240
0.662413
0.952776
-0.542818
-0.929605
0.769185
0.455531
0.067150
0.701950
-0.823828
-0.714050
-0.110121
-0.333494
-0.364431
0.750414
-0.270643
0.940963
0.167613
0.576091
-0.027703
-0.864355
-0.625454
-0.750735
0.315305
0.319068
0.708195
-0.922063
0.829279
-0.991136
0.339399
-0.047292
0.672309
0.232184
0.385730
0.732412
0.307667
0.274386
0.336978
-0.472928
0.141269
0.570761
-0.107900
-0.928785
-0.696233
0.499101
0.826460
0.020566
0.462094
0.042541
-0.380444
-0.529091
0.231898
-0.032704
-0.207994
-0.414186
-0.622514
-0.378182
-0.192365
-0.663084
-0.262453
-0.969140
0.251132
-0.666228
0.373382
-0.215511
-0.775413
-0.125388
-0.911253
-0.206110
-0.671719
-0.512649
-0.919610
0.411952
2.278118
-0.211207
-1.217011
-0.869449
0.457506
-0.535732
0.984133
-0.116326
1.213993
-2.077856
-1.270758
-0.340824
1.532594
0.505142
-0.629046
2.081649
-1.338148
-0.816267
0.089498
-0.518378
-1.406411
1.496296
-0.368088
0.512246
-0.738774
0.223031
2.486292
1.143659
0.957327
1.034174
0.363523
0.757367
0.586275
-0.857353
-0.881457
1.183109
-0.043395
-1.906781
0.353566
-0.199823
-1.426024
0.138080
1.080258
-0.607167
0.153008
1.550441
0.488460
0.021843
1.235600
-0.033723
0.401894
-1.906659
0.614430
-0.683162
-1.219812
-1.001401
-0.290340
0.895929
-0.032484
0.539878
-0.779495
0.562933
0.551293
-0.710001
-0.693407
0.148474
-0.141015
-0.533750
-0.170181
0.180274
0.054549
0.428784
0.880706
-0.527694
0.587301
0.762273
0.064713
-0.956605
0.023292
-0.761421
0.293593
0.211167
-0.080490
0.712815
0.325682
0.349891
0.033885
-0.087061
-0.081342
-0.374783
-0.547182
0.139164
-0.811849
-0.995889
0.429164
-0.505255
0.152586
-0.711850
-0.039005
0.982405
0.468425
-0.984456
0.411189
0.349131
-0.512150
-0.001509
0.111406
0.552564
0.041887
-0.865302
0.791143
-0.664518
0.345866
-0.289346
-0.951701
-0.328453
-0.939455
0.082183
0.584489
-0.020796
0.707401
-0.962693
-0.881631
-0.986380
0.532936
-0.615326
0.178670
0.750838
0.331576
0.147953
0.266806
0.413295
-0.450648
-0.381621
0.882112
0.547278
0.761013
0.414276
-0.386374
0.989313
0.066431
-0.046073
0.355532
0.859885
0.015047
0.783477
0.756995
-0.889956
0.446037
-0.062230
0.894952
0.498889
0.103601
0.687084
0.659869
-0.452040
-0.884317
-0.219188
-0.587609
0.433258
0.936686
0.782202
-0.251317
-0.627610
-0.589080
-0.288237
-0.938970
-0.931938
-0.993580
-0.423848
-0.987462
0.312117
0.556905
0.210033
-0.058713
-0.341747
0.169076
0.097261
-0.111676
-0.288434
-0.866619
-0.288658
-0.690261
0.158369
-0.686191
1.022021
0.855412
-0.399019
-0.798189
0.823456
-0.450069
0.838378
-0.466729
-0.019879
-0.724553
0.289470
0.230624
-0.454731
0.369697
0.985995
-0.371945
-0.359144
0.709545
0.822889
0.742448
-0.655550
0.122011
-0.126691
0.146370
0.824458
-0.071316
0.735197
-0.883718
-0.906873
-0.888523
-1.059650
0.836809
-0.524736
-0.473758
-0.821868
-0.572684
0.217880
-0.815032
0.022964
-0.683092
-0.493035
-0.624966
0.512245
0.048303
0.713889
0.525943
0.733221
-0.586112
0.256065
0.690000
-0.769926
0.682172
-0.119744
0.186891
-0.042299
-0.186279
-0.753689
-0.119747
-0.211671
-0.701249
-0.120543
-0.134457
-0.697171
0.503494
0.578895
-0.478890
-0.032180
-0.121507
0.217572
0.335917
0.426253
0.570818
-0.098678
-0.450592
0.424189
-0.462011
-0.615888
0.845603
0.854221
-0.881011
-0.886958
0.601699
-0.020335
0.293136
-0.426548
0.812661
0.550067
0.443930
-0.183301
-0.934453
-0.487779
0.874106
-0.471939
-0.812468
0.586510
0.179991
-0.708472
-0.425834
-0.873116
0.566340
0.973870
0.600291
0.203997
-0.090677
-0.788136
-0.368131
0.464025
-0.405821
-0.492818
0.308006
-0.262632
-0.379785
-0.054947
0.746700
0.952604
0.514605
0.591121
0.540779
0.018243
-0.539817
0.652051
0.551772
-0.676337
-0.877618
0.704898
-1.016148
0.387224
-0.931959
-0.367913
0.527486
-0.295943
0.280386
-0.064366
0.624165
0.202867
0.630413
0.073331
-0.855406
-0.884234
-0.547908
-0.282364
-0.356756
0.364777
-0.483127
-0.201860
0.026765
-0.692414
-0.595283
-1.281824
-0.345316
0.811631
0.508805
0.135300
-0.869587
0.446321
0.313601
0.620821
0.576033
1.187145
0.368479
0.335825
-0.689667
-0.620114
-0.858811
-0.881851
0.837733
0.733955
0.382840
-0.995483
0.847918
0.692842
0.057381
-0.604386
0.524258
0.482307
0.451631
-0.586176
0.766733
0.765286
-0.730887
-0.614000
0.636587
0.760638
0.370890
0.821769
0.182781
-0.381373
0.651219
-0.294359
-0.421026
-0.129757
1.110528
0.211174
0.317189
0.331556
0.223054
-1.079654
-0.257350
0.400467
0.797029
-0.484730
-1.025678
-0.372713
0.785665
0.689248
-0.811670
-0.868958
0.172482
-0.889621
-0.495902
0.830554
0.953347
-0.987749
-0.074935
0.602282
0.503404
0.412570
0.410455
-0.897139
-0.908349
-0.958319
-0.830817
0.415899
0.615088
-0.612021
-0.292901
-0.031027
-0.634247
0.756240
-0.801230
-0.425759
-0.751018
-0.445480
0.294814
-0.608394
0.763280
0.694465
-0.703026
0.032973
0.411486
-0.100236
-0.195355
0.412269
0.348061
0.947376
0.332367
-0.212882
0.728306
-0.232273
0.149947
-1.084147
-0.313515
0.263717
0.409122
-0.435253
0.829258
-0.652319
0.406549
-0.839983
0.761501
0.122318
-0.597827
-0.893009
-0.553067
-0.457320
-0.952357
-0.978441
-0.132746
0.252191
0.663540
0.671331
-0.906538
0.158100
-0.173852
-0.941050
-0.530017
0.570235
0.819356
0.208708
-0.343991
0.937438
-0.763251
-0.917898
0.565480
-0.106059
-0.946531
-0.914343
-0.544485
-0.399268
-0.754326
-0.782984
0.723050
-0.352153
-0.675993
-0.830017
0.190528
-0.628350
-0.808459
-0.942218
0.623841
0.855081
0.729113
0.717304
0.013181
-0.444739
0.776254
0.483164
-0.874504
0.595610
-0.308128
-0.218495
0.533048
-0.071379
-0.136393
0.098528
0.822561
-0.082923
0.184185
-0.721923
0.517809
0.429859
-0.504907
-0.922174
-0.180958
0.410910
0.268190
0.190657
0.602762
0.325961
-0.184937
0.457428
0.055167
-0.467902
-0.529262
0.610563
-0.691793
0.953966
0.735760
0.901561
-0.355398
-0.482442
0.437267
0.574546
0.381933
-0.462996
0.398015
-0.702531
0.719895
0.674918
0.816297
0.149586
-0.829658
0.056783
0.227668
-0.010740
-0.532433
-0.504657
-0.820031
-0.930059
0.821678
-0.005506
0.527783
-0.122503
0.526340
0.998233
-0.512084
0.835137
0.951972
-0.776771
0.738462
-0.402276
-0.260510
0.175074
-0.828194
-0.879353
0.710423
0.568510
-0.580792
0.430029
0.244128
-0.764701
-0.420272
0.414151
0.292046
0.806041
-0.597151
-1.683892
0.329253
1.224660
-1.441086
0.282065
-0.265915
0.448340
0.071557
0.543213
1.159622
-0.873640
0.046852
-0.106110
0.414498
-0.172628
-0.580378
-0.589333
-0.545601
0.328005
1.712427
-0.106785
0.790686
0.035977
-1.403841
0.550358
-0.687883
1.184862
-0.399375
-0.032725
0.700300
0.648534
1.441157
-0.533507
-0.286313
-0.581523
-1.000208
-0.844483
-0.000410
0.949570
-1.060357
-1.639866
0.464626
-0.021519
0.513875
-0.183279
-0.025074
0.156498
0.989406
-0.864492
-0.507554
0.760094
1.604924
-1.528374
2.203685
-0.475185
0.682848
1.144783
0.095962
-0.538567
0.708851
1.117342
-1.554091
-1.185777
-1.515370
-1.240696
2.903968
0.592246
-0.381909
-0.940124
1.005368
1.045212
0.432442
-0.031555
0.641934
-1.873976
-0.276922
-0.271563
0.083405
-0.105683
-0.104241
0.409566
-0.601721
1.818615
-0.378202
-0.029193
-1.420876
1.495611
-0.605713
1.588707
-0.849893
2.444108
0.030009
1.246009
0.632001
-2.762161
-0.736128
-0.726739
0.990934
0.742203
-1.859779
-0.999147
-0.952363
0.553869
-0.301843
-0.298354
-0.939011
0.649137
0.245132
0.270339
-0.861742
0.637797
0.776983
0.013630
-1.329899
-1.629214
1.034127
-0.684770
-0.270296
-2.907897
-1.141214
0.667571
-1.599776
-1.816595
-0.188660
2.046985
-0.904323
0.129206
0.002984
-0.399311
-0.591028
0.201763
-0.255107
-0.464074
0.496090
-0.805462
2.647554
-2.310741
0.956857
0.520162
-0.928863
-0.162396
-2.619439
-1.113114
0.500689
0.307049
0.218994
1.029822
-1.635347
0.933358
1.187396
0.427012
0.661013
0.378300
-0.271693
-0.358454
-0.435966
1.840092
0.564832
0.635367
1.561135
0.534960
0.611153
-0.308567
0.585907
-1.556750
-3.775993
0.246311
-0.854567
-0.629297
-0.128717
-0.631550
-0.232426
-0.858278
0.961668
0.701194
1.465477
0.474654
-1.723527
0.864253
1.034170
1.363646
1.105735
-0.238816
0.265032
0.441061
-2.407116
0.852441
0.652534
-2.018785
-1.369855
1.156896
-0.453559
0.383840
0.719860
-0.903927
0.393874
0.819466
-0.456449
-0.852060
-0.514599
-0.032526
-0.116776
0.250386
0.770024
-0.933952
-0.787092
-0.740584
-0.816793
0.729205
0.724114
0.775082
0.331043
0.161142
0.246084
-0.682222
1.025977
0.228237
-0.893830
-0.786994
0.976848
0.795519
0.714595
0.908803
0.150081
0.429708
0.949507
-0.485631
0.182441
-0.558416
-0.368933
0.654151
0.383108
0.509028
-0.097113
0.171791
0.556686
0.100101
0.413546
0.726058
-0.179928
0.123969
0.501126
-0.873825
-0.701359
-0.285534
-0.615069
-0.741227
0.888149
-0.470611
-0.543639
0.885649
-0.718445
-0.835083
0.721520
0.400974
0.567947
0.881126
-0.279002
-0.944694
-0.510090
-0.634349
0.427603
0.974673
0.248211
-0.432066
0.516167
-0.661331
0.964532
0.238282
0.151485
0.089246
-0.294989
0.266691
0.346179
0.395170
0.638140
0.588789
0.283630
-0.892820
-0.996543
0.119878
-0.658152
-0.873935
-0.188364
0.709864
0.664861
-0.555038
0.590990
-0.614141
-0.499731
-0.919101
-0.248490
0.927871
-0.944427
0.999721
-0.504195
0.571740
-0.661610
-0.539662
-0.189978
0.489875
0.549584
0.515033
-0.243434
-0.104238
-0.089797
-0.605294
-0.515448
-0.806167
-0.498114
-0.511992
0.313711
-0.156266
-0.385927
-0.874653
-0.446402
-0.721066
-0.429691
-0.855412
-0.335207
-0.774490
0.416327
-0.001535
-0.718913
0.416139
0.494328
0.852893
0.754489
0.954607
-0.337183
0.244328
0.504189
-0.822129
-0.999160
-0.600055
0.088066
-0.604382
-0.115531
0.282008
-0.102505
0.372547
-0.404274
0.741328
0.986742
-0.278984
-0.705201
-0.734391
0.291335
-0.560578
-0.069563
-0.638056
-0.335029
-0.653357
0.360298
-0.054066
0.762639
-0.145439
-0.201260
0.517066
-0.190817
0.461624
-0.238640
-0.686591
0.639459
-0.237801
-0.286741
-0.272530
0.157817
0.597795
-0.990610
-0.944789
-0.029729
-0.395029
0.796348
-0.043152
0.325901
-0.908745
0.222452
-0.382709
-0.469342
-0.847325
-0.020882
0.195462
-0.500657
-0.598985
0.111598
0.268121
-0.012673
-0.359383
-1.071581
-1.420484
-0.073936
-0.963600
-1.314067
-0.484825
0.065611
-0.802450
-0.259942
-0.532783
-0.200632
-0.705817
0.677035
0.847264
-0.616983
1.085478
-1.339924
-1.697702
0.882328
0.626302
-1.022813
1.710612
-2.017605
-1.076467
0.275312
0.639294
-1.766100
-0.837115
0.825064
-0.370748
-0.650404
0.387056
0.775162
-0.980781
-1.180499
1.812139
0.106547
2.051115
-0.169438
0.715307
2.502330
1.535104
0.381549
-0.572040
-1.325936
1.767339
0.779287
0.534866
-1.471784
0.359799
0.731937
0.292856
-0.457088
-0.067754
-0.416520
-0.238628
1.070281
1.687465
-0.799955
-0.381021
-0.549576
-0.545394
-1.152132
-0.250917
-0.851504
0.633303
-0.749702
-0.138646
-0.887715
0.055297
-1.369873
-0.553538
0.474738
-0.076771
-2.635810
-0.224394
0.623389
-0.273431
0.860057
1.122914
1.453285
1.091988
-0.390423
-0.636161
0.445173
0.939999
-0.215608
0.470027
-1.755411
0.211658
-0.523293
2.660576
0.290606
0.271505
-0.031752
0.645738
0.374011
0.065395
0.055998
-1.305488
0.797341
-0.189919
0.149117
-1.405115
1.660441
0.354722
-2.353081
0.129392
1.053974
2.099175
0.371842
-1.543524
0.848847
0.333805
-0.234733
-1.493380
0.809853
-0.718084
-1.044665
0.928816
1.605142
0.316260
-1.414393
-0.958742
-0.942376
0.488842
-0.877277
-0.751960
-0.479093
-0.566662
0.790930
0.953608
-0.828227
0.973524
0.198305
0.919396
-0.605234
-0.779350
-0.033852
0.056453
-0.237078
0.927717
-0.106242
-0.503375
0.724521
-0.029381
0.521715
0.921014
-0.378975
-0.371561
0.919488
-0.610971
0.076215
-0.036946
-0.569714
0.133836
-0.548105
-0.446996
0.381874
-0.027202
-0.013660
0.172801
-0.073595
0.158111
0.146325
-0.875291
0.077508
0.541088
-0.654640
-0.956346
-0.402458
0.108279
0.971371
0.491300
0.604902
0.695891
-0.538083
0.126613
0.616903
0.082944
0.755051
0.536394
0.471967
-0.168738
-0.500555
0.902248
0.965096
-0.631937
0.530946
0.694791
0.919785
-0.038872
-0.461879
-1.379593
1.109559
-0.528737
0.052042
1.432735
-1.617748
1.375529
0.352362
-1.685968
-0.236216
1.352321
-0.698226
-2.134870
2.149801
-0.159828
0.033364
-0.237087
0.627898
0.223217
0.008024
0.357204
0.263810
-0.670599
-1.908629
-0.537228
-0.959912
2.473120
-1.014114
-1.236070
-0.115952
1.235175
-0.349350
-1.461293
0.862450
-0.935611
-2.080624
1.663579
0.165578
0.637227
-0.819419
1.257887
0.392674
-0.117662
-1.015975
-0.038525
-0.225791
-2.271271
-2.534731
-0.641098
-3.109934
0.358319
1.251138
1.103685
-0.457177
-0.050597
-0.803571
0.229100
0.908511
0.458959
0.694279
-0.550237
-0.829890
-0.069708
-0.813257
-0.448373
0.385932
0.254624
-0.329146
0.646088
-0.252066
-0.527264
0.201956
-0.726356
0.663380
-0.489270
-0.038029
0.845587
-0.342154
-0.448583
-0.413704
0.113407
0.897566
-0.632417
0.802973
-0.038541
-0.864436
0.145041
0.077370
0.812408
-0.392788
-0.220795
-0.723098
-0.213234
0.724720
-0.530207
0.350755
0.114210
0.729725
-0.980945
-0.239050
-0.521838
-0.507027
0.966955
-0.245240
-0.839780
-0.519890
0.708364
-0.983237
0.141407
-0.725230
-0.385159
-0.723121
-0.814772
-0.012490
-0.928884
0.141061
0.115612
0.226344
-0.768597
-0.058256
0.849092
0.011342
2.869646
-1.032789
4.514275
-3.691114
0.867328
2.215194
-1.695716
-3.170604
2.617921
0.053695
-2.525201
-0.123366
0.127355
1.245242
-3.510900
0.790128
-1.277515
-0.828325
0.288270
0.089719
1.103847
-1.358322
0.059854
-1.262339
1.799913
0.746470
0.613858
-1.697739
-0.756036
0.740596
1.457586
-0.573896
-0.189882
-0.004381
0.250209
0.819263
-2.388354
-1.757823
-1.855191
0.097890
0.204645
-0.641952
-0.152846
0.605502
0.027363
-0.736732
-0.368780
-0.083535
0.386553
3.834801
-2.130388
0.195435
0.895901
2.151823
0.337737
0.373182
-0.061045
-1.388933
1.818813
2.649807
0.337432
1.434878
-0.644067
-1.749984
1.226168
-0.125830
0.550719
-0.575819
0.960269
-0.004157
0.566535
-0.019605
0.863289
0.090562
0.075901
1.093754
0.485615
0.169976
1.458653
-0.002608
0.302922
0.166182
0.476426
2.131332
-1.288442
-1.383245
1.020076
-0.452969
0.806058
-0.290077
0.354580
-0.092533
0.616451
1.305183
-0.299758
-0.275260
-0.158502
0.449135
-1.170573
1.008392
1.966293
0.347793
0.221994
0.662280
-0.937195
0.217399
0.096998
1.217945
-0.010708
-0.350379
0.530937
0.909571
1.517708
-0.190117
-0.144141
-0.161923
-0.609118
1.460995
-0.685994
-0.740225
-1.309776
0.647887
0.344005
-0.875580
0.454575
-0.020848
-1.651765
-0.807021
-0.752771
-0.898537
-0.155869
0.482028
-0.288895
-0.593808
0.603186
0.945780
0.119253
-0.450365
-0.731006
0.848838
-0.683523
-0.061362
0.776463
-0.265817
0.576796
-0.673640
0.303186
0.419928
-0.081639
0.584335
0.747836
-0.507126
0.126809
1.031131
0.902160
-0.390296
-0.776626
1.004879
0.700304
-0.566700
0.951210
-0.653559
0.717296
-0.516361
-0.377165
0.222277
-0.677737
0.675428
0.756516
-0.387416
0.520682
1.038343
0.425629
0.245885
-0.244873
-0.064031
0.500561
0.941267
-0.715827
-0.703230
0.418369
0.880357
-0.356662
-0.592082
1.046859
-0.335291
0.100401
1.062251
-0.511633
-0.415364
-0.740029
-0.646785
1.128972
-1.332986
-0.272373
0.644001
1.768133
-1.932961
0.332653
1.075168
-0.641963
-1.243015
0.521443
0.983111
0.114881
1.203314
0.144868
1.143641
0.190236
-0.683135
-0.431664
-0.119708
1.424834
0.422383
0.367611
-0.717164
0.578806
0.016021
0.195400
-0.462686
0.041563
-1.867294
0.470815
-0.826115
1.161639
1.102363
1.240711
-0.407041
0.449166
-1.481899
1.399244
0.279526
-0.958730
1.482792
-1.705802
-0.241155
0.489589
-0.648901
0.186492
1.202945
-1.700911
-1.485847
0.961568
-0.689079
-0.808671
-0.233810
-0.800333
-0.143985
1.239168
-0.544814
-1.098240
-0.071236
0.156906
0.910046
2.155597
-1.389275
-0.345254
-1.150683
1.597447
1.724454
-1.152090
-0.669874
0.177038
0.241950
0.784526
0.231595
-0.558158
-2.422078
1.395445
-1.626488
1.276948
3.191849
0.224695
1.685136
0.061885
2.387645
-0.961150
-1.135182
0.087165
-0.779687
-1.227963
0.904861
-0.006797
-0.023633
0.128877
-0.861275
-0.900911
0.586428
-0.792455
-1.106980
0.358637
-0.500029
0.999813
-2.092400
-2.385782
-0.477618
-0.077841
1.181888
2.961325
0.205774
-0.831259
-2.001278
-0.185937
-0.223558
0.539646
-0.051840
-1.337654
1.042381
-0.699371
-2.971413
-0.728731
-1.896849
0.301006
2.232963
1.313998
-1.296727
-0.904813
-0.134897
1.511312
1.359366
-0.225383
-0.901919
0.963190
-0.040692
-0.635386
0.604129
0.818424
1.307928
0.051898
-0.344455
0.757232
0.939186
-0.188582
0.097953
0.640561
0.050500
-0.655871
-0.418010
-0.386381
-0.833938
-0.008173
0.511029
-0.229944
0.183024
0.397308
-0.223858
0.531421
0.204543
-1.144614
0.105807
-0.504667
0.207752
0.035456
-0.263266
-0.914922
0.771752
0.756804
1.302941
0.591890
0.517385
-0.468341
0.464732
0.130575
0.638792
-0.341600
-0.114738
-0.509905
0.023335
0.601103
0.824140
0.086546
0.487561
-0.084727
-0.906504
-0.681298
-0.578331
0.207195
-0.577636
0.822363
0.542845
0.238199
-0.541112
-0.366468
-0.327903
0.526901
-1.543827
-0.474378
-1.599740
2.144878
1.565359
-3.620829
0.227018
0.142158
-0.003131
-1.318042
-0.214428
-0.883449
0.162535
-1.255596
-0.727024
0.147513
-0.373668
2.316513
-0.271608
0.092278
-1.579029
0.548304
0.311622
-1.159396
-0.528870
-0.845691
-0.558487
0.536668
1.155600
0.201672
0.144201
0.138429
-1.122880
-1.414781
0.637177
-0.043057
-0.144345
0.427812
2.179674
1.920574
0.256781
-3.227195
0.924817
0.994288
-0.833028
-0.294087
2.097375
-0.401529
1.327298
0.867404
-0.882328
-0.127105
-1.203178
-0.321887
-2.462306
-1.149535
0.496439
-1.789389
-0.156502
3.750846
-2.729852
-0.142002
0.384692
