0.662429
0.880708
0.350491
0.447362
0.648531
-0.652835
0.868156
0.276468
0.600244
0.438823
-0.637678
0.205190
-0.579674
0.572516
-0.946614
-0.322854
-0.831178
0.039823
0.429689
-0.864440
0.901486
0.554427
-0.634403
0.657243
0.499927
-0.748431
-0.483780
-0.002712
-0.231752
0.868217
0.206822
0.335310
0.578006
0.767684
-0.781694
0.661789
0.575630
-0.050626
0.694946
-0.980806
0.173022
0.736251
0.414236
0.012294
0.361071
0.470833
-0.793204
0.524815
-0.260014
-0.204079
0.059146
0.829099
0.320283
0.857908
0.250801
0.839701
-0.265648
-0.729441
-0.364076
-0.317291
-0.083558
-0.037742
0.285174
0.054252
-0.581416
-0.510283
-0.368158
0.554919
0.767173
0.557270
-0.220248
0.849965
-0.554044
-1.088702
0.524669
-0.922767
-0.912671
-0.030597
-0.819652
-0.297820
0.820170
-0.380192
-0.456677
0.703061
0.211216
0.413988
0.637432
1.153412
-1.389054
-0.863670
0.170520
0.329087
-0.688018
-0.004211
0.346898
0.864361
-0.710432
-0.152409
0.535794
-0.858293
-0.065423
0.904406
0.716138
-0.948676
0.693430
-0.453866
-0.927388
-1.112171
0.334681
-0.642732
0.869236
0.900959
-0.628511
0.014853
0.422710
0.856040
0.935807
-0.684960
-0.804476
-0.749729
0.826951
-0.774178
-0.145919
-1.712992
0.264691
0.820232
-0.861624
-0.445990
-0.029080
-0.472050
1.185906
-0.849668
0.939450
0.145378
0.325015
-0.740915
-0.489502
0.604989
-0.052938
0.537210
-0.352548
-0.624830
-0.213576
0.438681
0.181296
-0.170902
0.480981
0.740231
-0.472221
-0.424999
0.422268
0.805426
-0.028681
-0.449552
-0.193877
-0.749804
-0.104829
0.758019
0.380031
0.075688
-0.545976
0.466934
-0.054678
0.222482
0.679763
0.089750
-0.498675
0.865881
-0.003540
-0.677339
-0.094638
-0.711258
0.674933
0.101090
0.279503
-0.589553
0.641811
-0.567086
-0.825250
-1.065872
-0.427054
-0.263768
-0.266030
0.834405
0.291013
1.146477
-0.612493
1.130899
-0.724948
0.027907
0.412039
0.203187
-0.552524
0.282198
-0.358114
0.650110
0.764107
0.267266
0.841317
0.460282
0.899680
0.332779
0.528126
-0.876891
-0.143757
0.302341
0.306610
-1.244690
0.709448
-0.473410
0.340386
-0.444851
-0.814283
-0.815016
0.486988
-0.339616
-0.644675
-0.852408
0.582663
0.721568
-1.455607
-1.841816
0.367212
-0.813860
0.796812
-0.111063
0.587757
0.159171
0.794382
-1.052726
0.757029
0.172682
0.588130
0.837985
-0.558760
-1.634961
-0.911073
0.516270
-0.461791
-0.033141
-0.465228
-0.586209
0.508855
0.362426
0.735894
-0.592355
0.793007
0.852799
-0.800497
0.500164
0.360415
0.108626
-0.132803
0.574279
-1.512245
-0.373541
-0.288374
0.947096
0.776951
-0.332226
0.372350
0.923130
-0.910928
0.616584
-0.101373
1.000934
0.213353
0.949331
0.091569
0.044640
1.156548
0.186936
-0.852242
-0.068728
0.733716
-0.891572
0.651290
0.286747
-0.748700
-0.482389
-0.917430
0.802561
0.092497
-1.845553
0.064522
-0.766604
0.511921
-0.758270
-0.734300
-0.608655
0.512596
-0.811057
0.139068
0.573732
-0.286961
-0.259620
-0.662086
-0.687601
0.849327
0.317874
-0.362829
0.911583
0.426747
-0.560970
0.770028
-1.256796
-0.589875
-0.225350
0.821281
0.332862
0.734938
0.072466
0.708999
-0.199985
0.114823
0.977982
0.060192
-0.077500
0.481716
-0.094423
-0.423137
-0.283105
0.426085
0.651875
0.525358
0.319968
-0.436968
-0.665135
-0.640232
-0.881542
-0.723417
0.103266
-0.341650
-0.665112
0.958638
-0.349255
0.232369
0.156599
0.383798
0.382430
0.223629
0.161092
-0.149135
0.533585
-0.874531
0.759250
0.037546
0.964317
-0.308642
0.806991
0.164267
-0.117754
1.081913
-0.627470
0.928095
-0.086796
0.795989
0.290550
-0.116196
-0.667812
-0.204274
-1.470196
0.292170
0.332943
-0.784407
-0.993421
0.713652
2.197996
-1.609686
-0.133394
-0.778463
0.534735
0.013865
-0.347806
-0.278645
0.140952
0.803913
-0.673490
-0.078744
-0.420498
0.524343
0.684010
-0.120161
-0.496322
-0.527182
0.964120
-0.978271
-0.598221
0.031807
-0.310949
-0.020446
-0.163555
-0.445776
-0.961279
0.280836
-0.844861
0.332435
-0.632081
0.817960
-0.470403
-0.763103
-0.688123
-0.685722
0.039724
0.559122
0.493950
-0.318361
-0.463281
-0.048105
-0.578195
0.507143
-0.799954
-0.069656
0.736854
-0.624829
0.819024
-0.521147
0.591476
-0.373239
-0.353133
0.052328
0.269167
-0.904516
-0.240457
-0.079308
-0.681056
0.338723
-0.736210
0.144829
0.381461
0.100952
-0.896245
-0.685295
0.127643
-0.607002
0.600090
-0.482635
0.129053
0.559240
-0.600990
-0.133951
0.084401
-0.108135
-0.159632
-0.883726
-0.029022
0.194673
0.724419
0.293955
0.155735
-0.315324
0.006922
1.026002
0.509356
-0.071927
-0.923203
0.382834
0.514564
-0.118239
-0.184910
-0.372116
0.633554
-0.704890
-0.449160
-0.226661
-1.020961
-1.043746
0.122705
-0.810995
-0.232907
0.170366
0.643684
0.458721
0.503402
0.291505
0.630573
0.837768
0.667727
-0.622626
0.400590
1.576326
0.763097
-0.625139
0.126867
-0.764064
-0.700552
-0.370623
-0.325776
0.506577
0.791029
-0.167620
-0.996222
0.116779
-0.713104
-0.794478
0.131902
-0.126126
0.401142
0.034856
-0.969689
0.657915
-0.103932
0.687149
-0.576440
0.410988
-0.456630
0.555010
-0.802090
-0.710382
0.616466
0.662234
0.482794
0.132622
0.912222
0.332009
-0.652912
-0.961646
-0.609067
0.856552
-0.032643
-0.287676
-0.111736
-0.067091
0.172486
-0.919523
-0.937435
-1.117169
-0.484123
-0.872062
0.317156
0.237945
0.644184
-0.009894
-0.764137
0.145054
0.107304
0.418951
-0.420612
-0.122284
0.182153
-0.599029
-0.513470
-0.152748
0.584434
0.385870
0.076810
-0.100735
-0.015791
-0.403947
0.351308
-0.960250
-0.560418
0.817692
0.531071
-0.646541
-0.986040
-0.459095
-0.602160
0.139611
0.348223
-0.449215
-0.551817
-0.651729
0.923168
2.640462
-0.139220
0.701107
-0.009084
-0.725929
-0.039613
-0.075552
0.788658
-0.220185
-0.439208
0.204636
0.298998
-0.101959
-0.028743
0.678543
0.421947
0.270950
-0.410177
0.092653
-0.795429
0.059016
0.610870
-0.956994
0.876279
-0.274167
0.937532
0.568268
0.635619
0.774162
-0.346987
-0.678223
-0.689192
0.186355
-0.220294
0.808340
-0.022964
0.519489
-0.759084
0.393690
0.514681
0.157225
-0.136219
-0.609357
-0.795388
-0.193201
-0.212368
0.493621
-0.624614
-0.818290
0.854202
0.322767
0.810357
-0.125321
0.848852
-0.714222
-0.069188
0.147275
0.964667
-0.370430
0.851676
-0.633006
0.631811
0.877121
0.115501
0.918292
-0.764377
0.211037
-0.110493
0.111227
0.782782
0.124094
0.443940
0.612622
0.163350
0.940965
-0.248536
0.283186
-0.709462
0.617426
-0.315629
0.902622
-0.139618
-0.303259
-0.617777
0.284865
1.063558
0.867907
0.500392
-0.347228
0.472924
-0.852582
0.427202
0.748127
-0.476466
0.047929
-0.790460
-0.505664
0.094121
-0.049211
0.866295
0.472998
0.572106
1.085546
-0.341383
-0.359503
0.398124
-0.503259
0.998577
0.818629
0.244398
0.100988
-0.378918
0.408180
-0.611419
-0.614979
-0.851207
-0.739318
0.297071
-0.059679
1.016131
-0.217532
-0.159749
0.874479
0.671860
-0.135913
0.481182
0.269434
-0.625554
0.699178
0.221351
-0.421409
0.509725
-0.210957
-0.903707
-0.366288
0.216409
0.778394
0.337168
0.487454
0.269593
0.659289
0.469458
0.645992
0.034704
0.413665
-0.279671
0.917663
-0.459604
-0.374728
-0.054702
0.129550
-0.638904
0.998482
0.911405
-0.784295
0.695856
-0.561097
0.961261
-0.222899
0.821452
-0.154913
0.179236
-0.227416
0.663304
-0.930114
-0.972979
-0.683524
-0.902515
0.122116
0.664081
0.288794
1.015046
-0.284012
-0.365131
-0.713466
-0.321256
1.024485
0.167454
0.218086
0.960103
-0.341680
0.412133
0.800190
-0.012586
0.619989
-0.191464
-0.784989
0.845144
-0.564900
0.481792
-0.019793
-0.507923
0.672673
-0.116333
0.834789
0.804873
-0.435881
1.154549
-0.106606
-0.000510
-0.137293
0.512286
0.540413
-0.021346
1.086796
0.975893
1.002027
-0.591368
-0.758332
-0.706696
0.936591
0.864454
0.240440
0.029412
-0.612475
-0.504831
0.919604
0.209638
-0.240407
-0.539692
0.268947
0.077044
-0.627410
-0.686862
0.256483
0.367037
-0.075152
-0.586789
-0.049307
-0.177666
0.737848
-0.615397
0.119093
0.846603
0.502481
0.687769
-0.807192
-0.078578
-0.249712
-0.268884
0.344820
0.937608
0.741580
0.255760
-0.530402
-1.993746
-0.509525
0.114813
-0.974176
0.072843
-0.896630
-0.572344
-0.456172
0.516704
0.948284
0.769585
-0.201404
0.377152
-1.242443
-0.017572
0.489673
-0.284581
0.041192
-0.227931
-0.680211
0.435186
-0.480551
0.726407
-0.096667
0.554368
-0.129812
-0.327756
1.119761
-0.421952
0.426035
0.817659
0.234895
-0.540585
0.179120
0.094794
0.903285
0.228671
-0.512093
-0.284359
0.824597
0.575285
-0.711857
-0.174784
-0.091748
-0.232523
1.037281
-0.309927
-0.265763
-2.169344
-1.321149
-0.490331
0.720033
0.617658
-0.591733
0.984703
-0.409735
-1.478584
1.028238
-0.572380
-0.361752
0.591219
-0.607818
-0.602808
0.290396
-0.431898
-0.692080
0.229552
0.662930
0.558574
0.834060
0.210486
-0.042656
-0.772931
-0.700760
0.536532
0.128922
-0.575308
0.417275
-0.469434
0.007990
-0.131566
0.235493
1.965099
0.477919
0.284759
0.260368
-0.419398
0.634776
0.217560
0.892870
0.576536
-0.738500
-0.439587
-0.289573
-0.806909
0.121510
0.230982
-0.752700
-1.039859
-0.728480
-0.202189
-0.093496
-0.557721
-0.540032
0.905428
-0.939189
-0.316301
0.207960
-0.695565
-0.832716
-0.358456
1.668413
-0.945108
0.994304
-0.886902
0.994153
0.761717
0.779256
-0.917784
-0.557777
0.898633
-0.918495
0.209627
0.020760
-0.171308
0.775601
-0.370576
0.060571
-0.422204
0.655567
0.047183
0.469069
0.864969
-0.708459
-0.622255
-0.669980
-0.626184
-0.361356
-0.797039
0.567554
-0.796735
0.194978
0.060718
-0.963294
0.346199
0.034781
-0.430496
0.291051
-0.802063
0.428088
0.291034
0.580822
0.157405
0.877363
-0.933075
-0.128427
-0.672547
-0.825093
-0.434152
0.887305
0.134288
0.447674
0.053100
0.099051
-0.321066
-0.389578
-0.406297
0.408446
-0.500205
0.988572
-0.777896
-1.040434
0.262412
-0.733821
-0.822099
-0.415482
-0.897748
-0.712193
-0.284259
0.164815
0.517559
-0.533762
-0.226635
-0.117114
-0.667082
0.109186
0.262885
-0.450207
0.296318
0.756621
-0.936566
-0.158556
-0.966889
0.842383
-0.242402
-0.041770
0.239984
0.096960
0.021684
-1.012388
0.650482
-0.012337
0.578754
-0.481766
0.688157
0.880560
0.302055
-0.013096
0.545288
0.257565
-0.024023
0.390841
0.116523
-0.477654
-0.076730
-0.517290
0.632724
-1.009027
-0.400031
0.805207
-0.428818
0.148621
0.899016
1.081006
-0.451736
-0.393598
0.453765
-0.425938
0.277801
0.620910
0.853152
0.151471
-0.194382
0.337659
-0.807713
0.139069
-0.521358
0.905861
-1.367531
0.888505
0.366144
0.881174
0.333527
0.003671
0.368030
-1.432509
-0.793674
0.566309
0.697705
0.311500
-0.321858
-0.398078
-0.928033
-0.557964
-0.003709
-0.817115
-0.572953
-0.812425
-0.464209
0.228772
-0.537088
0.537782
-0.676144
0.766227
-0.099246
-0.000487
0.041181
-0.165766
-0.660967
-0.739103
-0.935005
-0.807224
-0.905451
-0.865244
0.741202
0.441534
-0.361539
-0.546254
-0.374446
0.102886
-0.183338
0.294194
-0.661089
-0.810658
0.682434
0.619486
0.720829
-0.057141
-0.149168
0.420617
0.785476
0.262046
0.388182
-0.375637
0.374867
-0.848412
-0.119814
-0.238633
-0.127989
0.405344
-0.036666
0.453600
-0.893255
-0.985756
-0.773081
-0.813013
-0.911276
-0.781132
-0.979583
-0.601472
0.261899
-0.292346
0.591760
0.119670
0.697272
0.125635
-0.058921
0.063570
0.673116
-0.059963
-0.683087
0.805842
0.330906
0.437012
-0.657122
0.523482
0.724379
-0.318135
0.866840
-0.806032
0.897807
-0.681899
-0.620688
-0.434817
-0.809915
-0.809890
-0.553651
0.827225
-0.015103
-0.855804
-0.069492
-0.964005
2.467630
2.346831
-0.650659
-0.185289
0.201521
0.202270
0.080393
0.610174
-1.036271
-0.400023
-0.040993
-0.500639
-0.101826
-0.296361
-0.697589
1.012356
0.996527
0.616093
0.912345
0.626736
-0.904269
0.029463
-0.668215
-0.885434
-0.584246
-0.677892
0.872420
-0.000362
-0.846593
-0.543937
-0.803770
0.214967
0.286058
-0.851070
-0.991937
-0.011186
0.445467
-0.569867
-0.536147
-0.502953
-0.478795
0.493461
-0.896885
-0.602076
0.358449
0.091029
-0.152963
-0.974113
0.300131
0.754469
0.581228
0.546899
0.125145
-0.880429
0.101193
0.245976
-0.887230
0.861152
0.733043
0.493995
-0.448315
0.821002
0.108194
0.972755
0.942717
-0.514801
-0.686031
0.854066
-0.709882
0.044462
-0.949062
-0.371287
0.310263
-0.430875
-0.201560
0.858171
0.517502
-0.995125
0.298815
-0.780897
-0.018605
0.966241
-0.805774
-0.186272
0.105137
-0.574368
0.209636
0.890401
-0.731108
-0.856977
-0.445573
0.050701
0.293834
-0.082145
-0.991762
-0.635847
0.988634
0.238940
-1.026544
1.000349
0.975634
0.678160
-0.934835
0.060988
0.505870
-0.645545
1.518687
-0.490282
0.688811
-0.068390
0.682909
-0.339128
-0.223142
-1.111182
-0.103215
0.366148
-0.004893
0.807244
-0.441747
0.120433
0.557365
0.040789
0.372084
-0.915314
0.267009
0.794608
0.671243
-0.153523
-0.451694
0.501372
-0.498410
0.672560
0.520062
0.878258
0.472267
0.555972
-1.147163
0.003342
-0.146131
-0.653399
-0.820629
0.294018
-0.231618
-0.637527
-0.735189
-0.447440
0.387384
0.923393
0.412036
-0.661918
-1.039971
0.374423
0.812160
0.122121
-1.077244
-0.939756
-0.339917
-0.979808
0.181240
-0.885931
-0.030161
0.398303
-0.890693
0.454694
-1.009760
0.173362
-1.035008
0.455429
0.209269
0.098915
0.131290
0.294766
-0.783697
-0.432727
0.868694
0.186470
0.941617
0.152067
0.447190
0.793806
-0.662015
0.228270
0.599291
0.164876
-0.781759
-0.679665
-0.885210
0.778311
0.875428
0.854417
0.893176
-0.416451
-0.618054
0.555467
0.849525
0.040237
0.323216
-0.373399
0.536929
0.405827
0.583309
-0.882988
-0.795114
0.688696
0.021947
0.335623
0.784129
0.455963
0.272794
-0.164106
0.455653
0.878727
0.788935
0.959316
0.144156
-0.019531
0.311765
0.515413
-0.589696
0.004982
-0.440128
0.993447
0.472666
0.364488
-0.643658
-0.444318
0.182021
-0.647987
-0.732253
-0.040935
0.277689
0.628277
-0.101965
-0.257290
-0.764424
0.774704
0.218420
0.521724
-0.785353
-0.565117
-0.555571
0.382338
0.241180
-0.805832
0.790707
0.286905
0.293788
-0.715466
-0.563045
-0.931370
-0.944272
-0.713552
0.246791
0.479160
0.869105
0.256446
0.418467
-0.012868
0.458997
-0.925144
-0.133946
0.286504
0.141124
-0.670728
-0.141587
-0.809365
-0.154963
0.714973
-0.843591
-0.753536
-0.569400
0.274044
-0.239537
-0.679650
0.086300
0.327200
-0.561982
-0.184337
-0.554932
0.038497
0.188995
-0.052687
-0.607908
-0.082218
0.885090
0.056152
-0.806637
-0.229921
0.015326
-0.513771
-0.117719
-0.858638
-0.476666
-0.517170
0.964566
-0.687514
0.122590
-0.993062
0.073255
-0.141010
-0.760832
-0.252652
-0.463369
0.290420
0.009197
-0.777481
0.510666
-0.962888
0.598416
0.172629
-0.788343
-0.734824
0.560914
0.755556
-1.001687
-0.880020
0.712346
0.078580
-0.688699
0.030517
-0.287251
0.504194
-0.211968
0.443189
-0.417793
0.001703
-0.984531
0.658191
-0.204996
0.314402
0.299136
0.297692
0.301742
-0.883304
0.647313
0.962217
0.197034
1.252771
0.158094
-0.522629
-0.072370
0.606699
0.350640
2.317007
-2.305547
0.606201
-0.907566
-0.336665
-0.353255
0.452288
0.265354
0.349205
-0.016154
0.998756
-0.315885
0.259089
-0.964960
0.337620
-1.549387
0.845611
-0.930980
-0.361580
-0.203372
0.138254
-0.565281
0.922212
0.806442
0.404219
0.675870
0.373369
-0.265027
0.823699
-0.775793
0.549180
-0.759836
0.564210
-0.420697
-0.278969
0.990600
-0.886146
0.183030
0.828087
0.848085
0.915560
0.690546
0.274465
0.873937
-0.400016
0.303819
-0.184398
-0.420240
0.447951
-0.227923
0.573303
-0.179252
0.454237
-0.143127
0.943939
0.493270
-0.397905
0.066532
0.656783
0.494747
0.100250
-0.417243
-0.591629
0.774321
-0.108643
-0.520479
-0.102630
0.763502
0.890701
0.571700
-0.664136
0.941763
0.701218
0.006444
0.303517
-0.589814
-0.333442
0.717628
0.021204
-0.345004
-0.645286
0.627010
-0.207377
1.541339
0.871703
-0.887213
0.431345
-0.720049
0.016337
0.551731
-0.316921
0.478916
-0.601792
-0.669603
-0.483453
-0.001890
-0.549706
-0.071214
0.743978
1.848625
0.276819
-0.828737
-0.880347
0.116333
-0.058652
-0.355486
-0.015598
0.910738
-0.210747
0.510731
0.001649
0.674544
1.618746
-0.834311
-0.575017
0.512691
-0.033004
-0.855466
0.071098
0.543874
0.653703
0.445144
0.235888
-0.405601
-0.117456
-0.533142
-0.279474
0.187415
-0.338381
-0.276779
-0.410309
0.758891
0.607541
-0.350917
0.285910
0.195016
0.230789
-0.483727
-0.309746
0.384927
0.081162
-0.412840
0.501222
-0.299017
0.205989
0.461738
0.576463
-0.363960
-0.347716
-0.101020
0.940755
-0.170201
0.228844
-0.576791
0.821393
0.933694
0.162266
0.966295
0.857581
-0.387808
-0.705876
-0.227174
0.760399
-0.179239
0.634318
0.313961
0.199886
0.952766
0.901487
0.131596
-0.336372
-0.086711
0.275906
0.760952
0.169779
0.105772
0.889438
-0.619696
-0.349584
-0.769863
-0.310696
0.332279
0.748619
0.186840
-0.881477
-0.858084
0.174824
-0.279314
-0.086972
-0.185968
0.130536
-0.038887
0.029505
0.671867
-0.237774
-0.646687
0.307202
-0.252931
0.781642
-0.406455
0.127124
0.445555
0.926184
-0.363350
0.167509
-0.910466
-0.909216
0.694025
-0.723034
0.699384
0.636875
0.255743
-0.529776
0.032227
-0.348786
0.162545
-0.365308
-0.356855
0.083766
-0.797091
-0.483641
0.080753
0.690581
-0.478996
0.191039
-0.065986
1.000905
0.895969
0.763248
0.661996
-0.621188
0.178313
-0.488507
0.153922
-0.180329
-0.630147
-0.879991
-0.131204
0.677030
0.254930
0.003910
-0.114998
0.158832
-0.953913
-0.349646
0.509709
0.724562
-0.342840
-0.629468
0.929595
1.018399
-0.470895
0.816814
-0.851481
0.871142
-0.440588
-0.303457
-0.397092
0.512528
0.595118
0.638991
-0.472960
0.042091
0.518334
0.124522
0.618999
0.970794
0.175688
-0.179301
-0.015089
-0.097086
-0.423577
-0.779472
-0.179100
-0.411549
-1.077094
0.732718
0.357760
0.234040
-0.932376
0.275542
-0.496260
0.042983
-0.091390
0.084919
-1.036525
0.308057
0.071105
0.598411
-0.699280
-0.397212
-0.679787
0.311941
-0.331968
0.727558
-0.778248
-1.013213
-1.010616
0.661942
-0.136570
-0.468363
0.373554
-0.384892
0.314437
-0.615223
0.841022
-0.684375
0.386621
-0.100399
-0.641203
-0.044972
0.047110
0.456562
0.366457
-0.755018
0.314955
0.221410
0.703567
-0.612109
1.027601
-0.460013
0.546348
0.456825
0.777419
0.736833
0.326241
-0.819625
-0.845295
-0.778606
0.518647
0.327972
-0.432698
-0.044780
0.034760
-0.907797
-0.352034
0.925152
-0.519739
0.799782
-0.817017
0.688504
0.861072
0.275812
0.115471
0.747515
-0.602840
0.349095
-0.408137
0.136085
0.451542
0.995273
0.371268
-0.536947
-0.510793
0.851137
-0.407797
-0.197350
-0.254691
0.538475
-0.532482
0.721626
0.922238
-0.642202
1.057145
1.064230
-0.653950
0.402655
0.405879
-0.428527
0.773185
-0.762610
-0.814280
-0.144534
-0.350602
0.660095
-0.115350
-0.498622
0.280321
0.550843
0.263201
-0.975739
-0.427205
0.617538
-0.039052
0.200984
-0.570109
0.918256
-0.746784
-0.824920
0.331560
-0.990199
-0.635994
2.059089
-1.838719
0.480901
-0.450796
0.421465
-0.010601
0.181299
-0.504695
1.422993
0.632190
-0.156943
0.574934
0.139546
0.036871
-0.901277
-0.477152
-0.012147
0.472044
0.439589
0.103386
0.977913
-0.040263
0.821874
0.757388
0.778492
0.520257
-0.321738
0.564483
0.039158
-1.015995
-0.646056
0.613797
0.950476
0.534057
-0.121115
0.589820
0.808590
-0.334775
-0.534321
0.829677
-0.436687
-0.740048
0.556029
-0.096452
-0.436115
0.596251
-0.879814
0.750231
-0.512945
-1.793822
2.906724
-0.323333
-0.300630
-0.222611
-0.804284
-0.372880
-0.803784
0.333793
0.696500
0.786619
-0.832069
0.523573
-0.231917
1.499936
-0.771705
0.332852
-0.762128
0.912679
0.029666
-0.174535
-0.492873
-0.156230
-0.834304
0.317060
-0.116921
0.202928
-0.842208
0.344176
-0.480526
-0.297417
-0.178263
0.245407
0.081517
0.226771
-0.474431
-0.115062
-1.152265
0.654370
-0.117366
0.246113
-0.837470
-0.422010
0.535464
-0.801257
0.587614
0.754691
-0.817011
-0.950849
0.786003
0.759002
0.290942
0.309177
0.130033
-0.922473
0.095226
0.225071
0.114783
0.525635
-1.109144
0.459982
-0.968992
0.180024
-0.533399
0.325063
-0.998308
-1.132436
-0.179818
-0.635189
-0.872330
-0.535316
-0.208649
-0.319690
-0.032015
0.509600
0.882708
0.459915
-0.421638
0.166735
0.887046
-0.360285
-0.608462
0.641979
0.391385
0.208758
-0.141663
0.817156
0.102101
0.134272
0.610064
-0.244006
-0.266453
0.614552
-1.024573
0.943059
-0.079900
0.248169
-0.723773
-0.455224
0.233392
0.625001
0.045883
0.383762
-0.937498
0.893623
0.489314
-0.237420
-0.089578
0.029280
0.743245
0.128123
0.552748
-0.692586
-0.541681
-0.668456
0.221974
-0.464559
0.444995
0.228713
-0.827213
0.346571
-0.557478
-0.238046
-0.051462
0.325361
-0.702859
1.132538
0.814568
0.985942
-0.063265
0.095869
-0.235606
0.142526
-0.058872
0.844374
0.350935
-0.470500
0.606877
0.162900
-0.726088
-0.656938
0.551481
0.949625
0.190603
-0.082901
-0.555458
-0.164673
0.202146
0.473750
0.783575
-0.353395
1.014433
-0.284085
0.587507
0.366793
0.372545
-0.277557
-0.406460
0.618695
0.068700
0.666123
0.138782
-0.764716
0.000928
0.754950
-0.251370
-0.631553
0.276164
0.812271
-0.299232
-0.545169
0.439467
0.768670
0.300219
0.885819
0.139553
-0.546606
0.515354
0.303273
0.715973
-0.572370
-0.993225
-0.666091
0.889240
0.526983
-0.944956
-0.563918
-0.079447
0.319755
0.601530
-0.941400
-0.436886
-0.445829
-0.297918
0.836368
-0.575463
-0.921552
0.812341
-0.226533
0.279292
-0.835530
-0.913862
0.381003
-0.684359
-0.605449
0.650061
-0.319816
0.471416
-0.442240
-0.188165
-0.655980
-0.532469
-0.920257
-0.737054
-0.809023
0.414077
0.398655
-0.592776
-0.924797
-0.715992
-0.259635
-0.335158
0.815565
-0.796729
0.853440
0.449164
0.496363
0.315978
-0.713949
-0.505746
-0.984931
0.590981
1.500253
0.872606
-0.038101
-0.373444
-0.745272
-0.771082
-0.127142
-0.323405
0.715446
-0.541515
0.959921
0.449601
-0.229437
-0.864746
-1.707398
0.483188
-0.489228
-0.052240
-0.860060
-0.447760
-0.878297
-1.204455
0.399055
0.019749
0.553765
-0.635587
-0.346264
-0.144561
1.296605
-0.287983
0.598887
-0.323874
0.697568
-0.482324
0.105000
0.354594
0.216882
0.594097
-0.368363
-0.194160
-0.030153
0.422339
-0.107379
-0.830994
-0.555468
-0.874161
0.151604
-0.046196
0.730171
0.418515
0.793265
0.554527
0.193890
-0.691313
0.761366
0.421274
0.541541
0.227701
-0.354787
0.760422
0.666825
0.555655
-1.274330
-2.065519
-0.782534
0.400522
-0.047397
-0.114370
0.585989
0.086817
0.919021
-0.773082
-0.158939
0.388575
0.654420
0.487575
1.285421
-0.409184
0.582130
0.226873
-0.372865
-0.795913
0.401259
0.718375
0.631503
-1.072469
-0.463120
0.480433
0.712923
-0.782595
0.122804
-0.171144
0.236555
-0.832556
-0.369224
-0.915551
-0.457620
0.746043
0.521746
-0.788887
0.371749
-0.058666
-0.167719
0.164899
0.733346
0.404792
0.240038
-0.257035
-0.928529
-0.583248
-0.740673
0.737344
-0.634146
-0.375267
-1.130598
-0.139323
-0.354438
-0.106711
0.552771
0.237605
0.433573
-0.647206
0.170160
-0.336892
0.053502
-0.485391
-0.640847
0.640913
0.200103
-0.082894
0.498319
0.590541
-0.976455
-0.018442
-0.259683
-0.102610
0.798029
-0.243150
-0.559899
-0.969182
-0.430112
-0.272360
-0.894934
-0.436498
0.309187
0.243753
0.328829
-0.356682
-0.144061
-0.327258
-1.006723
0.806738
-0.578274
0.658519
0.532661
-0.689198
0.667545
0.761769
0.055422
-0.973677
-0.244312
-0.407521
0.837903
0.489826
-0.162176
0.077024
-0.344390
-0.586401
-0.554849
-0.220001
-0.167727
0.187591
0.027249
-0.969112
0.019346
-0.368855
-0.934070
-0.821454
0.581558
-0.666122
-0.298294
-0.595574
0.738284
-0.192471
-0.638330
-0.804800
0.685223
0.651286
0.551295
0.479864
0.604236
-0.728614
0.369929
0.620214
0.711902
-0.175035
0.122443
0.031131
1.051629
0.918726
-0.857521
0.336651
0.718613
-0.424690
-0.854852
0.421886
0.806898
-0.633907
-0.710108
0.543696
-0.865860
-0.263669
0.129750
-0.420544
0.303092
0.570692
0.686277
0.648989
-0.735649
0.277876
1.036019
0.254835
0.879757
-0.738408
-0.897124
-0.840573
0.543988
0.865882
0.876213
-0.030971
0.561631
-0.148816
-0.105929
-0.226856
