-0.291692
0.988066
-1.807137
0.791200
0.511359
-2.904142
-1.105066
1.383108
-0.025753
-0.462368
0.473620
-2.042640
0.702788
0.104156
0.463494
-0.238134
-0.432102
-0.151174
2.888355
0.969575
0.521979
0.710889
0.090163
-2.283306
-0.455187
-0.716254
-0.249943
-0.922119
0.609688
-0.058713
-0.136033
-0.802150
1.375165
0.172043
-0.925647
0.119713
-0.465965
0.183956
-0.654231
1.088396
-0.479246
-0.118324
-0.748897
0.374943
0.305284
1.278226
0.094614
-0.859101
-0.222071
-0.688552
0.116269
-1.277542
0.940510
-2.009942
0.968093
0.048231
-2.097117
-0.067359
1.093338
0.120118
0.660208
-1.105946
-0.079013
-0.191123
-0.161642
-0.757776
1.298200
-1.693989
-0.438250
0.452260
-0.438593
0.124571
0.835285
0.337795
-0.169972
0.100749
0.393117
0.951786
-0.027191
-4.037308
0.466354
-0.615484
0.451905
-0.933544
-1.076003
-0.093910
-0.774971
-3.106522
2.440389
-0.848069
0.737224
0.470433
0.037975
1.589351
-1.131821
0.203902
0.350473
0.524807
0.060577
0.259022
0.054434
0.088111
0.244305
0.140252
0.724516
-0.705682
-0.204601
-1.531286
0.145840
2.093085
-0.626534
-0.471939
0.078284
-0.286618
-1.332043
-3.569561
0.432697
-0.812856
0.626033
-1.719683
0.091668
2.582964
0.216423
0.683761
0.310378
0.639632
0.945560
0.484002
1.101825
-0.954773
1.357644
-0.339414
-0.020369
-0.360937
-0.688785
0.688873
1.120780
0.729652
-0.640248
-0.034263
-1.183034
0.851357
-2.848790
-1.239079
-0.081498
-0.846411
0.201238
0.489437
-1.916206
0.140918
-1.179472
-1.956420
-0.295703
-0.369313
2.439613
-0.284327
0.657867
-0.518862
-1.192609
-0.898450
0.815361
0.692513
-0.550919
0.500669
-0.326325
-1.602907
0.402871
0.823855
1.758122
0.217932
1.353715
0.253894
-2.473236
0.227969
0.627572
0.902907
-0.606828
1.574073
-0.573333
-1.802848
-1.020397
0.893430
0.065197
0.423696
-0.502676
1.675526
-3.373098
0.750441
-0.503562
0.291929
-0.660419
1.147438
-0.964700
-0.177863
-0.218434
-1.176782
-0.171068
0.741912
2.520448
-1.074460
3.516058
0.571215
0.834373
-1.977262
-0.938665
0.494049
0.368730
-1.864608
-0.823236
-0.353613
-0.748026
-0.744598
1.626609
0.059718
-1.363569
0.330652
0.441716
-0.827203
-0.870766
-2.914454
0.416828
1.235673
0.583219
-0.791013
0.947384
-0.399514
0.502885
0.881572
-2.095638
-0.392612
0.172224
-0.966063
-0.799606
-0.204571
0.844402
-0.870397
0.489549
-0.571755
-0.581378
0.103308
0.114446
2.013117
-0.287577
-0.323998
0.811281
0.595069
0.685551
-0.194869
-0.924760
0.650496
0.374316
-0.615548
0.830674
-0.035756
-1.097625
0.100890
-0.472846
0.090234
-0.540405
-1.029648
-1.204667
-1.187460
-0.068092
0.408690
-0.422231
-0.963617
0.466870
-0.973267
-0.144412
-0.844039
-0.596631
-0.553881
-0.058951
0.572156
0.435418
-0.570236
-0.483832
-0.227576
0.105806
-0.316737
-0.347238
-0.605803
-0.362534
0.708940
0.342222
-0.922026
0.135585
-1.250163
0.597003
0.048798
-0.541314
0.769723
0.783969
-0.366136
-0.383877
0.378805
-1.208153
0.691861
0.242819
-0.627576
0.672355
-0.538809
0.061415
-1.127885
0.518594
0.290005
0.412813
-0.752997
-0.994897
0.467213
0.495252
0.344952
-0.758090
0.381089
-0.868416
0.497503
0.242449
-0.344967
0.066503
0.142981
-0.516836
-0.294163
0.836591
-0.694717
-0.304712
-1.127431
-0.619903
-0.093933
-0.140831
-1.216281
-0.719138
-0.521293
0.364509
0.551332
0.131858
-0.385569
-0.637392
-0.558483
-0.310391
-0.722988
0.727201
0.689156
-1.196049
-0.842494
0.571402
-0.969840
-0.057569
-0.978051
0.089594
-0.487870
-0.015547
0.583034
0.425339
-0.187284
-0.572604
-0.549653
-0.323290
-0.947935
-1.050215
-0.974163
-0.292595
-0.057699
0.458789
-0.087168
-0.752712
-0.922375
0.146481
0.159769
-0.193565
-0.913992
0.350366
0.801405
-0.494034
0.618436
0.272742
0.134608
-0.363671
0.379034
-1.169471
0.371649
-0.889914
0.775408
-0.499108
0.788621
-0.962703
0.084401
-0.341492
0.104751
-0.127289
-0.120848
0.275597
-0.491555
-0.639499
-0.303624
-0.146596
-0.971490
0.903373
0.513186
0.461603
0.712147
0.328652
-0.865919
-0.982852
-0.970614
0.521199
-0.084276
-0.258363
-0.669052
-0.730062
-0.305672
0.489726
0.124135
0.433528
-0.005817
-0.557233
0.027277
-0.796786
-1.026520
-0.797718
-0.046137
0.900959
0.395062
0.173174
-0.849282
-0.163153
-1.109810
0.404801
-0.964310
-0.393676
-0.049921
-0.226270
-0.236359
-0.083149
-0.110454
-0.554447
-0.868432
-0.711264
0.545982
0.775688
-0.585474
0.439585
-0.056842
0.298700
0.654175
-0.353348
0.382238
-0.681145
0.315310
-0.123731
0.039010
-0.138046
0.680710
-0.461476
-0.824203
-1.264378
-0.195211
-1.166681
0.573276
0.331214
0.259000
-0.128879
-0.282521
0.538409
-0.194308
-0.205852
-0.974103
0.378885
0.093982
0.269893
0.095577
0.879247
-0.847908
-0.386241
0.225831
-1.126507
-0.718725
-0.453833
0.260231
-0.029043
-0.621374
0.523196
-0.338150
-0.213749
-1.117658
-0.505835
-0.695503
0.509662
-0.548898
0.510489
-1.325740
-0.345949
-0.310830
0.654508
-0.003825
0.796453
-0.265952
0.294870
-0.135280
-0.801667
-0.370399
0.046050
-0.913458
-0.774179
-0.289896
-0.154759
-0.414737
-1.013667
-0.435269
-0.497657
0.752388
-0.688265
-0.516855
0.657754
-0.499182
0.976595
-1.033915
0.603611
-0.903614
-0.026926
-0.653914
-0.948145
-0.530725
0.541701
0.332047
-0.249503
-0.130394
0.621762
-0.394408
-0.172119
-0.717803
0.609865
0.389906
-0.666335
0.456976
0.680761
0.926001
0.496659
0.118873
-0.608704
0.468376
0.050570
-0.656206
-0.824793
-0.269778
0.355996
-0.281856
-0.844782
-0.552116
0.462185
0.614235
-0.357546
-1.214051
0.423463
0.362997
-0.574272
-0.721843
-0.217878
-0.651900
-0.889905
-0.139188
0.874387
-0.217130
0.014055
0.477680
-0.070581
0.077578
-0.235973
0.508176
0.197596
0.480257
-1.328190
-0.664050
-0.166766
-0.701136
0.127506
-0.339928
-0.948032
-0.087162
-0.405446
0.496853
-0.603691
-0.528255
0.469207
-0.232256
-0.384961
-0.290138
0.305014
-0.567823
-0.985614
0.798100
-0.571132
0.572838
0.490239
-0.756725
-0.128845
-0.535690
-0.195214
-0.670934
0.917995
-0.478692
-0.692537
0.344309
-1.108349
-0.326277
-0.888510
0.751504
-0.863405
-0.602261
0.871280
0.011982
0.850156
0.103302
0.101839
0.597567
0.213792
0.535768
-0.838858
0.781115
0.584323
-1.054838
0.446337
-0.173705
-0.715235
-0.989680
0.423887
0.626645
0.451079
-0.605783
0.511469
-1.235574
-0.079579
0.053044
-0.445665
-0.956097
-0.878641
0.296680
-0.848621
0.426030
-1.083950
-0.081501
-0.157656
-0.689423
-1.004826
0.795797
-0.896266
0.247154
0.386102
-0.788920
0.486639
-0.447038
-0.020406
-0.517108
0.469498
-1.078897
-0.693301
-0.967067
0.138609
0.150062
0.196151
0.294840
0.127643
-0.181303
-1.301230
0.180569
-0.108530
-0.372041
0.442999
0.662491
-0.463926
-0.565182
-0.703770
0.010874
-0.229573
-0.489873
0.520814
-1.130227
-0.282077
0.304853
-1.295116
0.143348
0.699080
-1.005147
-0.766758
0.238869
0.635044
0.534404
-0.478422
0.783451
0.153370
0.868099
0.808639
0.314655
0.494794
0.589365
0.341262
0.821785
-0.677151
0.765708
-0.965030
-1.188334
-0.707461
0.445330
0.057204
-0.101715
-0.008587
-0.363363
-0.364441
-0.763347
0.297977
-0.298943
0.998467
-0.035198
0.150932
-0.489061
0.684750
-0.828551
-1.078552
-1.066851
-0.127606
-0.451671
0.711058
-0.981298
0.627729
-1.191355
0.701115
0.508275
0.844180
-0.854985
-0.935445
0.883331
-0.639764
-0.514743
-0.247530
-0.189532
0.693326
-0.618592
0.645403
0.525870
-0.864945
0.566155
0.111246
-0.413443
0.149631
0.133471
-0.422124
0.683861
-0.887034
0.046119
0.483928
0.478676
-0.631151
-0.276606
-0.784942
0.018422
-0.223548
-1.047255
0.884249
0.818286
-0.998171
-0.743838
-0.023812
-0.662310
-0.453302
0.329278
0.291596
-0.315528
-1.427883
0.561227
0.099490
0.521305
-0.833585
-0.079186
-0.810512
-1.207924
0.563983
-0.746043
0.156875
-1.407917
0.899531
-1.124170
-0.172302
-0.067576
-0.904270
0.324496
-0.598317
-0.754891
-0.101764
0.431388
-1.059823
-1.228610
-0.629936
0.005019
0.796228
-0.846548
-0.272018
0.510306
0.305092
0.656708
-0.838913
-1.280355
-0.119116
-0.486875
0.813345
0.302752
0.549074
0.033857
-0.629234
0.081015
-0.894136
-0.138777
0.027960
-0.861224
-0.509482
0.606568
0.453892
-0.592537
-0.285908
-1.068159
-0.837896
0.080653
-0.148997
-0.017847
-1.127035
-0.550676
0.907295
0.246284
0.257905
-0.057014
-0.016975
-0.146917
0.460405
0.776940
-0.137550
-0.179820
0.577202
0.217960
-0.002496
-0.376315
-1.121858
0.935151
0.313980
0.608573
-0.128257
-0.953111
-0.966733
-1.323840
-0.301405
0.472872
-0.750417
-0.230352
-0.117500
0.234692
-0.307910
0.766110
0.302731
-0.429205
-0.954404
0.325459
-1.270904
0.169651
-1.398075
0.041394
-0.197602
0.224699
-1.241180
0.761542
-0.049950
-0.529627
-0.137997
-0.144651
-0.800849
0.618647
0.612171
-0.191788
0.329325
-0.938351
0.464948
-1.119755
-0.499876
0.269877
-0.849269
0.170008
-1.022330
-0.491761
0.575358
0.458839
0.667470
0.246869
-0.854675
-0.131639
-0.208574
-0.821436
0.709037
-0.418178
0.251610
-1.042510
0.788504
0.123035
-0.409610
0.530236
-0.887819
0.796395
-0.369283
-0.406912
-0.898540
0.277251
0.069104
0.178515
0.592461
-0.997917
-0.896673
-0.021348
0.065410
-1.033782
0.801038
-0.657669
-0.667304
-0.854067
0.230347
-0.909576
-0.938308
0.596075
0.953308
0.289026
-0.754959
-0.783079
-1.050863
0.596006
0.669833
-0.096959
-0.588138
-0.865708
0.135359
-0.349301
0.230216
-0.885947
0.529190
0.821892
0.650376
0.134517
0.232044
0.684029
0.146813
-1.381203
0.133478
-1.054745
-1.391868
0.589299
0.534344
-0.690791
-0.570537
-0.667982
0.043261
-0.654240
-0.158138
-0.823796
0.082710
-0.636471
-0.492416
0.510629
-0.061550
-0.271801
0.394025
-0.195563
-1.438758
0.735878
-0.456623
0.479782
-1.117816
-0.548979
-0.381270
0.722615
0.485756
-0.170669
-0.020946
-0.181513
-0.007146
-0.325723
-0.172915
-0.080839
-0.812303
-0.442422
0.561271
-0.837925
-0.823242
-1.085728
-0.992244
0.735562
-0.158858
-0.318796
-0.447860
-0.290112
0.440554
-0.503686
0.481784
-0.132957
-0.175985
-0.857461
-0.822109
-0.367304
0.082437
-0.056893
0.727024
-0.667953
-0.497200
-1.113583
-0.687417
-0.243787
0.621549
0.295053
-0.146461
0.566776
-0.242500
-1.176198
-0.154743
0.050550
-0.629239
0.105243
-0.047896
-1.038521
0.482101
0.312892
-1.216876
0.131981
-0.206618
-1.140042
-0.543773
0.721817
-0.007058
-0.022330
0.726973
0.330975
-0.181471
-0.277037
-1.002844
-0.746228
-0.234103
-0.649326
0.624501
-0.065632
-0.432829
0.285633
-1.003929
-0.291467
-0.063281
0.105880
-0.518486
0.247274
0.263914
0.312426
-0.653815
0.577666
0.830708
0.177784
-0.558595
0.538334
0.097099
-0.860240
-0.978461
-1.174553
0.392511
-1.015048
-0.824342
0.717049
-0.518092
-0.487504
-0.162945
-0.370555
0.395156
0.827808
-1.013229
-1.117313
-0.306422
0.255351
0.656112
-0.494084
-0.773623
-0.557006
0.010896
0.295154
0.289769
-0.078136
0.582406
0.393045
0.244150
-1.046612
-0.946343
-0.878092
-0.985723
-0.086685
-0.592001
-0.354765
-0.830685
-1.319795
-0.021932
-0.708051
0.914724
-0.435619
-0.865421
0.723422
-0.025663
-0.014226
0.547447
-0.837063
0.719363
-0.797718
0.715219
0.043644
-1.236782
-0.303312
-0.045812
0.530786
-0.719499
-0.038254
0.831933
0.207164
-0.189314
-0.191911
0.454694
0.529207
-0.606049
0.421558
0.160459
0.094396
-0.572967
-0.478884
-1.088597
0.470451
0.110466
-0.138272
0.049876
0.359956
-0.687065
-1.047395
0.676627
-0.266396
-1.176732
-0.773117
-0.542280
-0.113897
-0.378500
-0.022647
0.339513
-0.120851
-0.921899
0.845034
-0.009820
0.509177
0.338960
-0.116005
-0.232678
0.502763
-1.004524
0.700927
0.217506
-0.368613
-0.190953
-1.210103
-0.369271
-0.412680
-0.290982
-0.091724
-0.217569
0.397531
-0.375598
0.354374
-0.334416
-0.706637
0.072656
-1.247854
-0.573208
-1.156732
-0.008969
0.810018
-0.478601
-1.173301
-1.422030
-0.699491
-1.109765
-0.386241
-0.185010
-0.803673
-0.518272
-0.242782
-0.659107
-0.667352
0.959392
0.064320
-0.933616
-1.251706
0.357317
-0.300348
-0.767806
0.554926
0.572531
0.476325
0.932957
0.434905
-0.352197
0.524189
0.658630
-0.167182
0.609243
0.330181
0.302744
0.645243
-0.012318
-0.589289
-1.066083
-0.156105
0.947809
0.176922
0.950072
0.085310
-0.999309
-0.367882
0.883598
0.346121
0.444045
-0.146586
-0.709834
-0.347673
-0.383213
-0.235311
-0.977796
-0.304489
-0.327738
0.281300
-0.590245
-0.384927
-0.599494
0.546131
-0.674861
-0.041076
-0.370320
0.964378
-0.997135
0.360686
-0.635985
-0.391764
-0.172179
-0.686318
0.625767
-0.389543
0.879902
0.447175
0.071198
0.404232
-0.443085
0.489945
0.512892
-0.526842
-0.997801
0.154408
0.185565
-1.034360
-0.093472
-0.301810
-1.201950
-0.201972
-0.134908
-0.317051
-1.088172
-0.836145
0.701290
0.094577
0.572309
-0.122899
0.620706
-1.065342
-0.207593
-0.579985
0.100675
-0.664889
